%YAML:1.0
---
opencv_ml_svm:
   format: 3
   svmType: C_SVC
   kernel:
      type: LINEAR
   C: 5.0000000000000000e-01
   term_criteria: { epsilon:1.1920928955078125e-07, iterations:1000 }
   var_count: 832
   class_count: 2
   class_labels: !!opencv-matrix
      rows: 2
      cols: 1
      dt: i
      data: [ 1, 2 ]
   sv_total: 1
   support_vectors:
      - [ 1.29141241e-01, 1.03548825e-01, -7.32649639e-02,
          -1.51135817e-01, 2.65707150e-02, 4.80879797e-03,
          2.21465826e-02, 2.36646160e-02, 8.53019394e-03,
          -8.29215273e-02, -3.01970560e-02, 1.31637499e-01,
          1.45877004e-01, -1.79608054e-02, -6.20089471e-02,
          2.51347609e-02, 1.19591370e-01, 1.61630124e-01, 7.19636083e-02,
          1.80593077e-02, 3.39765437e-02, 2.37689493e-03,
          -4.34403270e-02, 1.92777980e-02, 1.52238891e-01,
          7.61864409e-02, 5.16015999e-02, 1.05840780e-01, 4.47393171e-02,
          -9.58424509e-02, 1.25350272e-02, 5.48307113e-02,
          1.33422494e-01, 1.20577417e-01, 8.71650577e-02,
          -7.51761124e-02, 3.65105234e-02, 7.93047622e-02,
          -7.56532745e-03, 6.69613481e-02, -9.84191820e-02,
          -1.19294085e-01, 4.05137688e-02, 1.73233487e-02,
          8.59940052e-02, -2.35330164e-02, 1.29144490e-01,
          9.66694579e-02, -1.96688548e-01, 5.73174655e-03,
          1.77007183e-01, 1.18433960e-01, -1.08462721e-01,
          2.46297225e-01, 1.41330630e-01, 2.11914741e-02, 8.45336542e-02,
          5.96778654e-02, 3.19541693e-02, 1.15919024e-01, 8.84006321e-02,
          1.42773753e-02, 6.60604388e-02, -3.58725712e-02,
          -2.27611870e-01, -1.91361174e-01, 3.59505415e-02,
          6.28315434e-02, 7.40141645e-02, -4.39076126e-02,
          -5.85723147e-02, 1.03578746e-01, 1.38683766e-01,
          6.36060685e-02, 5.30060306e-02, 9.48179960e-02, 4.04310971e-03,
          -1.32317066e-01, 1.47065073e-01, 3.29305321e-01,
          1.23993970e-01, -1.23042986e-02, 1.42208129e-01,
          8.49289373e-02, 4.99562472e-02, 1.94628075e-01, 1.21644884e-01,
          -5.94967157e-02, 1.44239932e-01, 1.25783980e-01,
          -4.37804423e-02, -5.70606515e-02, -6.09487705e-02,
          -1.01965785e-01, -9.77127254e-02, -1.06396906e-01,
          -1.06777266e-01, 2.62156408e-02, 8.34832788e-02,
          5.56883626e-02, 1.34885311e-01, 3.82855386e-02,
          -1.52642913e-02, -1.41878679e-01, -1.62049979e-01,
          -6.96291625e-02, 1.76187217e-01, 1.41306743e-01,
          1.80220008e-02, 5.57780601e-02, -2.16692314e-02,
          8.09681788e-02, 9.13151875e-02, -1.77135505e-03,
          -2.18442693e-01, -3.36841553e-01, -2.22061127e-01,
          1.71815604e-02, 1.18391372e-01, 1.50683984e-01, 5.58308326e-02,
          1.06473574e-02, -3.85999517e-03, -7.69747570e-02,
          1.51637554e-01, 5.89416809e-02, -8.10955763e-02,
          -1.36822790e-01, -8.83078724e-02, -6.07591905e-02,
          1.77857969e-02, 1.28508285e-01, 2.17425913e-01, 3.67438644e-02,
          1.01562375e-02, 9.30723548e-02, 7.99998234e-04, 5.72471768e-02,
          1.07840396e-01, 5.53741679e-02, -2.15299323e-01,
          8.11295360e-02, -1.70748487e-01, 8.00858485e-04,
          1.02288924e-01, 1.38350472e-01, -9.24108829e-03,
          1.33231565e-01, 1.50868580e-01, -1.52563393e-01,
          9.22554955e-02, -1.66527480e-02, -2.14750275e-01,
          -1.56393856e-01, 9.75205656e-03, -8.43787938e-02,
          8.92119035e-02, -4.22055386e-02, -9.64149907e-02,
          -9.87897888e-02, -3.16697918e-02, -1.95085257e-02,
          5.86649440e-02, 4.53557968e-02, -3.44743021e-02,
          8.80281627e-02, 1.03129402e-01, 4.94449548e-02, 7.09387660e-02,
          1.24414273e-01, 3.33259553e-02, -2.07199492e-02,
          -8.57010856e-02, -7.96363279e-02, -4.38371561e-02,
          2.15738881e-02, 5.13425544e-02, 4.78540771e-02, 6.11808635e-02,
          1.70432359e-01, 5.46355024e-02, 1.22857831e-01, 1.71125695e-01,
          -3.79511267e-02, -2.18279049e-01, -2.69232720e-01,
          2.05769744e-02, 1.18113942e-01, 1.76323831e-01, 2.60032326e-01,
          1.47956163e-01, -6.05738424e-02, 1.65847726e-02,
          -1.22863568e-01, 1.38513163e-01, 2.67072856e-01,
          4.40726951e-02, -9.83312577e-02, -8.33194032e-02,
          -2.85429899e-02, 2.46703246e-04, 1.46707129e-02,
          1.46582037e-01, 1.16871804e-01, 6.04468025e-02, 1.30210325e-01,
          -2.08647340e-03, 2.20349178e-01, 6.89697713e-02,
          4.41102274e-02, -9.86399278e-02, -5.12061566e-02,
          1.45984516e-01, 1.32513195e-01, 9.89725813e-02, 6.49801642e-02,
          1.02716446e-01, 3.61873955e-02, 6.43308088e-02, 1.93477228e-01,
          1.04038179e-01, 4.46714908e-02, 1.38494626e-01, 2.09135398e-01,
          1.00012429e-01, 4.16261643e-01, 1.36977673e-01, 1.25685915e-01,
          1.66979402e-01, 1.68138236e-01, -2.32585818e-01,
          -7.52523392e-02, 2.96572983e-01, 4.55814078e-02,
          9.32368785e-02, 2.50577837e-01, 3.36891823e-02,
          -8.20676088e-02, 6.67272210e-02, -2.97519118e-02,
          -1.29405290e-01, -1.35552324e-02, 7.76436776e-02,
          1.66203789e-02, 1.40597105e-01, 1.93553537e-01, 1.43129274e-01,
          5.58039844e-02, 3.35646778e-01, 2.20994577e-01,
          -1.03963040e-01, 1.40787944e-01, -7.79321566e-02,
          -2.40789816e-01, 3.12926807e-02, 5.91663904e-02,
          -8.19474980e-02, 8.05787742e-02, 2.63920933e-01,
          1.34498671e-01, 7.72570670e-02, 3.75268728e-01, 1.48559526e-01,
          -1.26747608e-01, 1.08933002e-01, 1.59297079e-01,
          -1.59355909e-01, 1.82147279e-01, 1.94365561e-01,
          4.19689678e-02, 1.53673992e-01, 2.93488532e-01, 7.08178729e-02,
          4.72055115e-02, 3.04183304e-01, 3.95424552e-02,
          -2.25986958e-01, 4.74639237e-02, 8.32971632e-02,
          -2.30214354e-02, 3.36194634e-01, 2.85397649e-01,
          -2.07665339e-01, -1.48009940e-03, 2.71515429e-01,
          1.46073187e-02, -2.34326631e-01, -7.19169602e-02,
          -1.59009174e-01, -2.09521085e-01, 1.92738861e-01,
          7.74994567e-02, -1.46631569e-01, 1.67420700e-01,
          2.48358935e-01, 1.19736560e-01, 2.47248381e-01, 2.65435010e-01,
          -1.24166861e-01, -2.10813046e-01, 1.71168149e-01,
          -5.95013276e-02, -5.18472679e-02, 1.68909207e-01,
          1.05861157e-01, -4.23347466e-02, 3.27340186e-01,
          2.78287441e-01, -4.49589565e-02, 5.39768375e-02,
          2.71918952e-01, -1.07551485e-01, 1.70265555e-01,
          1.12226650e-01, -5.27108535e-02, -1.41099855e-01,
          -6.54911473e-02, -3.56021486e-02, 4.37275246e-02,
          1.40937895e-01, 1.79281160e-01, -4.17490304e-02,
          -6.61193803e-02, 1.65182829e-01, 4.64931317e-02,
          -1.93420738e-01, 7.70191997e-02, 1.87578961e-01,
          2.05100000e-01, 1.12937964e-01, 7.67837763e-02, 3.39902267e-02,
          9.40391123e-02, 2.17512459e-01, 2.72090174e-02,
          -1.32940402e-02, 8.78075585e-02, -7.31563196e-02,
          2.55596731e-02, 3.38037103e-01, 1.01921290e-01,
          -6.62587136e-02, -5.88168874e-02, -6.10740222e-02,
          -9.76421013e-02, 1.61568403e-01, 9.80555713e-02,
          7.44030476e-02, -1.08971866e-03, 2.72869468e-01,
          -1.12380378e-01, 3.49383950e-02, 2.83398330e-01,
          1.72360852e-01, 9.55684930e-02, 3.27357538e-02,
          -6.35341033e-02, -6.66679218e-02, -1.77877378e-02,
          9.39576328e-02, -6.53272942e-02, -6.83866115e-03,
          3.51213127e-01, 1.35395061e-02, 2.97720343e-01, 3.31560940e-01,
          6.16864599e-02, -1.86296090e-01, 4.64801304e-02,
          7.87093118e-02, 3.80045697e-02, 2.69481093e-01, 3.84001493e-01,
          7.43687302e-02, -1.21115461e-01, -8.20475593e-02,
          8.19730014e-02, 2.12226287e-01, 1.13721035e-01, 3.61723527e-02,
          -1.53800502e-01, 7.12643042e-02, 1.35431364e-01,
          1.57818630e-01, 2.09117666e-01, 1.72630563e-01, 7.79970884e-02,
          1.25558689e-01, 6.74405545e-02, 9.06201079e-02, 2.72808462e-01,
          1.13283008e-01, 6.58464944e-03, -3.42918992e-01,
          -2.69231796e-02, -3.90875414e-02, 3.44483592e-02,
          1.58087146e-02, -1.00299746e-01, -1.88863471e-01,
          -1.43905669e-01, -1.28739877e-02, 8.12076628e-02,
          2.28975222e-01, 2.54389346e-01, 3.23223397e-02,
          -1.86012253e-01, -1.51834730e-02, -1.79477129e-02,
          9.30955559e-02, 5.39433472e-02, 1.78654939e-01, 3.49622667e-02,
          1.78294227e-01, 1.87455699e-01, 5.19522391e-02, 5.24485530e-03,
          1.29103303e-01, -1.82491139e-01, -2.65812308e-01,
          2.05459014e-01, 2.41965324e-01, -1.54440418e-01,
          5.72791286e-02, 6.11158013e-02, -8.96517709e-02,
          6.51954710e-02, 7.31934011e-02, 4.61167656e-02,
          -1.65560305e-01, 1.07212603e-01, 1.76128536e-01,
          -3.67706176e-03, -1.05712205e-01, 1.57331526e-01,
          2.68556654e-01, 4.18932401e-02, -3.26206535e-02,
          -2.52438992e-01, -4.43547592e-02, 1.45285949e-01,
          8.74046329e-03, -1.12485074e-01, 5.90940192e-02,
          -1.64358392e-01, -1.66341856e-01, 6.63763955e-02,
          2.73839831e-01, -9.60964188e-02, 1.00270733e-01,
          2.84986179e-02, -1.66067943e-01, 1.34233553e-02,
          7.60505274e-02, -1.70114264e-02, -1.97143108e-01,
          -7.92914405e-02, -3.56245004e-02, -3.15561146e-01,
          1.01099079e-02, 2.85057038e-01, -1.14955105e-01,
          1.60237476e-01, 4.56084087e-02, -1.95788428e-01,
          -5.71172796e-02, 1.10529236e-01, -7.55919516e-02,
          -5.58275729e-03, 1.55912280e-01, 6.99828640e-02,
          -1.56353652e-01, 2.42814664e-02, -1.77444950e-01,
          -1.73600167e-01, 1.54957876e-01, 1.42785713e-01,
          -2.65610218e-01, 8.62020254e-03, 1.52564481e-01,
          -4.68231216e-02, -1.63290575e-02, 3.17766100e-01,
          -5.66065460e-02, -2.51129329e-01, 9.56854448e-02,
          -7.77464360e-02, 1.30663276e-01, 2.19676197e-01,
          2.43608445e-01, -1.19476698e-01, 3.98169346e-02,
          1.95679531e-01, -1.97978690e-02, -8.98586661e-02,
          1.04677059e-01, 8.28071162e-02, -5.51136360e-02,
          1.53931558e-01, 1.43025973e-04, -1.73335016e-01,
          1.68868244e-01, 6.86548427e-02, -1.91428483e-01,
          -4.35583293e-02, 6.15733825e-02, -2.45268643e-02,
          2.15625484e-02, 1.51483923e-01, -1.47714809e-01,
          -2.14562371e-01, 1.62743554e-01, 8.44538063e-02,
          2.64463741e-02, 2.79343754e-01, 6.38556406e-02,
          -5.22982702e-02, 1.44283116e-01, 2.30114654e-01,
          -2.99589466e-02, -2.96820141e-02, 3.85153085e-01,
          -1.90222580e-02, 1.06536541e-02, 2.78328389e-01,
          2.02293456e-01, -1.01742454e-01, 2.13069886e-01,
          8.77943933e-02, -1.85202390e-01, -1.15215972e-01,
          1.24716595e-01, -1.48576200e-01, -1.27459109e-01,
          1.62754104e-01, -6.96322694e-02, -1.25023916e-01,
          2.36635000e-01, 2.56248921e-01, 5.08600436e-02, 3.56140465e-01,
          2.38430455e-01, -2.69262582e-01, -2.88925678e-01,
          1.47282064e-01, -1.58426628e-01, -1.66054025e-01,
          2.20146850e-01, -1.12906344e-01, -7.47467652e-02,
          9.04910266e-02, 3.59208547e-02, -1.96863264e-01,
          2.54689932e-01, 9.16909277e-02, -2.47210205e-01,
          -1.31167367e-01, 1.08649805e-01, -1.95814490e-01,
          4.23434936e-03, 3.66159260e-01, -3.66303883e-02,
          -3.05897713e-01, 1.41199008e-01, 3.03831324e-02,
          -2.00753242e-01, 2.14742318e-01, 9.47489366e-02,
          -2.82320052e-01, -1.79018319e-01, 2.55575150e-01,
          -3.85699607e-02, -1.08153656e-01, 2.52116099e-03,
          -3.10041159e-01, -5.10070086e-01, -3.40190120e-02,
          5.70771769e-02, 1.69460237e-01, -8.59767273e-02,
          -5.65223880e-02, -3.54921252e-01, -1.42450482e-01,
          1.91409618e-01, -1.12495564e-01, 3.35181318e-02,
          1.08731695e-01, -1.92286417e-01, -4.17644769e-01,
          -2.76983064e-02, 9.96403322e-02, 2.79264778e-01,
          8.16068128e-02, 2.61084829e-02, -2.14438066e-01,
          2.60920338e-02, 1.14301614e-01, 1.56075746e-01, 2.50072479e-01,
          1.47835761e-01, -1.36355400e-01, -2.07735956e-01,
          5.40039269e-03, 2.47148365e-01, 1.21874049e-01, 4.34685983e-02,
          -1.29352346e-01, -2.04369575e-01, -2.95097549e-02,
          2.15673789e-01, 2.16028377e-01, 7.50606880e-02, 9.34816524e-02,
          -1.58395916e-01, -3.10876578e-01, -9.34140533e-02,
          1.88417479e-01, 2.09148079e-01, 1.26178265e-01,
          -6.80214390e-02, -1.54405251e-01, 1.96443200e-01,
          8.87923613e-02, 1.13453038e-01, -2.41153524e-03,
          1.07477019e-02, -1.14539295e-01, -2.13220358e-01,
          2.14764431e-01, 2.73237258e-01, -3.15894723e-01,
          1.58840358e-01, 5.60027473e-02, -9.91143286e-02,
          -1.88567173e-02, 2.64821239e-02, 5.88630652e-03,
          -1.05725557e-01, -1.15869995e-02, -1.95461050e-01,
          -1.04018211e-01, 9.77438390e-02, 3.14736456e-01,
          1.81934372e-01, 9.49294940e-02, -6.83570430e-02,
          -1.18941076e-01, 2.62804376e-03, 1.01819165e-01,
          -1.05256587e-01, -3.99729162e-02, -3.10439914e-02,
          -5.19073494e-02, -1.20661721e-01, 1.56403910e-02,
          3.07403114e-02, 3.15760262e-02, -2.01639906e-02,
          -7.88485457e-04, 8.09889170e-04, -1.68674975e-03,
          -1.93839017e-02, -4.88444678e-02, -4.70738970e-02,
          6.59750849e-02, 1.07027970e-01, -1.77207310e-02,
          -1.07934535e-03, -3.85806640e-03, -1.50481865e-01,
          -1.58017091e-02, -4.60156053e-02, -1.60928108e-02,
          -6.46281429e-03, -2.23975312e-02, -8.53020102e-02,
          3.61458063e-02, -5.21996394e-02, -1.88627318e-01,
          -3.27139854e-01, 9.37795937e-02, 1.93796635e-01,
          2.36942694e-01, 1.86366260e-01, -7.07437173e-02,
          -4.67715681e-01, -1.70227170e-01, -8.25892389e-03,
          3.12428530e-02, 2.58444518e-01, 8.61048251e-02,
          -3.53844494e-01, -2.74064422e-01, 1.46840736e-01,
          4.20709431e-01, 1.28290206e-01, 3.10266793e-01,
          -1.16796650e-01, -5.00783086e-01, -1.04250297e-01,
          4.85188179e-02, 1.37151659e-01, 4.77445573e-02,
          -2.83033191e-03, -9.91129950e-02, -1.87580928e-01,
          -1.58752814e-01, -1.60885882e-02, -1.11576974e-01,
          -4.61847708e-02, 5.31247305e-03, -1.38648391e-01,
          -7.66359419e-02, -1.12675996e-02, -1.92237236e-02,
          3.60831581e-02, -1.10730976e-02, -1.06587730e-01,
          -5.35177141e-02, 5.45495702e-03, 1.85014725e-01,
          7.66688632e-03, 2.33628531e-03, -7.22444579e-02,
          -1.82754248e-01, -4.11372259e-02, 1.01331575e-02,
          1.26304233e-03, 8.03975016e-02, 1.08143531e-01,
          -7.74115697e-02, -3.32390338e-01, -4.05488210e-03,
          1.20767392e-01, -1.31177261e-01, 1.32669676e-02,
          4.36849752e-03, -2.55610477e-02, -5.37486514e-03,
          -2.91250721e-02, -4.78182163e-04, 6.84265345e-02,
          3.23137343e-02, 4.83927764e-02, -5.64121231e-02,
          -1.00935787e-01, -5.16700670e-02, -2.62220711e-01,
          4.98391800e-02, 4.68866266e-02, -3.14075947e-02,
          -3.90692540e-02, -1.13423113e-02, 4.35203724e-02,
          9.73886177e-02, 6.97097555e-02, 3.82349715e-02,
          -1.81768890e-02, 7.06159845e-02, 1.71738371e-01,
          -7.86093622e-02, -1.17914945e-01, -8.17164257e-02,
          2.59439871e-02, 7.36510158e-02, 4.75229733e-02, 6.39526099e-02,
          1.54774621e-01, 9.48907807e-02, -4.39888099e-04,
          -2.90272962e-02, -4.90017459e-02, 1.65506154e-01,
          -9.24049467e-02, 5.02670966e-02, 1.07478321e-01,
          3.75387892e-02, 1.00332372e-01, 7.36114010e-02, 1.21244498e-01,
          1.38389925e-02, -1.02570847e-01, -2.58921057e-01,
          -1.75546333e-01, -2.29239911e-02, 2.20278680e-01,
          1.80649776e-02, 7.31993765e-02, -7.06416890e-02,
          -1.29483938e-01, 5.69383688e-02, 4.95266356e-02,
          2.89844237e-02, 6.17094748e-02, -3.95658016e-02,
          -1.39851332e-01, -3.38085264e-01, -1.34236515e-01,
          -4.88059372e-02, -1.65324196e-01, -2.26976782e-01,
          -1.91732973e-01, 1.84512675e-01, 1.57188892e-01,
          2.67736316e-02, 1.04469266e-02, -4.07789461e-02,
          -4.14454043e-02, -1.01580650e-01, -1.47539675e-01,
          6.73148036e-02, 1.29918233e-01, 9.05885454e-03,
          -1.92524195e-01, -1.91414937e-01, -1.81973234e-01,
          1.01409487e-01, -1.08458218e-03, -2.00262968e-03,
          -1.90082239e-03, -1.94811467e-02, -2.23927852e-02,
          -6.89887330e-02, 9.94008128e-03, 8.07933435e-02,
          7.97552019e-02, 2.61062570e-02, 6.64262474e-02, 3.13298553e-01,
          1.70801282e-01, -5.98128513e-03, 1.94503844e-03 ]
   uncompressed_sv_total: 99
   uncompressed_support_vectors:
      - [ 0., 0., 0., 0., 0., 0., 0., 0., 0., 0., 0., 0., 0., 0., 0., 0.,
          0., 0., 0., 0., 0., 0., 0., 0., 0., 0., 2.38107261e-03,
          3.07826721e-03, 5.62576111e-03, 8.46045744e-03, 0., 0., 0., 0.,
          0., 0., 0., 0., 2.38107261e-03, 7.06701994e-01, 2.34813675e-01,
          1.20881371e-01, 8.17844272e-02, 0., 0., 0., 0., 0.,
          1.15554966e-02, 3.85183212e-03, 6.80994391e-02, 6.31859064e-01,
          0., 0., 0., 0., 0., 0., 0., 0., 0., 0., 0., 0., 0., 0., 0., 0.,
          0., 0., 0., 0., 0., 0., 0., 0., 0., 0., 5.20621061e-01,
          1.85865879e-01, 7.64801959e-03, 0., 0., 0., 0., 0., 0., 0.,
          5.40288910e-02, 2.83826053e-01, 5.20621061e-01, 3.65747690e-01,
          6.88040033e-02, 2.75167380e-03, 0., 0., 0., 0., 0., 0.,
          2.12446996e-03, 3.21952887e-02, 1.90661982e-01, 3.98398131e-01,
          0., 0., 0., 0., 0., 0., 0., 0., 0., 0., 0., 0., 0., 0., 0., 0.,
          0., 0., 0., 0., 0., 0., 0., 0., 0., 0., 0., 0., 0., 0., 0., 0.,
          0., 0., 0., 0., 0., 0., 0., 0., 0., 2.50514299e-01,
          7.51543880e-01, 0., 0., 0., 0., 0., 0., 0., 0., 0., 0., 0., 0.,
          0., 0., 0., 0., 0., 0., 0., 0., 0., 0., 0., 0., 0., 0., 0., 0.,
          0., 0., 0., 0., 0., 0., 0., 6.15655899e-01, 1.58192627e-02,
          1.43878637e-02, 0., 0., 0., 0., 0., 0., 9.77188647e-02,
          9.08526182e-02, 1.43192753e-01, 7.56363034e-01, 4.96578403e-03,
          0., 0., 0., 0., 0., 0., 0., 0., 1.28249591e-02, 6.15497539e-03,
          1.52677682e-03, 4.96578403e-03, 1.39744267e-01, 9.33671445e-02,
          1.70486540e-01, 7.86096603e-02, 1.34541197e-02, 9.40783822e-04,
          2.79666241e-02, 3.42314248e-03, 1.59591436e-02, 2.27666236e-02,
          3.76780853e-02, 3.27827968e-02, 1.02444604e-01, 2.66928107e-01,
          2.79768437e-01, 2.79768437e-01, 1.58106670e-01, 3.53578217e-02,
          1.18078729e-02, 4.31420133e-02, 2.18763705e-02, 3.86336185e-02,
          3.47223356e-02, 4.50983755e-02, 4.29210998e-02, 9.05298069e-02,
          2.79768437e-01, 2.60281771e-01, 2.79768437e-01, 1.01685420e-01,
          3.89953963e-02, 3.88164148e-02, 6.80784285e-02, 3.94498631e-02,
          2.61469185e-02, 3.89762893e-02, 6.35387972e-02, 8.73579979e-02,
          2.63616860e-01, 2.10275158e-01, 2.79768437e-01, 2.79768437e-01,
          1.63526312e-01, 6.31065816e-02, 1.55047059e-01, 1.23236366e-01,
          4.29656133e-02, 2.37835757e-02, 2.91839708e-02, 4.51467782e-02,
          8.68440717e-02, 1.92161113e-01, 1.89097762e-01, 4.96153720e-02,
          2.14538127e-02, 2.87933685e-02, 6.62856624e-02, 2.36018017e-01,
          1.56204134e-01, 8.27194750e-02, 1.92261979e-01, 1.78354740e-01,
          1.49821967e-01, 2.36018017e-01, 1.60545275e-01, 2.36018017e-01,
          4.39766236e-02, 1.80133060e-02, 2.67503615e-02, 5.03292195e-02,
          1.71445876e-01, 1.16446599e-01, 6.64730519e-02, 1.04944766e-01,
          1.39531046e-01, 1.33109033e-01, 1.09363362e-01, 2.04839408e-01,
          2.36018017e-01, 5.81648871e-02, 1.98380370e-02, 4.78437468e-02,
          3.23142074e-02, 4.04729359e-02, 3.70900221e-02, 2.03511622e-02,
          6.35741130e-02, 1.15212388e-01, 1.52107432e-01, 2.36018017e-01,
          2.36018017e-01, 2.36018017e-01, 1.49228796e-01, 5.77658117e-02,
          5.02805263e-02, 3.18289585e-02, 4.37404327e-02, 5.16357273e-02,
          5.11263274e-02, 1.54729083e-01, 2.36018017e-01, 1.61627278e-01,
          1.08465955e-01, 2.36018017e-01, 1.00043081e-01, 2.33973823e-02,
          2.41627675e-02, 3.08992434e-02, 1.38235064e-02, 1.39107574e-02,
          1.07704317e-02, 1.14567000e-02, 2.07217745e-02, 3.14864144e-02,
          4.09878381e-02, 7.75760040e-02, 1.11608818e-01, 1.51096776e-01,
          2.14515522e-01, 1.74107209e-01, 1.20039828e-01, 4.68564853e-02,
          5.42253293e-02, 3.50035280e-02, 5.71469665e-02, 9.15454105e-02,
          7.76861683e-02, 4.25989106e-02, 7.69341812e-02, 9.00441185e-02,
          2.48960525e-01, 1.56517327e-01, 1.17358841e-01, 1.08030669e-01,
          5.45935854e-02, 7.37102702e-02, 7.52578825e-02, 1.77510500e-01,
          1.78397864e-01, 2.44927704e-01, 2.48960525e-01, 2.48960525e-01,
          2.48960525e-01, 2.48960525e-01, 2.48960525e-01, 2.48960525e-01,
          1.95178688e-01, 4.92014848e-02, 7.46045038e-02, 1.61553398e-01,
          1.61415637e-01, 1.64946541e-01, 1.64664596e-01, 9.26136672e-02,
          1.03236243e-01, 1.29421458e-01, 7.57791251e-02, 5.46984896e-02,
          5.98802567e-02, 1.44543201e-01, 5.88054694e-02, 3.22319455e-02,
          3.35516065e-01, 1.71946093e-01, 2.76034087e-01, 3.35516065e-01,
          3.10555279e-01, 2.22569540e-01, 1.51869982e-01, 3.44106765e-03,
          3.25883483e-03, 2.15151068e-03, 5.21763926e-03, 1.39481155e-03,
          8.38118605e-04, 1.87551286e-02, 9.91344918e-03, 9.59267002e-03,
          8.21924210e-02, 2.88292821e-02, 4.27490007e-03, 4.12063999e-03,
          1.30508244e-01, 3.19247730e-02, 1.40394932e-02, 3.64829339e-02,
          2.31686886e-02, 2.68938206e-02, 1.83898613e-01, 1.45852774e-01,
          2.29264945e-01, 3.35516065e-01, 2.84869194e-01, 2.38574281e-01,
          1.74927935e-01, 1.10165037e-01, 2.13588364e-02, 1.08762654e-02,
          3.34607251e-02, 9.71229468e-03, 1.27414716e-02, 1.24488566e-02,
          2.09336798e-03, 5.84933907e-03, 3.75127681e-02, 2.79835947e-02,
          4.28490043e-02, 1.50759608e-01, 3.55667211e-02, 3.57239097e-02,
          1.09866850e-01, 2.92765439e-01, 2.69616097e-01, 1.78334087e-01,
          2.02202767e-01, 6.32721856e-02, 3.61809246e-02, 1.96527559e-02,
          2.94919722e-02, 9.96842422e-03, 3.51131484e-02, 7.55842924e-02,
          9.56298485e-02, 1.40173763e-01, 2.92765439e-01, 2.92765439e-01,
          2.82827228e-01, 1.86105400e-01, 7.19637945e-02, 4.84675132e-02,
          2.83636749e-02, 3.97667065e-02, 1.74636971e-02, 3.53163257e-02,
          2.49607600e-02, 2.67696418e-02, 5.68226576e-02, 1.52027920e-01,
          1.72541782e-01, 8.61785263e-02, 1.03897177e-01, 2.28931792e-02,
          1.65145677e-02, 1.71308368e-02, 1.05162710e-02, 4.33169445e-03,
          2.31022239e-02, 5.98565191e-02, 6.75829202e-02, 6.60973638e-02,
          2.11171821e-01, 2.92765439e-01, 2.92765439e-01, 2.92765439e-01,
          1.18665777e-01, 5.15580066e-02, 2.15539485e-02, 1.39190014e-02,
          2.14973446e-02, 4.37271930e-02, 5.67430258e-02, 7.25862756e-02,
          4.55435961e-02, 1.89906582e-02, 2.18701269e-02, 9.52266753e-02,
          2.34168231e-01, 2.37990797e-01, 2.74411410e-01, 2.74411410e-01,
          9.08445194e-02, 1.91939734e-02, 1.38749424e-02, 2.81716529e-02,
          3.84168401e-02, 4.05176692e-02, 1.45927873e-02, 2.18369830e-02,
          4.62977886e-02, 1.45362273e-01, 2.74411410e-01, 2.74411410e-01,
          2.67138034e-01, 9.31981131e-02, 3.53154801e-02, 2.82439087e-02,
          2.96580885e-02, 1.90609284e-02, 1.83324832e-02, 3.38181332e-02,
          9.45171341e-02, 2.74411410e-01, 2.74411410e-01, 1.64301947e-01,
          1.48007080e-01, 2.74411410e-01, 8.51807445e-02, 1.48088019e-02,
          2.25076731e-02, 3.72165777e-02, 2.14108564e-02, 2.11634450e-02,
          3.08157764e-02, 5.37872761e-02, 1.38494879e-01, 1.76929757e-01,
          1.26359582e-01, 1.18833154e-01, 2.24888444e-01, 1.00975633e-01,
          4.74199168e-02, 3.39817181e-02, 1.00131467e-01, 7.17539117e-02,
          6.86482042e-02, 4.79361527e-02, 2.28915438e-02, 4.63900976e-02,
          2.56920010e-01, 1.46457553e-01, 1.48428530e-01, 1.25151575e-01,
          1.33607596e-01, 1.18263327e-01, 1.64359674e-01, 1.24702848e-01,
          8.67798999e-02, 1.09662518e-01, 9.12074372e-02, 2.53298935e-02,
          6.30695149e-02, 1.98881567e-01, 3.16587240e-02, 3.05300336e-02,
          9.04809907e-02, 7.60763437e-02, 9.24061090e-02, 1.56717122e-01,
          1.46154672e-01, 5.73792532e-02, 4.91115786e-02, 8.84296149e-02,
          8.93567652e-02, 1.28117144e-01, 3.63052100e-01, 2.98480362e-01,
          1.64044961e-01, 1.19305216e-01, 1.04086533e-01, 7.33212233e-02,
          1.40825123e-01, 1.56994820e-01, 3.10022831e-02, 3.26939598e-02,
          7.66445994e-02, 1.20351978e-01, 2.67705232e-01, 3.63052100e-01,
          8.86501297e-02, 5.99881224e-02, 7.83561766e-02, 3.48058529e-02,
          3.47192176e-02, 1.51690975e-01, 9.43426788e-02, 6.58705458e-02,
          1.05971351e-01, 2.42717102e-01, 1.23191811e-01, 1.40995041e-01,
          2.42717102e-01, 9.66941044e-02, 1.57903239e-01, 2.42717102e-01,
          1.48819163e-01, 8.18330869e-02, 1.13391623e-01, 5.90266287e-02,
          8.91332030e-02, 1.03402436e-01, 2.18037233e-01, 2.10506305e-01,
          2.42717102e-01, 2.42717102e-01, 1.19448744e-01, 1.31964698e-01,
          1.28827155e-01, 1.81352764e-01, 2.16343284e-01, 1.22410886e-01,
          7.46830031e-02, 4.35643122e-02, 2.39066556e-02, 6.30332157e-02,
          4.58752215e-02, 6.42971098e-02, 2.42717102e-01, 9.04591158e-02,
          1.37943193e-01, 2.42717102e-01, 9.33022723e-02, 4.33897153e-02,
          9.68126655e-02, 2.48495378e-02, 3.39471921e-02, 2.06349716e-02,
          6.40918463e-02, 1.32814601e-01, 1.55767724e-01, 2.40211517e-01,
          8.53719041e-02, 1.00359865e-01, 5.20604812e-02, 2.06177551e-02,
          1.73477754e-02, 2.48331875e-02, 0., 0., 0., 0., 0., 0., 0., 0.,
          0., 0., 0., 0., 0., 0., 0., 0., 0., 0., 0., 0., 0., 0., 0., 0.,
          0., 0., 0., 0., 0., 0., 0., 0., 0., 0., 0., 0., 0., 0., 0., 0.,
          0., 0., 0., 0., 0., 0., 0., 0., 0., 0., 0., 0., 0., 0., 0., 0.,
          0., 0., 2.66454697e-01, 1.27055557e-07, 0., 0., 0., 0., 0., 0.,
          0., 0., 0., 0., 0., 9.52888727e-01, 4.54372980e-07, 0., 0., 0.,
          0., 0., 0., 0., 0., 0., 0., 0., 0., 0., 0., 0., 0., 0., 0., 0.,
          0., 0., 0., 0., 0., 0., 0., 0., 0., 0., 0., 0., 0., 0., 0., 0.,
          0., 0., 9.24581766e-01, 4.40875169e-07, 0., 0., 0., 0., 0., 0.,
          0., 0., 0., 0., 0., 0., 0., 0., 0., 0., 0., 0., 0., 0., 0., 0.,
          0., 0., 0., 0., 0., 0., 0., 0., 0., 0., 0., 0., 0., 0., 0., 0.,
          0., 0., 0., 0., 0., 0., 0., 0., 0., 0., 0., 0., 0., 0., 0., 0.,
          0., 0., 0., 0., 0., 0., 0., 0., 0., 0., 0., 0., 0., 0., 0., 0.,
          0., 0., 0., 0., 0., 0., 0., 0., 0., 0., 0., 0., 0., 0., 0., 0.,
          0., 0., 0., 0., 0., 0., 0., 0., 0., 0. ]
      - [ 8.14806949e-03, 2.31237616e-02, 8.84830579e-02, 1.66473508e-01,
          1.25303650e-02, 3.11237946e-03, 2.78405799e-03, 5.16047329e-03,
          8.14164523e-03, 6.31159991e-02, 2.41310075e-02, 1.79605242e-02,
          7.60132633e-03, 1.72279879e-01, 3.12814236e-01, 4.14555073e-01,
          4.14555073e-01, 5.56918718e-02, 2.05120686e-02, 1.32263768e-02,
          2.93198228e-02, 3.91785316e-02, 1.04654633e-01, 4.85488400e-02,
          5.53846024e-02, 6.26257434e-02, 1.36949280e-02, 5.62202483e-02,
          1.06965683e-01, 1.67310268e-01, 4.33898568e-02, 2.46495176e-02,
          2.27733701e-02, 1.89771187e-02, 2.11760160e-02, 5.64695038e-02,
          2.16898099e-02, 1.58061292e-02, 1.22941043e-02, 4.17855904e-02,
          1.58791602e-01, 4.14555073e-01, 4.14555073e-01, 1.24820128e-01,
          6.96126968e-02, 4.91888635e-02, 4.31433395e-02, 3.44497152e-02,
          8.36773589e-02, 3.76583189e-02, 2.78362054e-02, 2.10681278e-02,
          3.56183738e-01, 8.18252191e-02, 7.47523271e-03, 1.40425665e-02,
          2.43697111e-02, 7.14537427e-02, 6.94843829e-02, 9.72188171e-03,
          1.18138110e-02, 1.67710837e-02, 4.32625636e-02, 2.58225441e-01,
          3.56183738e-01, 2.06202656e-01, 4.56627756e-02, 2.44365484e-02,
          3.20222899e-02, 7.07624033e-02, 1.16842456e-01, 3.64409946e-02,
          9.07357503e-03, 1.64633021e-02, 4.95997220e-02, 1.55619040e-01,
          3.56183738e-01, 3.56183738e-01, 3.82080153e-02, 2.14822385e-02,
          1.68642867e-02, 6.41813055e-02, 3.65626961e-02, 6.58735782e-02,
          1.55688807e-01, 4.03453670e-02, 2.49496829e-02, 3.90742607e-02,
          4.29261886e-02, 7.84208924e-02, 7.07348213e-02, 2.11438891e-02,
          1.36141377e-02, 2.52919309e-02, 6.63541332e-02, 8.54925215e-02,
          1.09728187e-01, 6.24652207e-02, 2.38018576e-02, 2.86689680e-02,
          9.00655910e-02, 2.68513620e-01, 3.56183738e-01, 1.37037545e-01,
          6.31769300e-02, 2.68886350e-02, 6.58399016e-02, 9.97182056e-02,
          4.69278023e-02, 4.36261445e-02, 5.51370531e-02, 1.20222569e-02,
          1.45054664e-02, 1.92239687e-01, 1.85431913e-01, 3.40118438e-01,
          1.45323724e-01, 1.64558031e-02, 4.03088238e-03, 7.75870541e-03,
          1.31348325e-02, 2.03093570e-02, 1.30070234e-02, 1.91323180e-02,
          2.81986850e-03, 4.86422936e-03, 2.98777651e-02, 2.70457901e-02,
          5.66960014e-02, 1.88202281e-02, 1.22152999e-01, 3.51064168e-02,
          1.16971217e-01, 1.56997964e-01, 1.12699129e-01, 1.28094986e-01,
          1.42015398e-01, 6.70627579e-02, 4.87832688e-02, 2.26247311e-01,
          4.35486943e-01, 4.35486943e-01, 2.72173196e-01, 1.00099854e-01,
          1.04694953e-02, 2.94331387e-02, 5.99963814e-02, 4.57190573e-02,
          3.52309458e-02, 5.11875786e-02, 2.21825261e-02, 1.86673086e-02,
          1.56510681e-01, 1.72375813e-01, 2.26605251e-01, 1.10336393e-01,
          0., 0., 0., 0., 0., 0., 0., 0., 0., 0., 0., 0., 0., 0., 0., 0.,
          0., 0., 0., 0., 0., 0., 0., 0., 0., 0., 0., 0., 0., 0., 0., 0.,
          0., 0., 0., 0., 0., 0., 0., 0., 0., 0., 0., 0., 0., 0., 0., 0.,
          0., 0., 0., 0., 2.34993026e-02, 3.16812396e-02, 1.34566784e-01,
          2.09983751e-01, 5.26008867e-02, 1.23414118e-02, 4.20653746e-02,
          8.42024852e-03, 8.31451174e-03, 2.70735025e-02, 1.87241510e-02,
          2.22031679e-02, 2.93135419e-02, 3.02554220e-02, 5.42599410e-02,
          4.25737590e-01, 4.25737590e-01, 1.07979149e-01, 1.86412204e-02,
          4.87938300e-02, 2.33299937e-02, 2.46730186e-02, 6.01778291e-02,
          3.73100936e-02, 3.43150347e-02, 3.23315486e-02, 2.38906778e-02,
          2.34550182e-02, 2.15739265e-01, 3.06733191e-01, 4.09822054e-02,
          2.14715954e-02, 2.73126941e-02, 8.17854237e-03, 8.24511703e-03,
          4.20286693e-02, 3.30882221e-02, 1.04201185e-02, 2.91417688e-02,
          2.55171247e-02, 3.01407017e-02, 4.25737590e-01, 4.25737590e-01,
          8.24830532e-02, 2.58965753e-02, 3.53899114e-02, 2.03825440e-02,
          2.72590797e-02, 8.83217901e-02, 6.05936423e-02, 1.65737793e-02,
          3.60139459e-02, 4.96688411e-02, 8.12059715e-02, 1.01740770e-01,
          1.65580392e-01, 1.27978936e-01, 4.50551510e-02, 6.81842715e-02,
          7.49062672e-02, 1.33111343e-01, 1.73151672e-01, 9.81615260e-02,
          1.23824529e-01, 1.20184995e-01, 1.00587338e-01, 6.24109432e-02,
          1.12340495e-01, 2.24614665e-01, 2.24614665e-01, 1.98012263e-01,
          1.16056137e-01, 1.16228998e-01, 1.80190817e-01, 2.24614665e-01,
          1.93891138e-01, 2.24614665e-01, 2.09759846e-01, 1.05434299e-01,
          9.43164900e-02, 1.18504450e-01, 1.58879444e-01, 8.43360946e-02,
          7.00761154e-02, 7.01455772e-02, 8.82183909e-02, 9.72889513e-02,
          9.40402523e-02, 8.09161961e-02, 1.16409250e-01, 1.43974856e-01,
          1.26377553e-01, 6.97014853e-02, 1.25621974e-01, 2.07459956e-01,
          1.43136829e-01, 8.69522616e-02, 6.92553297e-02, 5.33452891e-02,
          1.17304273e-01, 1.51039153e-01, 1.74578190e-01, 2.24614665e-01,
          2.24614665e-01, 1.49102500e-02, 1.05534447e-02, 2.70948075e-02,
          4.22671773e-02, 2.85312422e-02, 4.10995446e-03, 7.55119836e-03,
          7.93717522e-03, 1.72122382e-02, 1.03454590e-01, 3.89046311e-01,
          3.19342971e-01, 2.59691346e-02, 5.81369847e-02, 2.92848796e-02,
          3.18240114e-02, 5.44958860e-02, 5.45420274e-02, 2.03847103e-02,
          4.01304625e-02, 4.52025309e-02, 5.14476225e-02, 1.40218064e-01,
          3.89046311e-01, 3.89046311e-01, 6.05337210e-02, 1.58150066e-02,
          9.12202150e-03, 1.06091257e-02, 1.51772471e-02, 7.08421366e-03,
          9.45387234e-04, 4.29015886e-03, 6.10251119e-03, 1.11703668e-02,
          9.78581160e-02, 2.22750023e-01, 1.07285753e-01, 2.18333099e-02,
          2.82459687e-02, 1.89001337e-02, 1.20010590e-02, 1.44818462e-02,
          7.81544857e-03, 6.29102718e-03, 1.75152142e-02, 1.76303070e-02,
          1.52995316e-02, 7.40333423e-02, 3.89046311e-01, 3.89046311e-01,
          2.45438423e-02, 1.30691081e-02, 1.32944388e-02, 6.31428265e-04,
          0., 0., 0., 0., 0., 3.98996519e-03, 1.25546262e-01,
          4.36973944e-02, 1.68078300e-02, 1.09173032e-02, 0., 0., 0., 0.,
          0., 0., 0., 0., 0., 0., 0., 0., 0., 3.17869633e-01,
          2.96512336e-01, 5.91661818e-02, 4.87928614e-02, 3.91428731e-03,
          0., 2.67121773e-02, 5.85496873e-02, 3.27366948e-01,
          6.53539479e-01, 2.35550985e-01, 2.30422929e-01, 3.62431705e-01,
          1.73392128e-02, 0., 0., 0., 0., 0., 0., 0., 0., 8.43013264e-03,
          9.54005960e-03, 7.38407578e-03, 2.65797041e-02, 3.64310294e-02,
          4.17653397e-02, 1.18283607e-01, 2.35698059e-01, 1.61833256e-01,
          5.67862764e-02, 3.81147638e-02, 2.47155298e-02, 4.09140661e-02,
          5.60498536e-02, 3.11214197e-02, 2.61618420e-02, 5.06640710e-02,
          5.80482632e-02, 1.01061307e-01, 2.36901835e-01, 3.97655219e-01,
          3.97655219e-01, 1.21341042e-01, 5.87842278e-02, 3.74143757e-02,
          6.44984245e-02, 1.03047781e-01, 7.55438507e-02, 6.08346537e-02,
          7.41471052e-02, 6.57958118e-03, 1.98144559e-02, 8.53956267e-02,
          1.78530008e-01, 4.68897112e-02, 2.90778410e-02, 2.21022554e-02,
          2.04898249e-02, 3.10301762e-02, 7.60944262e-02, 3.04266140e-02,
          1.35447308e-02, 1.38287218e-02, 3.43079790e-02, 7.40530491e-02,
          1.90412939e-01, 3.97655219e-01, 3.97655219e-01, 6.95072934e-02,
          7.20434114e-02, 4.65111509e-02, 5.97742274e-02, 1.23824365e-01,
          6.49065226e-02, 3.26656736e-02, 2.26790905e-02, 2.76572499e-02,
          3.54207046e-02, 1.03724271e-01, 1.68469951e-01, 2.32150272e-01,
          1.67965040e-01, 8.63708928e-02, 8.29417259e-02, 1.45581201e-01,
          2.27240846e-01, 1.66335300e-01, 1.03802644e-01, 2.95093413e-02,
          5.15728593e-02, 5.65723442e-02, 1.93796262e-01, 2.32150272e-01,
          9.97738913e-02, 1.06455214e-01, 8.30360353e-02, 6.91345036e-02,
          1.06908754e-01, 2.15692729e-01, 2.32150272e-01, 1.78818703e-01,
          5.35141677e-02, 6.34408668e-02, 5.41145131e-02, 9.63579044e-02,
          1.71871752e-01, 2.18159497e-01, 2.05090448e-01, 9.20430943e-02,
          5.41689210e-02, 6.77259490e-02, 9.08861533e-02, 1.98092088e-01,
          1.83627799e-01, 5.10923304e-02, 1.15492716e-01, 8.25511813e-02,
          1.57694936e-01, 1.96394444e-01, 2.11164832e-01, 2.32150272e-01,
          6.52736127e-02, 3.88360359e-02, 4.46286686e-02, 6.03767000e-02,
          8.01448524e-02, 1.47667333e-01, 1.18328035e-01, 6.92311078e-02,
          5.24829403e-02, 6.58390522e-02, 7.52122551e-02, 2.78737471e-02,
          3.27381827e-02, 2.16763634e-02, 1.39010781e-02, 3.03143095e-02,
          1.45746633e-01, 7.84893185e-02, 5.84859997e-02, 5.44006489e-02,
          1.98785573e-01, 3.16493325e-02, 2.68234164e-02, 2.02475674e-02,
          1.65562909e-02, 2.22724956e-02, 2.39047650e-02, 1.62489042e-02,
          1.92280989e-02, 3.04622110e-02, 6.91595748e-02, 7.44180679e-02,
          1.49558425e-01, 3.25896800e-01, 3.11829269e-01, 3.35269988e-01,
          6.45399168e-02, 4.82826494e-02, 6.74069375e-02, 4.15912271e-02,
          7.57479593e-02, 6.06457926e-02, 1.87255964e-01, 8.15843940e-02,
          5.10600545e-02, 1.74437031e-01, 3.35269988e-01, 1.44223154e-01,
          1.32980108e-01, 4.42667790e-02, 3.05444840e-02, 4.91481200e-02,
          1.07811294e-01, 3.35269988e-01, 2.35803515e-01, 2.81093400e-02,
          3.03562451e-02, 4.37766947e-02, 3.35269988e-01, 8.40715691e-02,
          5.32805249e-02, 2.37605777e-02, 4.37024347e-02, 4.46138345e-02,
          3.34469862e-02, 8.71863291e-02, 2.74763972e-01, 1.71739548e-01,
          1.34140775e-01, 3.14349294e-01, 3.14349294e-01, 2.15414539e-01,
          4.71189097e-02, 2.45836843e-02, 1.38282040e-02, 1.74473450e-02,
          1.29574519e-02, 1.26261832e-02, 4.21166122e-02, 9.37349722e-02,
          7.77553767e-02, 1.00767434e-01, 1.13015622e-01, 1.69388592e-01,
          7.04741180e-02, 2.02364884e-02, 1.59253553e-02, 2.54705586e-02,
          4.15988043e-02, 5.86360432e-02, 6.51077926e-02, 2.48550937e-01,
          3.14349294e-01, 3.14349294e-01, 1.62480965e-01, 1.79209709e-01,
          3.14349294e-01, 1.51275545e-01, 1.09914886e-02, 5.00755152e-03,
          1.21846031e-02, 1.25384387e-02, 5.64866001e-03, 8.18511192e-03,
          6.77660704e-02, 1.36345923e-01, 1.38057247e-01, 1.06408358e-01,
          9.49506089e-02, 1.21738158e-01, 4.01863530e-02, 0.,
          2.97112827e-04, 1.48051754e-02, 4.35333699e-02, 4.78406344e-03,
          1.47938507e-03, 3.13544013e-02, 1.49435380e-08, 0., 0., 0., 0.,
          0., 9.49905366e-02, 1.57942459e-01, 3.73496562e-01,
          4.63394701e-01, 9.24600810e-02, 6.83612674e-02, 3.77020806e-01,
          3.85395736e-02, 5.44693992e-02, 3.90056483e-02, 5.64977759e-03,
          0., 9.39229354e-02, 0., 0., 4.95561445e-03, 1.48668624e-02, 0.,
          0., 0., 0., 0., 0., 0., 0., 0., 5.29087745e-02, 6.80020899e-02,
          3.00485700e-01, 4.63394701e-01, 8.47034082e-02, 5.08968420e-02,
          3.24182004e-01, 3.04601863e-02, 5.06920144e-02, 0., 0., 0.,
          5.29087745e-02, 4.32295315e-02, 4.34274301e-02, 4.55418527e-02,
          2.02037677e-01, 2.85379827e-01, 6.75484836e-02, 4.69935834e-02,
          2.76168268e-02, 1.77959576e-02, 2.59851981e-02, 8.16715807e-02,
          1.06580846e-01, 5.76236919e-02, 5.11748455e-02, 1.62704676e-01,
          2.18947798e-01, 4.43303771e-02, 4.97820936e-02, 2.56371237e-02,
          2.44785324e-02, 1.21733777e-01, 2.49532595e-01, 6.42131045e-02,
          5.36498949e-02, 5.01434915e-02, 3.91289517e-02, 8.21812451e-02,
          6.93453327e-02, 8.55537504e-02, 1.74110070e-01, 2.85379827e-01,
          2.85379827e-01, 2.85379827e-01, 1.68673545e-01, 3.44147570e-02,
          2.29134746e-02, 4.65224609e-02, 7.30198398e-02, 7.88354799e-02,
          7.81117454e-02, 1.39751241e-01, 1.17626049e-01, 4.05160896e-02,
          1.13348596e-01, 1.36709660e-01, 2.85379827e-01, 2.85379827e-01,
          2.85379827e-01, 9.42938477e-02, 4.24719751e-02, 3.89320366e-02,
          4.17721979e-02, 2.53987275e-02, 9.74543691e-02, 1.36223972e-01,
          1.21044002e-01, 1.29276156e-01, 1.75749645e-01, 2.62757450e-01,
          3.58451486e-01, 3.58451486e-01, 2.15127215e-01, 2.38250300e-01,
          1.61996692e-01, 8.05976167e-02, 1.15800370e-02, 2.02866476e-02,
          2.35682447e-02, 2.26755477e-02, 7.28976801e-02, 8.06894079e-02,
          2.62268662e-01, 3.47198427e-01, 1.69110149e-01, 1.36417300e-01,
          1.59839198e-01, 1.08652495e-01, 3.37669738e-02, 5.18600922e-03,
          1.94329228e-02, 5.07479757e-02, 8.93679038e-02, 6.68745786e-02,
          5.85057102e-02, 2.27758855e-01, 1.30415097e-01, 8.23191404e-02,
          1.63495883e-01, 9.89933088e-02, 4.38168459e-02, 1.95393004e-02,
          9.78014432e-04, 4.32324130e-03, 1.72752154e-03, 2.23699654e-03,
          1.39546357e-02, 1.56275854e-02, 7.04322234e-02, 2.44531147e-02,
          3.54739912e-02, 9.82632786e-02, 6.25227243e-02, 3.12726013e-02,
          4.04936448e-03, 1.50337234e-01, 2.13558003e-02, 7.43690785e-03,
          1.42957997e-02, 4.79663126e-02, 1.11588143e-01, 8.53974462e-01,
          2.29515240e-01, 9.69344601e-02, 3.06611538e-01, 1.32508039e-01,
          1.36075735e-01, 1.68558508e-01, 0., 0., 0., 0., 8.58888868e-03,
          5.16091799e-03, 4.23344895e-02, 2.01866666e-08, 0.,
          1.92610137e-02, 6.42033713e-03, 0., 0., 0., 0., 0., 0., 0., 0.,
          0., 0., 0., 0., 0., 0., 0., 0., 0., 0., 0., 0., 0., 0., 0., 0.,
          0., 0., 0., 0. ]
      - [ 2.02317894e-01, 2.43169785e-01, 8.19103718e-02, 1.05208807e-01,
          2.47658696e-02, 9.84024163e-03, 2.79900543e-02, 1.23408223e-02,
          2.32457127e-02, 1.77892651e-02, 2.69663464e-02, 2.51008831e-02,
          5.32668792e-02, 3.43066365e-01, 2.35611573e-01, 3.67326699e-02,
          3.51684131e-02, 7.90312700e-03, 8.52537993e-03, 1.39129218e-02,
          9.37632006e-03, 1.60812419e-02, 3.62228192e-02, 5.48023842e-02,
          2.62653995e-02, 2.06074923e-01, 3.33662182e-01, 3.43066365e-01,
          3.43066365e-01, 8.18048641e-02, 4.11956906e-02, 1.45891299e-02,
          2.47503947e-02, 1.75519567e-02, 3.43220048e-02, 3.47707085e-02,
          3.71380411e-02, 3.03833392e-02, 5.51490858e-02, 3.43066365e-01,
          3.43066365e-01, 7.79409260e-02, 1.57864932e-02, 7.08290190e-03,
          5.05820895e-03, 4.19809762e-03, 8.98801442e-03, 1.94138922e-02,
          1.59252007e-02, 2.08517071e-02, 1.52976429e-02, 2.02317476e-01,
          3.48514736e-01, 7.46044293e-02, 5.35809956e-02, 2.69330405e-02,
          4.01737168e-03, 1.71168968e-02, 6.48185685e-02, 1.56197846e-02,
          8.05572048e-03, 2.18566749e-02, 2.19114050e-02, 2.83640493e-02,
          3.48514736e-01, 3.48514736e-01, 7.27217421e-02, 3.63226943e-02,
          2.70509478e-02, 3.28417448e-03, 8.16433597e-03, 5.09973131e-02,
          1.40206646e-02, 8.17425083e-03, 2.45712940e-02, 2.40505096e-02,
          4.75433208e-02, 3.48514736e-01, 3.48514736e-01, 9.03072134e-02,
          4.58115302e-02, 5.82503267e-02, 3.03967521e-02, 2.54362933e-02,
          1.20321689e-02, 1.55274384e-02, 4.17715646e-02, 6.83672056e-02,
          3.83440219e-02, 1.55393621e-02, 2.75415748e-01, 3.48514736e-01,
          6.01552203e-02, 4.37832326e-02, 7.90392756e-02, 4.05642688e-02,
          2.59206016e-02, 1.07251890e-02, 1.16265137e-02, 2.51245275e-02,
          3.43416892e-02, 1.90196242e-02, 2.64878888e-02, 3.48514736e-01,
          8.60258117e-02, 2.94876397e-01, 2.40351021e-01, 6.38927072e-02,
          4.22549136e-02, 4.53061759e-02, 2.69186255e-02, 2.99645383e-02,
          1.84107684e-02, 4.89018634e-02, 5.37568182e-02, 1.56770706e-01,
          2.50615656e-01, 9.99121144e-02, 2.94876397e-01, 2.94876397e-01,
          7.47563317e-02, 2.59144455e-02, 2.84823980e-02, 2.36469675e-02,
          2.67017614e-02, 1.65762026e-02, 3.30345258e-02, 2.99719498e-02,
          3.87906656e-02, 5.47771640e-02, 1.06398076e-01, 2.94876397e-01,
          2.44538173e-01, 4.63074222e-02, 6.33818954e-02, 4.62508984e-02,
          1.03450725e-02, 2.15041898e-02, 1.03243310e-02, 2.54238658e-02,
          5.50273061e-02, 2.94876397e-01, 2.94876397e-01, 5.92674427e-02,
          2.94876397e-01, 2.94876397e-01, 6.24206327e-02, 7.25591555e-02,
          5.07492609e-02, 1.25792725e-02, 1.79822035e-02, 7.50061916e-03,
          1.78701226e-02, 2.62693204e-02, 6.83481321e-02, 5.81826456e-02,
          8.82112458e-02, 1.09757166e-02, 6.27719518e-03, 1.42909503e-02,
          2.77578309e-02, 1.23821348e-01, 1.13958143e-01, 9.59882606e-03,
          2.05634744e-03, 4.17950330e-03, 8.77752062e-03, 5.78452088e-02,
          2.22793996e-01, 2.50155311e-02, 2.88100448e-03, 9.49990295e-04,
          3.30188381e-03, 3.31929210e-03, 9.18528512e-02, 1.32764086e-01,
          2.96464898e-02, 3.10095083e-02, 4.31171149e-01, 4.31171149e-01,
          7.80248418e-02, 1.78734764e-01, 2.76753120e-02, 6.85490668e-03,
          3.75807681e-03, 2.33740336e-03, 1.65659431e-02, 6.85505420e-02,
          9.65852216e-02, 1.64528154e-02, 1.08250994e-02, 9.16268304e-03,
          9.59600974e-03, 5.47354631e-02, 1.57033861e-01, 1.91002917e-02,
          2.28025904e-03, 6.69301488e-04, 8.11692036e-04, 5.08312508e-03,
          8.10007751e-02, 1.08763166e-01, 2.77766082e-02, 3.21803354e-02,
          4.31171149e-01, 4.31171149e-01, 6.63274750e-02, 1.63425446e-01,
          1.11274829e-03, 5.84649108e-02, 4.11516100e-01, 4.11516100e-01,
          4.01859581e-02, 1.58861371e-06, 0., 0., 0., 0., 0., 0.,
          3.16179430e-05, 7.17812730e-03, 3.89688797e-02, 2.42017835e-01,
          2.50367284e-01, 3.50913741e-02, 7.47755344e-04, 7.94481079e-04,
          3.03704350e-04, 2.49903649e-04, 8.81741638e-04, 1.04130362e-03,
          3.29237897e-03, 1.02166459e-02, 0., 5.27912006e-03,
          3.69223207e-01, 4.11516100e-01, 2.37598404e-01, 6.51218602e-03,
          1.91448163e-03, 4.09999950e-04, 0., 0., 0., 0., 0.,
          3.09039839e-04, 2.41622399e-03, 6.53454140e-02, 3.77485275e-01,
          1.36906624e-01, 1.51566956e-02, 5.19578671e-03, 3.83158866e-03,
          1.39098603e-03, 8.32311518e-04, 4.98090114e-04, 2.77296727e-04,
          5.91288612e-04, 1.41682461e-01, 4.34371717e-02, 4.11425121e-02,
          2.57889926e-02, 1.77642740e-02, 3.32783498e-02, 9.89985839e-02,
          1.08875997e-01, 3.31490822e-02, 4.33165804e-02, 9.28745270e-02,
          2.18779370e-01, 2.29555696e-01, 2.44001746e-01, 1.03417851e-01,
          1.06172338e-01, 7.46982619e-02, 4.35368419e-02, 7.78526366e-02,
          1.05599128e-01, 1.28658473e-01, 3.98923643e-02, 7.79058114e-02,
          8.01298246e-02, 1.43347502e-01, 2.20212355e-01, 5.14804311e-02,
          2.24455949e-02, 8.39870647e-02, 2.38763452e-01, 1.01758264e-01,
          1.42189384e-01, 1.72456145e-01, 2.19349012e-01, 1.62806615e-01,
          2.66327262e-01, 1.07721597e-01, 4.06838916e-02, 7.40955919e-02,
          8.85280073e-02, 5.06917126e-02, 1.62281990e-01, 2.66327262e-01,
          1.76055804e-01, 2.15602338e-01, 1.48666412e-01, 1.51517302e-01,
          1.09521598e-01, 2.66327262e-01, 8.41981918e-02, 1.05009824e-01,
          9.39699858e-02, 2.17603222e-02, 6.21772036e-02, 2.49728516e-01,
          2.72089690e-01, 1.12581164e-01, 1.92589667e-02, 7.04900641e-03,
          7.93740992e-03, 5.55379204e-02, 2.72089690e-01, 2.72089690e-01,
          4.24572527e-02, 1.85920149e-02, 3.36531326e-02, 3.37599255e-02,
          1.06392838e-01, 2.72089690e-01, 1.88497126e-01, 1.00384662e-02,
          7.82031100e-03, 1.27702607e-02, 4.11916524e-02, 1.39685512e-01,
          2.72089690e-01, 7.61787742e-02, 3.04733627e-02, 1.99273378e-02,
          1.80112973e-01, 2.72089690e-01, 2.72089690e-01, 5.93242757e-02,
          8.87941103e-03, 1.44102713e-02, 3.58529501e-02, 1.44580051e-01,
          2.72089690e-01, 1.24862760e-01, 1.43339336e-02, 1.15786055e-02,
          4.04062606e-02, 7.38622472e-02, 1.88494608e-01, 2.72089690e-01,
          5.42952865e-02, 1.12149511e-02, 1.34045882e-02, 3.75553556e-02,
          1.18261397e-01, 1.27264470e-01, 1.22951575e-01, 2.97853816e-02,
          1.64690800e-02, 4.58352175e-03, 4.55834903e-03, 5.37272077e-03,
          1.06848935e-02, 7.99403526e-03, 7.44597288e-04, 6.68013049e-03,
          1.12594748e-02, 1.65703651e-02, 1.85567737e-02, 1.63403433e-02,
          1.12764211e-02, 5.54505782e-03, 7.60445278e-03, 2.09422223e-03,
          9.69893590e-04, 7.46354926e-04, 2.39563029e-04, 6.80519297e-05,
          5.90596627e-03, 1.20950779e-02, 3.13249864e-02, 4.97067183e-01,
          4.97067183e-01, 2.88810171e-02, 1.48649625e-02, 2.91172578e-03,
          2.22859299e-03, 5.14523312e-03, 1.01806019e-02, 5.25887357e-03,
          5.42883645e-04, 8.36713891e-03, 1.32303955e-02, 1.58131849e-02,
          2.02397797e-02, 7.62817077e-03, 4.31436254e-03, 3.31521127e-03,
          8.95422697e-03, 1.19210384e-03, 1.19937910e-03, 1.37979852e-03,
          4.27927444e-04, 3.12190132e-05, 9.70233232e-03, 1.82145238e-02,
          3.14765386e-02, 4.97067183e-01, 4.97067183e-01, 1.31682726e-02,
          1.21410489e-02, 3.71190645e-02, 1.91548560e-02, 4.21683043e-02,
          1.29525051e-01, 3.74344736e-01, 3.74344736e-01, 2.48896882e-01,
          3.60609703e-02, 3.03096659e-02, 2.98044272e-02, 3.73458639e-02,
          1.05946930e-02, 1.49535984e-02, 1.72726326e-02, 6.74001290e-04,
          8.44214763e-03, 2.98544243e-02, 1.43288821e-01, 3.74344736e-01,
          3.74344736e-01, 1.73669253e-02, 1.50994211e-02, 1.46713238e-02,
          8.87995213e-03, 3.90458200e-03, 1.54662235e-02, 1.09243840e-02,
          3.29222158e-03, 2.11038515e-02, 6.36661053e-02, 4.48687561e-02,
          1.59166470e-01, 1.84379026e-01, 1.34258969e-02, 1.21769607e-02,
          6.21261215e-03, 7.85307772e-03, 2.97447224e-03, 5.36164269e-03,
          3.80991884e-02, 1.13341701e-03, 1.26191666e-02, 4.11665067e-02,
          4.10280302e-02, 3.33118975e-01, 3.74344736e-01, 2.39730701e-02,
          1.79886054e-02, 2.17194054e-02, 8.58438760e-03, 9.35024861e-03,
          4.12795581e-02, 1.77111141e-02, 9.68589820e-03, 2.33494006e-02,
          4.59627062e-02, 8.10510218e-02, 2.82834530e-01, 3.26747268e-01,
          2.43715212e-01, 1.21532669e-02, 9.13461018e-03, 7.65408296e-03,
          5.90489944e-03, 8.58097710e-03, 1.74522158e-02, 1.86804924e-02,
          2.30958927e-02, 3.66649143e-02, 4.87478748e-02, 1.02178939e-01,
          3.26747268e-01, 3.26747268e-01, 6.03750497e-02, 9.73598193e-03,
          9.46436264e-03, 9.71471518e-03, 9.93528776e-03, 4.20030616e-02,
          1.83985028e-02, 2.79618911e-02, 6.76387697e-02, 8.81069005e-02,
          2.45101973e-01, 3.26747268e-01, 2.82238334e-01, 2.76834909e-02,
          3.05158440e-02, 1.58403087e-02, 8.93949252e-03, 2.50550434e-02,
          4.14102152e-02, 4.16952334e-02, 3.47059295e-02, 6.55750260e-02,
          5.89740798e-02, 9.39557552e-02, 3.26747268e-01, 3.26747268e-01,
          7.11440444e-02, 3.60569134e-02, 2.27518920e-02, 1.53137213e-02,
          3.69748883e-02, 2.15572983e-01, 2.88053751e-01, 2.92566150e-01,
          2.92566150e-01, 8.32660720e-02, 8.75663385e-02, 1.17612563e-01,
          1.68423951e-01, 8.07576329e-02, 5.10641113e-02, 4.73308787e-02,
          4.40786295e-02, 6.45255595e-02, 6.88720644e-02, 2.92566150e-01,
          2.25125492e-01, 6.03587218e-02, 3.30807492e-02, 5.00841215e-02,
          4.63101082e-02, 3.41851376e-02, 3.10288966e-02, 1.11978287e-02,
          3.44110862e-03, 3.30711040e-03, 8.73499829e-03, 1.83565035e-01,
          1.59811705e-01, 2.34951541e-01, 2.92566150e-01, 2.92566150e-01,
          2.38108128e-01, 9.86014009e-02, 5.19231670e-02, 2.27870438e-02,
          2.99784485e-02, 5.92609644e-02, 9.95856896e-02, 1.47779211e-01,
          7.74018839e-02, 1.13060340e-01, 4.42439802e-02, 3.04904468e-02,
          5.63903898e-02, 1.75224185e-01, 1.11928821e-01, 1.79072227e-02,
          1.76673606e-02, 6.88189175e-03, 1.26539245e-02, 4.31151912e-02,
          8.48419070e-02, 2.36823293e-03, 1.64740009e-03, 3.50923860e-03,
          7.49596348e-03, 7.82855880e-03, 1.17629198e-02, 1.22889476e-02,
          1.21234246e-02, 1.74943358e-02, 1.87078770e-02, 8.45987257e-03,
          8.53895862e-03, 7.53059983e-03, 1.42253516e-03, 3.15829297e-04,
          7.84125412e-04, 3.71383992e-03, 4.00747173e-03, 3.16937570e-03,
          7.09577650e-03, 1.17513482e-02, 3.08212936e-02, 4.96952981e-01,
          4.96952981e-01, 7.48263951e-03, 4.76164371e-03, 2.25093379e-03,
          9.78227705e-04, 3.40873073e-03, 7.17245694e-03, 8.64337012e-03,
          1.65996812e-02, 1.57066230e-02, 1.88284386e-02, 2.60074548e-02,
          1.84195060e-02, 6.45757187e-03, 4.04544361e-03, 5.47213806e-03,
          7.11989822e-04, 1.30762826e-04, 7.39642535e-04, 2.22724816e-03,
          2.01582885e-03, 2.13832385e-03, 8.69600568e-03, 2.02211570e-02,
          4.31146212e-02, 4.96952981e-01, 4.96952981e-01, 3.13578872e-03,
          2.04091030e-03, 0., 0., 0., 0., 0., 0., 0., 0., 0., 0., 0., 0.,
          0., 0., 0., 0., 0., 0., 0., 0., 0., 0., 0., 0., 0., 0., 0., 0.,
          0., 0., 0., 0., 0., 0., 0., 0., 0., 0., 0., 0., 0., 0., 0., 0.,
          0., 0., 0., 0., 0., 0., 0., 0., 0., 0., 0., 0., 0., 0., 0., 0.,
          0., 0., 0., 0., 0., 0., 0., 3.04866016e-01, 9.24734294e-01,
          5.06450497e-02, 0., 0., 0., 0., 0., 0., 0., 0., 0., 0., 0., 0.,
          0., 0., 0., 0., 0., 0., 0., 0., 0., 0., 0., 2.00292305e-03,
          6.00877684e-03, 0., 0., 0., 0., 0., 0., 0., 0., 0.,
          2.61235051e-02, 3.75759304e-02, 4.38302197e-02, 1.41157657e-01,
          3.71895790e-01, 3.38155836e-01, 1.63039878e-01, 4.11755219e-02,
          1.77903883e-02, 2.34299898e-02, 2.74843946e-02, 2.39284672e-02,
          3.61341648e-02, 2.63580941e-02, 4.35861014e-02, 3.50795425e-02,
          7.27221891e-02, 3.71895790e-01, 3.71895790e-01, 1.58218279e-01,
          5.63444085e-02, 4.10956852e-02, 3.72924022e-02, 4.86320667e-02,
          3.43732052e-02, 5.19030876e-02, 3.62488022e-03, 1.02448966e-02,
          2.19523422e-02, 7.07921460e-02, 7.13024288e-02, 5.87477908e-02,
          1.25629231e-01, 7.34356232e-03, 6.67269621e-03, 4.49659396e-03,
          4.22812579e-03, 5.82751725e-03, 8.43274314e-03, 2.55895928e-02,
          5.15157096e-02, 4.34640087e-02, 9.15202051e-02, 3.57887030e-01,
          3.71895790e-01, 2.06939027e-01, 7.04067498e-02, 5.87532632e-02,
          1.99930705e-02, 2.32647341e-02, 3.22183222e-02, 3.61984745e-02,
          1.01460278e-01, 1.86797790e-02, 7.00581074e-03, 7.37448782e-03,
          1.71260554e-02, 7.11084530e-02, 1.31892800e-01, 1.01358011e-01,
          2.21657641e-02, 1.52681693e-02, 8.29999801e-03, 1.35694463e-02,
          9.73058864e-02, 6.11506552e-02, 1.37253748e-02, 5.87387150e-03,
          4.76290006e-03, 6.08228333e-03, 1.65665410e-02, 1.09397672e-01,
          1.09849989e-01, 4.68532182e-02, 3.22474360e-01, 3.07243526e-01,
          5.02216965e-02, 8.94011483e-02, 6.97645098e-02, 3.57909575e-02,
          1.74921043e-02, 9.96448174e-02, 3.16817015e-01, 3.22474360e-01,
          3.22474360e-01, 1.09977946e-01, 2.65277997e-02, 2.72516832e-02,
          1.31555777e-02, 1.32851228e-02, 4.35939766e-02, 7.75554478e-02,
          5.25289178e-02, 8.25070217e-03, 9.91453789e-03, 1.16422838e-02,
          3.68195809e-02, 3.22474360e-01, 1.66980967e-01, 1.01067320e-01,
          3.22474360e-01, 3.20421547e-01, 3.88835780e-02, 4.38123457e-02 ]
      - [ 0., 0., 0., 0., 0., 0., 0., 0., 0., 0., 0., 0., 0.,
          5.06813265e-02, 2.81123556e-02, 4.52537462e-02, 1.07956849e-01,
          0., 0., 8.63616243e-02, 4.11804528e-08, 0., 0., 0., 0.,
          5.06813265e-02, 0., 0., 0., 0., 0., 0., 0., 0., 0., 0., 0., 0.,
          0., 2.27699026e-01, 3.92164677e-01, 5.48449814e-01,
          6.46438777e-01, 1.45317256e-01, 3.50773968e-02, 4.52370457e-02,
          2.15707132e-08, 0., 0., 0., 0., 1.24702848e-01, 2.75788307e-01,
          2.55375594e-01, 1.01645648e-01, 2.95475107e-02, 2.89101005e-02,
          1.75949819e-02, 3.05387098e-02, 1.07940529e-02, 5.69031248e-03,
          1.81002356e-02, 2.09658090e-02, 2.69185379e-02, 1.15279309e-01,
          2.75788307e-01, 2.07066625e-01, 6.58452660e-02, 2.76949387e-02,
          2.83776782e-02, 5.57914637e-02, 6.88481405e-02, 3.09343338e-02,
          2.84953266e-02, 2.10643783e-02, 3.29353213e-02, 7.26894438e-02,
          2.49661744e-01, 2.75788307e-01, 2.75788307e-01, 2.48269111e-01,
          6.37146905e-02, 4.08604965e-02, 3.29348892e-02, 9.32308584e-02,
          1.51461646e-01, 8.17170143e-02, 3.90312001e-02, 2.31626108e-02,
          3.40430401e-02, 9.50823128e-02, 2.75788307e-01, 2.46507883e-01,
          1.01071343e-01, 8.07949603e-02, 7.35403076e-02, 6.83710575e-02,
          9.42378268e-02, 9.90621746e-02, 1.52108982e-01, 1.30775765e-01,
          1.29050404e-01, 1.94188297e-01, 2.75788307e-01, 1.34651765e-01,
          8.67335051e-02, 1.00448474e-01, 9.53008682e-02, 1.40813589e-01,
          1.55534029e-01, 1.99516475e-01, 1.55318722e-01, 7.30121508e-02,
          4.73911613e-02, 3.92541215e-02, 1.22300997e-01, 1.73298344e-01,
          1.42470568e-01, 6.17223158e-02, 4.33330536e-02, 3.73569913e-02,
          4.89473008e-02, 6.00395128e-02, 1.36412159e-01, 1.88045338e-01,
          1.06265567e-01, 1.32526919e-01, 1.81065038e-01, 9.69854966e-02,
          1.85117260e-01, 1.37772933e-01, 2.04253629e-01, 1.58508807e-01,
          1.41221836e-01, 1.83928341e-01, 1.10368401e-01, 1.98887333e-01,
          1.53310195e-01, 1.04230478e-01, 5.99523708e-02, 5.84144332e-02,
          1.79524332e-01, 1.70997307e-01, 1.66641727e-01, 1.64624050e-01,
          1.17006600e-01, 8.63379464e-02, 1.05360374e-01, 8.17503259e-02,
          1.27219364e-01, 1.00118786e-01, 9.67843011e-02, 1.54841885e-01,
          2.26508692e-01, 2.26508692e-01, 2.19188809e-01, 0., 0., 0., 0.,
          0., 0., 0., 4.84866044e-03, 8.86151046e-02, 6.50198996e-01,
          3.37167889e-01, 5.98806366e-02, 0., 0., 0., 0., 0., 0., 0., 0.,
          0., 0., 0., 0., 0., 0., 0., 0., 0., 0., 0., 0., 0.,
          1.73166450e-02, 1.11350618e-01, 6.12730682e-01, 2.34582290e-01,
          1.07023669e-02, 0., 0., 0., 0., 0., 0., 0., 0., 0., 0., 0., 0.,
          0., 0., 0., 0., 0., 0., 0., 0., 0., 0., 0., 0., 0., 0., 0.,
          1.85363349e-02, 3.06096934e-02, 4.31128651e-01, 5.01305103e-01,
          4.43011612e-01, 7.91647360e-02, 7.13238865e-02, 1.87820066e-02,
          1.24038626e-02, 6.56403415e-03, 3.90466279e-03, 8.20232742e-03,
          9.60709713e-03, 0., 0., 0., 0., 0., 0., 0., 0., 0., 0., 0., 0.,
          0., 3.06340437e-02, 9.52116027e-03, 2.14698672e-01,
          5.01305103e-01, 2.07524404e-01, 6.57607317e-02, 2.59611811e-02,
          9.40331630e-03, 0., 0., 1.56374194e-03, 2.97026746e-02,
          2.69551836e-02, 9.43212807e-02, 1.73166037e-01, 8.46645981e-02,
          3.73175889e-02, 7.49557614e-02, 1.06405288e-01, 1.16915934e-01,
          1.93387330e-01, 1.79503247e-01, 3.93305160e-02, 3.26612331e-02,
          1.00730762e-01, 1.92624882e-01, 9.82281864e-02, 6.47417977e-02,
          3.98854837e-02, 1.54288076e-02, 5.71148377e-03, 2.62437388e-02,
          1.36889011e-01, 2.58766353e-01, 2.02818871e-01, 6.08079769e-02,
          4.40828241e-02, 1.30754381e-01, 1.70927256e-01, 6.87117800e-02,
          3.01772878e-02, 3.34928371e-02, 4.22320440e-02, 1.84662178e-01,
          2.58766353e-01, 2.58766353e-01, 1.62325144e-01, 6.98511228e-02,
          5.35364561e-02, 3.95557545e-02, 1.57842249e-01, 2.58766353e-01,
          1.50564730e-01, 5.69852479e-02, 6.56551719e-02, 4.64450158e-02,
          3.51577178e-02, 1.35085642e-01, 2.58766353e-01, 2.58766353e-01,
          8.58157501e-02, 3.01931947e-02, 5.37959449e-02, 1.91539109e-01,
          2.58766353e-01, 2.00979978e-01, 2.24170610e-01, 1.14336699e-01,
          1.60971507e-01, 1.30536169e-01, 4.52924073e-02, 2.50184536e-02,
          2.69105360e-02, 2.99641658e-02, 5.05816415e-02, 7.97348097e-02,
          8.95091370e-02, 1.02412857e-01, 1.18073672e-01, 9.88436863e-02,
          5.72046079e-02, 9.65957046e-02, 1.66294500e-01, 1.86788946e-01,
          5.58171794e-02, 4.60885316e-02, 5.84976152e-02, 1.62516385e-01,
          2.15328589e-01, 2.07840085e-01, 1.54408857e-01, 1.40552923e-01,
          1.45051792e-01, 8.76478404e-02, 1.38619617e-01, 2.08616212e-01,
          1.73666120e-01, 1.18244268e-01, 8.82704183e-02, 8.48248079e-02,
          1.44428775e-01, 1.38426602e-01, 9.28504393e-02, 1.02367900e-01,
          1.36616886e-01, 2.24170610e-01, 2.19016865e-01, 1.64832607e-01,
          1.74498439e-01, 1.36315703e-01, 7.08488300e-02, 8.58967602e-02,
          1.00636683e-01, 2.24170610e-01, 1.94078162e-01, 1.37629703e-01,
          1.41773030e-01, 1.93856296e-03, 0., 0., 0., 0., 0.,
          4.13163863e-02, 7.28609115e-02, 1.68488070e-01, 5.09378552e-01,
          2.93118656e-01, 1.79219395e-01, 1.24240648e-02, 0., 0., 0., 0.,
          0., 0., 0., 0., 0., 0., 0., 0., 0., 1.19969761e-02, 0., 0., 0.,
          0., 0., 3.75065356e-02, 1.55816630e-01, 1.83144972e-01,
          5.85167527e-01, 3.44858795e-01, 2.38130406e-01, 6.05309829e-02,
          0., 0., 0., 0., 0., 0., 0., 0., 0., 0., 0., 0., 0., 0., 0., 0.,
          0., 0., 0., 0., 0., 0., 0., 0., 0., 0., 0., 0., 0., 0., 0., 0.,
          8.24017107e-01, 3.92922175e-07, 0., 0., 0., 0., 0., 0., 0., 0.,
          0., 0., 0., 0., 0., 0., 0., 0., 0., 0., 0., 0., 0., 0., 0., 0.,
          0., 0., 0., 0., 0., 0., 0., 0., 0., 1.27656758e-01,
          3.83884311e-01, 2.07884610e-02, 2.40317881e-02, 8.00090954e-02,
          5.46906237e-03, 9.88396071e-03, 6.96983701e-03, 1.82269583e-03,
          0., 0., 1.96831506e-02, 6.91597257e-03, 3.03652078e-01,
          3.90721768e-01, 5.52370064e-02, 4.77835312e-02, 1.80836350e-01,
          1.85054801e-02, 1.67197436e-02, 9.29814652e-02, 3.47034894e-02,
          2.20253747e-02, 2.44473442e-02, 1.66185200e-02, 1.74153633e-02,
          7.68537074e-02, 2.21586436e-01, 3.65357734e-02, 2.19537299e-02,
          5.29375784e-02, 8.03901989e-04, 1.33782311e-03, 0.,
          2.98059342e-04, 2.09301896e-03, 1.53908562e-02, 1.03194416e-01,
          1.46637052e-01, 2.63049901e-01, 3.90721768e-01, 1.75324097e-01,
          1.04746133e-01, 3.90721768e-01, 3.44724543e-02, 5.85773438e-02,
          7.38959983e-02, 3.40074971e-02, 4.16440554e-02, 9.02414098e-02,
          8.90156105e-02, 9.45613980e-02, 3.21126580e-01, 3.21126580e-01,
          9.47761238e-02, 7.12878406e-02, 9.63449031e-02, 3.52833830e-02,
          3.98269035e-02, 2.64983624e-02, 3.05458624e-02, 4.45081405e-02,
          9.57845673e-02, 1.10475287e-01, 8.71930867e-02, 8.00245628e-02,
          9.82527584e-02, 4.97665778e-02, 5.45367151e-02, 1.23778224e-01,
          1.17551081e-01, 2.61081100e-01, 1.97513044e-01, 7.74347484e-02,
          4.98871915e-02, 1.01365745e-01, 1.06580421e-01, 1.50445178e-01,
          3.21126580e-01, 3.21126580e-01, 4.79436144e-02, 3.32109891e-02,
          6.78815395e-02, 9.23185274e-02, 1.15823016e-01, 4.06768881e-02,
          2.32584961e-02, 3.38629521e-02, 1.08858392e-01, 1.23161584e-01,
          3.95418629e-02, 4.76159342e-02, 3.95553410e-02, 1.61601901e-02,
          2.74890848e-02, 8.57568085e-02, 2.59936273e-01, 3.21126580e-01,
          1.96825460e-01, 4.09520119e-02, 5.18336184e-02, 1.01078346e-01,
          5.89402430e-02, 7.18681701e-03, 2.94914655e-02, 5.32024913e-02,
          1.88505612e-02, 1.20003466e-02, 1.04329903e-02, 2.11195592e-02,
          2.21989900e-01, 6.26411617e-01, 3.85905743e-01, 7.85242245e-02,
          6.44127280e-02, 0., 0., 0., 0., 0., 0., 0., 0., 0., 0., 0., 0.,
          0., 3.79827954e-02, 8.14505853e-03, 3.80239338e-02,
          9.90896374e-02, 5.64316660e-02, 5.14427833e-02, 6.88121989e-02,
          2.32587997e-02, 1.43458605e-01, 5.27864695e-01, 2.38900900e-01,
          5.04753701e-02, 4.28114608e-02, 0., 0., 0., 0., 0., 0., 0., 0.,
          0., 0., 0., 0., 0., 0., 0., 0., 0., 0., 0., 0., 0., 0., 0., 0.,
          0., 0., 7.03495666e-02, 1.39816567e-01, 2.15504125e-01,
          3.95526379e-01, 7.32797906e-02, 4.02883664e-02, 5.68335271e-03,
          1.82862568e-04, 5.72527014e-03, 9.92393121e-03, 3.30797676e-03,
          0., 3.85375246e-02, 0., 0., 0., 0., 0., 0., 0., 0., 0., 0., 0.,
          0., 0., 8.59142467e-02, 3.07862163e-01, 5.61802804e-01,
          5.61802804e-01, 1.43638328e-01, 4.76170927e-02, 2.04769243e-02,
          1.71246566e-02, 2.59814523e-02, 5.19824913e-03, 1.73274975e-03,
          0., 2.51821689e-02, 2.81616062e-01, 2.81616062e-01,
          5.77976033e-02, 3.57587077e-02, 1.86443273e-02, 2.37846393e-02,
          5.62824719e-02, 1.63153023e-01, 3.09821684e-02, 2.00848524e-02,
          3.75562087e-02, 5.64691946e-02, 7.34996274e-02, 2.81616062e-01,
          2.81616062e-01, 4.93157767e-02, 3.75065766e-02, 1.97708327e-02,
          3.54505815e-02, 1.42522678e-01, 2.81616062e-01, 5.82774319e-02,
          2.45854817e-02, 3.62731256e-02, 2.94085704e-02, 5.55604436e-02,
          2.81616062e-01, 2.81616062e-01, 7.62487575e-02, 2.38858834e-02,
          2.81473920e-02, 5.76551370e-02, 1.44323587e-01, 2.81616062e-01,
          2.07169786e-01, 3.34095098e-02, 4.01884988e-02, 4.18273136e-02,
          5.75902611e-02, 1.53528437e-01, 1.58026233e-01, 1.24651818e-02,
          2.05115508e-02, 1.92786101e-02, 7.10456446e-02, 2.20643803e-01,
          2.81616062e-01, 1.06765635e-01, 3.87207046e-02, 3.83744277e-02,
          3.17145772e-02, 3.19468118e-02, 9.81615931e-02, 6.21982105e-02,
          6.41052127e-02, 1.22182004e-01, 1.34908155e-01, 1.07500479e-01,
          2.93453068e-01, 3.65457207e-01, 3.65457207e-01, 2.27466628e-01,
          1.33873880e-01, 1.01484403e-01, 1.03788093e-01, 2.49332655e-02,
          3.96153471e-03, 2.86551192e-02, 7.35250339e-02, 6.31123036e-02,
          7.05753788e-02, 2.10865200e-01, 1.91674188e-01, 2.66836911e-01,
          2.56404936e-01, 1.19094543e-01, 3.73237170e-02, 4.18175310e-02,
          4.88025621e-02, 1.60908252e-02, 3.65385450e-02, 8.95588323e-02,
          8.73077288e-02, 5.54472245e-02, 2.27704853e-01, 2.15847716e-01,
          1.57900974e-01, 2.13799134e-01, 1.02495842e-01, 1.02177113e-01,
          6.05678782e-02, 3.29308724e-03, 1.86672492e-04, 8.91661178e-03,
          2.38633584e-02, 2.79662628e-02, 1.84188746e-02, 6.31358698e-02,
          4.83101271e-02, 7.87918270e-02, 8.31142887e-02, 3.27130556e-02,
          7.70972949e-03, 6.60704263e-03, 0., 0., 0., 0., 0., 0., 0., 0.,
          0., 0., 0., 0., 0., 0., 0., 0., 0., 0., 0., 0., 0., 0., 0., 0.,
          0., 0., 0., 0., 0., 0., 0., 0., 0., 0., 0., 0., 0., 0., 0., 0.,
          0., 0., 0., 0., 0., 0., 0., 0., 0., 0., 0., 0. ]
      - [ 0., 0., 0., 0., 0., 0., 0., 0., 0., 0., 0., 0., 0., 0., 0., 0.,
          0., 0., 0., 0., 0., 0., 0., 0., 0., 0., 0., 0., 0., 0., 0., 0.,
          0., 0., 0., 0., 0., 0., 0., 0., 0., 0., 0., 0., 0., 0., 0., 0.,
          0., 0., 0., 0., 0., 0., 0., 0., 0., 0., 0., 0., 0., 0., 0., 0.,
          0., 9.58040450e-03, 2.71244068e-03, 1.11562363e-03,
          2.18806020e-03, 0., 0., 0., 0., 0., 0., 0., 0., 9.58040450e-03,
          1.45870633e-03, 1.83191933e-02, 7.70692946e-03, 1.52944503e-02,
          0., 0., 0., 0., 0., 0., 0., 0., 1.45870633e-03, 2.09376648e-01,
          8.86357963e-01, 2.59898007e-01, 2.22383946e-01, 0., 0., 0., 0.,
          0., 3.89562757e-03, 1.29854260e-03, 0., 2.09376648e-01,
          5.69034694e-03, 9.65235813e-04, 7.54186069e-04, 1.07277697e-03,
          0., 0., 0., 0., 0., 1.38527103e-04, 6.57022683e-05,
          1.37118594e-04, 5.14229247e-03, 3.54730375e-02, 1.31647782e-02,
          7.39124464e-03, 8.96971673e-03, 0., 1.75545632e-04,
          4.04685707e-05, 0., 0., 6.27345056e-04, 2.09115053e-04,
          7.64902076e-03, 3.07018198e-02, 3.76249164e-01, 8.66533741e-02,
          2.89866291e-02, 1.92307215e-02, 4.29850444e-03, 1.33967195e-02,
          3.61283660e-01, 2.68346481e-02, 8.17110646e-04, 2.75792032e-02,
          1.31988088e-02, 1.23815909e-02, 3.76249164e-01, 3.76249164e-01,
          1.96609259e-01, 1.30471230e-01, 1.86114803e-01, 7.91539103e-02,
          1.42113298e-01, 3.76249164e-01, 1.81895159e-02, 9.40686371e-03,
          9.14286748e-02, 3.08970455e-02, 1.34279624e-01, 3.76249164e-01,
          1.14738181e-01, 4.25122641e-02, 2.26379447e-02, 3.18598710e-02,
          9.60869994e-03, 8.05629604e-03, 6.37801960e-02, 1.24064100e-03,
          2.41842493e-03, 1.15257679e-02, 7.10166898e-03, 4.56557907e-02,
          1.12656489e-01, 1.63330719e-01, 8.10070112e-02, 3.20921429e-02,
          3.42962258e-02, 3.09988800e-02, 3.00281327e-02, 9.50882211e-03,
          3.59651120e-03, 1.40212206e-02, 4.05802466e-02, 3.62509564e-02,
          1.01236932e-01, 1.54884100e-01, 2.76298791e-01, 2.76298791e-01,
          2.42910683e-01, 1.28082946e-01, 3.33358385e-02, 1.82239730e-02,
          1.31552145e-01, 2.16121692e-02, 2.46262662e-02, 3.66765782e-02,
          5.03760464e-02, 1.19456545e-01, 2.76298791e-01, 2.76298791e-01,
          2.76298791e-01, 2.50538439e-01, 1.38120204e-01, 7.37338066e-02,
          5.81001304e-02, 2.57469695e-02, 1.52886873e-02, 6.17323667e-02,
          2.76298791e-01, 2.76298791e-01, 2.59344459e-01, 2.76298791e-01,
          1.43831089e-01, 9.80179086e-02, 4.98984344e-02, 6.75143525e-02,
          5.21292984e-02, 4.89766300e-02, 8.37900788e-02, 1.42392702e-02,
          7.86947738e-03, 7.04264548e-03, 2.37812530e-02, 4.76088859e-02,
          1.41744137e-01, 3.56513828e-01, 2.54474878e-01, 6.29906282e-02,
          5.31591773e-02, 5.72203398e-02, 8.22756141e-02, 1.46404654e-01,
          5.43805100e-02, 4.78976667e-02, 3.47961336e-02, 4.65332828e-02,
          1.00352876e-01, 2.35240966e-01, 3.56513828e-01, 3.56513828e-01,
          7.75714666e-02, 6.64479136e-02, 7.14221075e-02, 6.18410408e-02,
          7.40218386e-02, 3.93623449e-02, 2.80245896e-02, 2.33863145e-02,
          3.20344195e-02, 5.31068258e-02, 1.28738508e-01, 3.56513828e-01,
          3.56513828e-01, 6.18721768e-02, 4.47725765e-02, 6.26194179e-02,
          8.70733112e-02, 9.12498459e-02, 4.34165001e-02, 5.10588735e-02,
          3.26687358e-02, 5.28355055e-02, 8.25811103e-02, 1.48904219e-01,
          3.52172583e-01, 3.52172583e-01, 4.99328747e-02, 6.13977686e-02,
          5.23669384e-02, 2.01618932e-02, 7.11615458e-02, 4.59669530e-02,
          3.00331172e-02, 4.05292474e-02, 8.04619119e-02, 9.04366672e-02,
          2.02449575e-01, 3.52172583e-01, 3.52172583e-01, 5.87804839e-02,
          6.16037585e-02, 5.05574308e-02, 3.81595045e-02, 1.02550909e-01,
          5.10021858e-02, 3.69645506e-02, 3.47362831e-02, 5.19396886e-02,
          3.72096002e-02, 1.17835522e-01, 3.52172583e-01, 1.75698563e-01,
          5.89023121e-02, 7.33912587e-02, 6.98276386e-02, 5.95156439e-02,
          7.99196064e-02, 5.79854064e-02, 4.19484824e-02, 9.79187340e-02,
          1.65126175e-01, 9.59369689e-02, 1.08164147e-01, 2.37341955e-01,
          1.50980070e-01, 1.09492153e-01, 9.65912491e-02, 9.36371684e-02,
          7.72777125e-02, 7.96187297e-02, 5.33785485e-02, 3.65752466e-02,
          5.30648157e-02, 6.91870451e-02, 4.85800393e-02, 5.98057546e-02,
          2.89248079e-01, 2.24794522e-01, 1.09901018e-01, 2.38204658e-01,
          1.88084185e-01, 1.23198345e-01, 2.03836054e-01, 1.20102316e-01,
          1.05341405e-01, 1.11398295e-01, 8.58377740e-02, 1.13525815e-01,
          1.75870642e-01, 2.89248079e-01, 8.17211717e-02, 4.55168672e-02,
          7.10908920e-02, 6.31385073e-02, 4.45167199e-02, 8.00497085e-02,
          8.13506842e-02, 6.67496547e-02, 4.90216948e-02, 2.94190031e-02,
          4.34290767e-02, 1.16381049e-01, 1.85828999e-01, 1.33991331e-01,
          1.62763894e-01, 2.81453609e-01, 2.89248079e-01, 1.57622933e-01,
          1.25688016e-01, 1.88459054e-01, 1.76434726e-01, 1.32597864e-01,
          9.20669585e-02, 1.45214736e-01, 1.63269833e-01, 4.30953167e-02,
          3.22800279e-02, 6.17555603e-02, 9.01690274e-02, 8.38890448e-02,
          4.66369390e-02, 4.57225442e-02, 8.58633965e-02, 8.22072178e-02,
          7.20270798e-02, 3.60753611e-02, 3.79098244e-02, 4.58451994e-02,
          6.82344195e-03, 1.12594031e-02, 1.04731187e-01, 2.16508240e-01,
          1.39248548e-02, 8.56675208e-03, 4.90109026e-02, 2.48090532e-02,
          1.54589459e-01, 2.95576394e-01, 3.22035663e-02, 8.29333533e-03,
          5.18111233e-03, 1.12259937e-02, 8.92083719e-03, 1.57411665e-01,
          2.96916813e-01, 2.39735190e-02, 1.34899411e-02, 6.74732924e-02,
          2.56296769e-02, 1.01304658e-01, 2.96916813e-01, 2.06412494e-01,
          2.23861355e-02, 1.13624465e-02, 7.67912436e-03, 1.82166658e-02,
          1.92978323e-01, 2.96916813e-01, 1.09977508e-02, 3.71186156e-03,
          1.44476015e-02, 1.95733476e-02, 2.27274537e-01, 2.96916813e-01,
          5.00245392e-02, 1.50492508e-02, 8.17873981e-03, 8.23170505e-03,
          2.02054437e-02, 2.38480270e-01, 2.96916813e-01, 3.44713815e-02,
          7.72037171e-03, 2.47876421e-02, 2.59008761e-02, 1.03942290e-01,
          2.96916813e-01, 2.13978559e-01, 2.21727453e-02, 1.24735795e-02,
          1.09757349e-01, 1.13362916e-01, 1.09465927e-01, 5.15507683e-02,
          4.79579158e-02, 2.66705781e-01, 3.71406794e-01, 1.75073773e-01,
          8.30727741e-02, 1.00012675e-01, 4.09149304e-02, 1.47149274e-02,
          1.52002573e-01, 1.32560939e-01, 5.30336387e-02, 8.71823207e-02,
          5.50995283e-02, 7.71429017e-02, 3.71406794e-01, 3.71406794e-01,
          2.01199338e-01, 8.71337652e-02, 5.91784641e-02, 2.09959205e-02,
          2.06715446e-02, 1.44716650e-01, 1.11817718e-02, 1.03457235e-02,
          1.40177365e-02, 2.44718809e-02, 1.31159062e-02, 1.01288464e-02,
          3.71406794e-01, 2.06855275e-02, 2.96079684e-02, 7.14451894e-02,
          2.33439691e-02, 3.26167326e-04, 1.49036888e-02, 1.74181014e-02,
          3.91380256e-03, 4.25048312e-03, 4.61571245e-03, 2.33354908e-03,
          3.22943111e-03, 3.71406794e-01, 1.14736566e-02, 1.36623727e-02,
          3.23995501e-02, 1.07163899e-02, 1.97497406e-03, 1.88762732e-02,
          1.08370051e-01, 9.98999849e-02, 7.37438276e-02, 9.13578719e-02,
          1.40784025e-01, 3.29421341e-01, 3.29421341e-01, 1.27769783e-01,
          5.92599772e-02, 1.94475725e-02, 2.38506515e-02, 6.05151542e-02,
          9.72821712e-02, 1.01552509e-01, 6.33503944e-02, 4.97459695e-02,
          5.10914326e-02, 8.13622996e-02, 3.29421341e-01, 3.29421341e-01,
          5.82808778e-02, 2.88559943e-02, 1.13323098e-02, 1.49019137e-02,
          5.12280762e-02, 1.82339743e-01, 1.98580306e-02, 2.83466484e-02,
          3.19562927e-02, 5.71483448e-02, 6.58639967e-02, 2.58914918e-01,
          2.96834439e-01, 7.16021284e-02, 3.56203616e-02, 1.51274493e-02,
          1.77293923e-02, 2.09560171e-02, 3.95477787e-02, 1.82493031e-02,
          1.63035635e-02, 3.88830863e-02, 9.03017297e-02, 8.75515118e-02,
          3.29421341e-01, 3.19424033e-01, 4.01019044e-02, 1.73232667e-02,
          6.90222345e-03, 5.51304314e-03, 8.77726357e-03, 4.95673567e-02,
          1.94506899e-01, 5.06587625e-02, 1.40746478e-02, 8.26265849e-03,
          1.28353415e-02, 7.73153156e-02, 1.61757678e-01, 1.01008333e-01,
          3.70629132e-02, 2.19365750e-02, 3.82102169e-02, 9.48932022e-02,
          2.30139405e-01, 1.66811109e-01, 6.28221408e-02, 1.31265121e-02,
          1.03669781e-02, 1.42512377e-02, 2.55683083e-02, 9.34397876e-02,
          1.07688978e-01, 2.99477279e-02, 2.35374346e-02, 2.77350266e-02,
          7.19533116e-02, 2.11553961e-01, 1.19774260e-01, 4.96933386e-02,
          1.95811950e-02, 2.97574811e-02, 1.64611369e-01, 4.17023629e-01,
          4.04783130e-01, 7.69868568e-02, 7.18237087e-02, 4.45323586e-02,
          5.52555397e-02, 1.11935787e-01, 1.92093685e-01, 1.22711688e-01,
          3.06701120e-02, 1.36610577e-02, 1.50100505e-02, 7.46212006e-02,
          4.17023629e-01, 1.61317989e-01, 3.14583741e-02, 3.98072712e-02,
          2.54272297e-02, 4.00947221e-02, 1.05862856e-01, 2.35684603e-01,
          1.03241958e-01, 5.71639016e-02, 1.19063407e-01, 2.38439545e-01,
          7.76902735e-02, 7.97675028e-02, 7.22553208e-02, 3.88467722e-02,
          3.69372405e-02, 2.77402997e-01, 2.05460936e-01, 4.21736129e-02,
          6.61903396e-02, 7.27528781e-02, 5.73814772e-02, 1.26186252e-01,
          2.63230413e-01, 6.49060532e-02, 4.68405858e-02, 3.89260612e-02,
          2.52220575e-02, 7.60173202e-02, 2.86372840e-01, 1.82749152e-01,
          4.85626198e-02, 4.10008058e-02, 3.16285826e-02, 2.17849109e-02,
          2.08571792e-01, 2.86372840e-01, 5.09643517e-02, 4.34502810e-02,
          3.87406014e-02, 2.90715247e-02, 5.37035055e-02, 2.86372840e-01,
          2.26071134e-01, 2.43336018e-02, 2.62418836e-02, 2.90534385e-02,
          2.89093535e-02, 2.34115839e-01, 2.86372840e-01, 4.56272066e-02,
          2.63860691e-02, 1.98489409e-02, 1.91154797e-02, 1.11126393e-01,
          2.86372840e-01, 1.73669577e-01, 2.65861787e-02, 2.04359069e-02,
          0., 0., 0., 0., 0., 0., 0., 0., 0., 0., 0., 0., 0., 0., 0., 0.,
          0., 0., 0., 0., 0., 0., 0., 0., 0., 0., 0., 0., 0., 0., 0., 0.,
          0., 0., 0., 0., 0., 0., 0., 0., 0., 0., 0., 0., 0., 0., 0., 0.,
          0., 0., 0., 0., 0., 0., 0., 0., 0., 0., 0., 0., 0., 0., 0., 0.,
          0., 0., 0., 2.86180854e-01, 7.10669100e-01, 2.49979913e-01,
          1.50208712e-01, 5.61846018e-01, 5.56801492e-03, 9.26592387e-03,
          1.47540970e-02, 4.91803279e-03, 0., 0., 0., 0., 0., 0., 0., 0.,
          0., 0., 0., 0., 0., 0., 0., 0., 0., 1.28852949e-03,
          3.86559358e-03, 1.78818442e-02, 1.07448967e-02, 6.64972886e-02,
          1.79636496e-04, 2.98900792e-04, 0., 0., 0., 0., 1.24372520e-01,
          2.23392248e-02, 1.92838535e-02, 6.34340718e-02, 7.60624111e-02,
          6.06742725e-02, 4.28143799e-01, 7.79191107e-02, 1.13273904e-01,
          3.31525989e-02, 8.88670608e-03, 3.65693844e-03, 1.23760127e-01,
          8.89844075e-02, 6.41186610e-02, 8.36299881e-02, 2.28994355e-01,
          4.28143799e-01, 4.28143799e-01, 4.28143799e-01, 1.68369696e-01,
          1.56095892e-01, 1.51873395e-01, 4.52312268e-02, 1.39569864e-01,
          1.58955678e-01, 0., 0., 9.93342692e-05, 3.04817222e-04,
          6.92964008e-04, 9.82880942e-04, 2.21947045e-03, 2.64954200e-04,
          4.40938893e-04, 8.48046388e-04, 2.82682129e-04, 0., 0.,
          1.33355870e-03, 5.78804815e-04, 3.54765245e-04, 1.27553300e-03,
          1.26066487e-02, 1.56175410e-02, 5.21281064e-02, 7.36586610e-03,
          5.60741732e-03, 1.83474825e-04, 1.40166230e-04, 9.84268961e-04,
          1.37480872e-03, 1.44969709e-02, 5.58534078e-02, 2.61223346e-01,
          2.61223346e-01, 2.61223346e-01, 2.61223346e-01, 2.61223346e-01,
          2.02110663e-01, 2.29898751e-01, 2.61223346e-01, 8.85367692e-02,
          1.30076287e-02, 7.11456453e-03, 3.76732573e-02, 5.30424379e-02,
          2.25356936e-01, 2.07757637e-01, 1.38527870e-01, 1.52626380e-01,
          2.61223346e-01, 2.61223346e-01, 2.61223346e-01, 2.61223346e-01,
          9.55995545e-02, 1.46058118e-02, 1.46410232e-02, 4.78504598e-03,
          5.49010746e-03, 2.92616263e-02, 4.75087352e-02, 6.03142865e-02,
          5.25394194e-02, 1.07304692e-01, 3.50556746e-02, 4.40655015e-02,
          2.34149545e-02, 2.23230813e-02, 4.38378099e-03, 3.62943835e-03,
          7.26253120e-03, 9.03444644e-03, 2.12021545e-02, 2.41920426e-02,
          4.06400487e-02, 4.25528325e-02, 1.39842346e-01, 5.21705039e-02,
          6.92554414e-02, 4.03776951e-02, 3.15447710e-02, 3.16877617e-03,
          4.41419706e-03 ]
      - [ 4.01893891e-02, 4.76303734e-02, 2.46417999e-01, 2.79211998e-01,
          2.03112401e-02, 1.07994983e-02, 1.09888278e-02, 1.04895849e-02,
          2.94944793e-02, 1.95000425e-01, 1.55616656e-01, 6.19988851e-02,
          4.63243276e-02, 1.78720340e-01, 1.52096972e-01, 2.49552935e-01,
          1.67248189e-01, 6.50445595e-02, 2.08483376e-02, 3.01747434e-02,
          2.95881294e-02, 5.46727031e-02, 1.49954990e-01, 1.72936350e-01,
          1.87480927e-01, 2.32094526e-01, 1.12076821e-02, 3.80344056e-02,
          2.77615964e-01, 2.79211998e-01, 3.77998054e-02, 9.23584495e-03,
          3.08347540e-03, 1.14205023e-02, 2.26978008e-02, 1.98803678e-01,
          9.38882679e-02, 1.86642315e-02, 1.52354967e-02, 1.31056145e-01,
          1.15563892e-01, 2.79211998e-01, 2.79211998e-01, 1.30504727e-01,
          4.00275663e-02, 2.07940917e-02, 2.54986938e-02, 5.10014668e-02,
          1.72583982e-01, 1.10080265e-01, 9.41695943e-02, 1.46225557e-01,
          2.51132637e-01, 1.15765423e-01, 7.45149553e-02, 5.35032228e-02,
          2.30050329e-02, 1.23403938e-02, 1.50285345e-02, 1.49657410e-02,
          1.37299215e-02, 1.01108380e-01, 9.26057771e-02, 1.11637920e-01,
          2.47580722e-01, 2.51132637e-01, 1.28027901e-01, 6.09817430e-02,
          3.05160098e-02, 2.15450898e-02, 2.06146296e-02, 4.98035066e-02,
          2.45023444e-02, 2.73253508e-02, 7.31953457e-02, 9.35008228e-02,
          1.03713617e-01, 2.51132637e-01, 2.51132637e-01, 1.55699968e-01,
          1.89705774e-01, 1.62805170e-01, 7.58682191e-02, 5.59614263e-02,
          6.12392053e-02, 3.80459279e-02, 3.67726795e-02, 2.49092147e-01,
          2.24641323e-01, 1.31307334e-01, 2.51132637e-01, 2.51132637e-01,
          1.27595469e-01, 1.09027974e-01, 1.03481814e-01, 5.83235100e-02,
          6.85649738e-02, 1.51517883e-01, 6.28330782e-02, 5.20283431e-02,
          1.06455609e-01, 1.99514970e-01, 1.73353583e-01, 2.51132637e-01,
          2.25179791e-01, 3.01049829e-01, 9.94319543e-02, 4.92708832e-02,
          2.86155883e-02, 2.43206713e-02, 2.92625502e-02, 1.49594657e-02,
          2.75411196e-02, 5.42431176e-02, 1.06110722e-01, 2.72397190e-01,
          1.67025283e-01, 1.32680967e-01, 1.84282169e-01, 5.55976070e-02,
          5.08796275e-02, 5.46199642e-02, 3.44980545e-02, 4.66920696e-02,
          1.87677089e-02, 2.81022694e-02, 4.18647230e-02, 1.60510331e-01,
          3.01049829e-01, 1.82500735e-01, 1.68373540e-01, 3.01049829e-01,
          1.01259358e-01, 3.17352228e-02, 2.78354734e-02, 2.23381594e-02,
          1.39412545e-02, 1.74301397e-02, 3.94085795e-02, 4.65158746e-02,
          8.13201070e-02, 2.68652707e-01, 1.21089265e-01, 9.01032612e-02,
          1.20383479e-01, 5.05819991e-02, 5.23141585e-02, 5.83739504e-02,
          4.55743298e-02, 3.38211954e-02, 2.67272405e-02, 3.55242118e-02,
          1.34622976e-01, 2.86578417e-01, 3.01049829e-01, 2.25891054e-01,
          5.79653382e-02, 1.45089611e-01, 1.02695607e-01, 2.39944458e-01,
          2.39944458e-01, 2.28905544e-01, 9.22845155e-02, 6.45108819e-02,
          1.16859026e-01, 1.49917424e-01, 5.27153611e-02, 3.02334018e-02,
          4.34904173e-02, 1.90027952e-02, 6.40973523e-02, 1.30594343e-01,
          2.39944458e-01, 2.26628825e-01, 1.72947213e-01, 9.61012393e-02,
          3.00095584e-02, 8.49550217e-02, 1.76023573e-01, 5.78888133e-02,
          1.61508862e-02, 1.77847315e-02, 1.34634256e-01, 1.63592175e-01,
          1.62139878e-01, 2.09761545e-01, 1.65804788e-01, 1.24083795e-01,
          8.47852975e-02, 4.50201295e-02, 7.31813312e-02, 2.08937049e-01,
          1.84086964e-01, 1.28325045e-01, 1.57385290e-01, 4.03276198e-02,
          4.34604399e-02, 7.24163130e-02, 2.07949683e-01, 2.39944458e-01,
          1.84528798e-01, 2.31417581e-01, 3.10694184e-02, 4.98422347e-02,
          1.44287154e-01, 9.06467810e-02, 7.08947778e-02, 4.42994423e-02,
          3.62295657e-03, 1.23479292e-02, 2.06889063e-01, 3.30741853e-01,
          4.90700528e-02, 5.54579822e-03, 1.51756906e-03, 7.62082287e-04,
          5.19352127e-03, 4.97853979e-02, 2.77964193e-02, 5.44779282e-03,
          2.35834043e-03, 8.65109358e-03, 1.59246903e-02, 3.30741853e-01,
          3.30741853e-01, 5.04539646e-02, 7.06845568e-03, 6.19113911e-03,
          1.26135359e-02, 4.74311076e-02, 2.86325365e-01, 2.73689121e-01,
          5.25250286e-02, 1.27243754e-02, 4.98888828e-03, 1.34435771e-02,
          2.30470702e-01, 3.30741853e-01, 3.59423906e-02, 5.79440640e-03,
          1.67433685e-03, 9.70064197e-04, 5.52830566e-03, 4.91960049e-02,
          3.09901051e-02, 1.46237295e-02, 4.99580894e-03, 2.71085855e-02,
          2.31376141e-02, 3.11439216e-01, 3.30741853e-01, 8.12848136e-02,
          1.47706773e-02, 5.23921801e-03, 1.04561104e-02, 5.51227145e-02,
          1.63084462e-01, 1.94787771e-01, 6.43264726e-02, 2.44405195e-02,
          1.02660999e-01, 9.45882276e-02, 1.04834758e-01, 1.37821555e-01,
          6.77904636e-02, 8.85916725e-02, 9.53010023e-02, 9.76275653e-02,
          1.25594318e-01, 1.20971315e-01, 1.14916779e-01, 9.67577398e-02,
          8.38616490e-02, 1.46565840e-01, 1.54780611e-01, 1.38930857e-01,
          1.44309491e-01, 1.01955988e-01, 1.00454248e-01, 1.30418062e-01,
          1.36883259e-01, 1.19812340e-01, 9.50824767e-02, 1.08642392e-01,
          1.55104652e-01, 1.36330575e-01, 1.52844772e-01, 1.74913764e-01,
          2.17735574e-01, 1.99681625e-01, 7.23404586e-02, 8.90361965e-02,
          1.22969680e-01, 7.62364045e-02, 1.03780039e-01, 1.14603333e-01,
          9.81978998e-02, 1.50591537e-01, 1.64153874e-01, 1.73103198e-01,
          1.70637131e-01, 1.53851733e-01, 2.17735574e-01, 8.14318806e-02,
          1.29424125e-01, 2.11177617e-01, 1.09680496e-01, 7.89780021e-02,
          1.75033003e-01, 2.17735574e-01, 2.17735574e-01, 1.93087906e-01,
          1.01586305e-01, 1.45850852e-01, 6.32009357e-02, 2.18470134e-02,
          1.80342514e-02, 7.97867998e-02, 2.15519994e-01, 2.25616053e-01,
          1.17811747e-01, 6.74361214e-02, 7.61360452e-02, 1.66060597e-01,
          1.47449583e-01, 9.94653404e-02, 4.69650738e-02, 6.19356781e-02,
          8.64204988e-02, 6.81625232e-02, 1.79291815e-01, 2.25616053e-01,
          1.60726622e-01, 9.25229415e-02, 1.05228730e-01, 2.25616053e-01,
          2.25616053e-01, 1.84348375e-01, 8.73322338e-02, 7.76461214e-02,
          5.82325310e-02, 3.68806906e-02, 5.03205843e-02, 1.20783232e-01,
          2.25616053e-01, 2.00550020e-01, 9.42247286e-02, 5.63478358e-02,
          7.49822631e-02, 6.92364350e-02, 1.15355574e-01, 1.84739321e-01,
          6.44692481e-02, 8.48774314e-02, 9.15094540e-02, 8.91151354e-02,
          2.10547581e-01, 2.25616053e-01, 1.77985057e-01, 1.07053123e-01,
          1.14048287e-01, 2.06293225e-01, 1.50575548e-01, 2.25616053e-01,
          7.58298934e-02, 6.24448135e-02, 9.58444178e-02, 8.17654803e-02,
          5.50329797e-02, 5.85736446e-02, 5.92921153e-02, 7.81368166e-02,
          1.99464917e-01, 2.68348902e-01, 2.68348902e-01, 1.79760844e-01,
          1.29893109e-01, 5.49347326e-02, 4.13122661e-02, 4.67748865e-02,
          3.93954515e-02, 1.79787911e-02, 2.20197029e-02, 4.41105440e-02,
          4.38798554e-02, 1.04622900e-01, 1.88865095e-01, 1.30011424e-01,
          1.13637969e-01, 1.18141733e-01, 1.38477594e-01, 1.11246549e-01,
          1.25912771e-01, 1.85920686e-01, 7.12863505e-02, 6.28534257e-02,
          5.21418229e-02, 7.71743879e-02, 2.67178297e-01, 2.68348902e-01,
          2.68348902e-01, 1.70720443e-01, 1.56173944e-01, 1.29530519e-01,
          8.41282979e-02, 7.83184618e-02, 1.40650049e-01, 5.11893854e-02,
          2.63508745e-02, 2.83194557e-02, 2.60415319e-02, 1.18577600e-01,
          2.68348902e-01, 1.95755690e-01, 1.62380025e-01, 2.12698564e-01,
          4.61001992e-02, 7.93651640e-02, 2.55292654e-01, 3.07354629e-01,
          8.42078179e-02, 2.64489092e-02, 3.42983976e-02, 1.57610532e-02,
          3.12119927e-02, 7.89181143e-02, 3.31615731e-02, 2.26180665e-02,
          4.31871153e-02, 1.43675312e-01, 1.19262815e-01, 3.07354629e-01,
          3.07354629e-01, 2.63923019e-01, 1.78908840e-01, 2.74881795e-02,
          9.98645928e-03, 3.89985181e-02, 5.58604822e-02, 2.04628352e-02,
          1.24408137e-02, 1.19122937e-01, 3.93692367e-02, 5.80645278e-02,
          2.20564380e-01, 3.07354629e-01, 5.47175519e-02, 1.95069741e-02,
          3.51232886e-02, 1.44021362e-02, 3.69933397e-02, 2.00439692e-01,
          6.23200089e-02, 1.93354934e-02, 2.49175616e-02, 2.93719266e-02,
          5.01481593e-02, 3.07354629e-01, 3.07354629e-01, 2.13465199e-01,
          1.08257547e-01, 2.20920574e-02, 1.11757824e-02, 4.00655754e-02,
          1.02523275e-01, 3.64613719e-02, 1.12909554e-02, 1.36190820e-02,
          6.36955351e-02, 7.63451606e-02, 1.04134470e-01, 1.17346190e-01,
          5.91130592e-02, 5.15253507e-02, 6.03571273e-02, 4.17038016e-02,
          5.97127974e-02, 1.93569198e-01, 2.61592358e-01, 1.91300303e-01,
          8.49823058e-02, 1.26364931e-01, 6.57700896e-02, 5.92730641e-02,
          8.78447369e-02, 1.03007428e-01, 1.08069636e-01, 1.81449831e-01,
          1.63134888e-01, 1.73133090e-01, 2.61592358e-01, 2.32400179e-01,
          2.60440797e-01, 1.76885188e-01, 2.58086398e-02, 2.21594162e-02,
          3.38735208e-02, 5.26809096e-02, 6.93301409e-02, 7.16556907e-02,
          5.71178496e-02, 2.97099203e-02, 4.44677472e-02, 2.52291620e-01,
          2.61592358e-01, 1.10581733e-01, 6.23143800e-02, 2.49424875e-02,
          1.31264422e-02, 2.74723750e-02, 1.11021280e-01, 1.17265567e-01,
          9.73591134e-02, 9.61350054e-02, 5.90021163e-02, 1.67312995e-01,
          2.61592358e-01, 2.61592358e-01, 1.94726631e-01, 1.06066391e-01,
          5.94824962e-02, 3.95067520e-02, 4.67453189e-02, 7.78214633e-02,
          1.10075988e-01, 2.35834792e-01, 2.32569590e-01, 7.37289041e-02,
          3.55793685e-02, 3.01446561e-02, 3.28109786e-02, 5.44972196e-02,
          7.51204267e-02, 9.85399708e-02, 1.16535448e-01, 1.63551033e-01,
          2.35834792e-01, 2.20204666e-01, 2.35834792e-01, 1.66097865e-01,
          7.91545734e-02, 5.95951490e-02, 1.30699873e-01, 8.96784812e-02,
          5.30457385e-02, 8.33167285e-02, 1.56722426e-01, 1.16522446e-01,
          1.02052324e-01, 1.43556669e-01, 1.17864817e-01, 1.97634265e-01,
          1.16520479e-01, 6.19114898e-02, 4.03637812e-02, 5.61799742e-02,
          6.94060028e-02, 1.78324088e-01, 1.67924702e-01, 1.15014188e-01,
          1.46677554e-01, 2.18512729e-01, 2.35834792e-01, 2.08424345e-01,
          2.35834792e-01, 2.06154615e-01, 8.99409801e-02, 6.74983412e-02,
          1.77845359e-01, 1.28052160e-01, 7.67158046e-02, 8.81980360e-02,
          6.96760342e-02, 7.94480965e-02, 1.07297793e-01, 1.77812189e-01,
          8.16874728e-02, 1.01374499e-01, 6.26858026e-02, 1.01323582e-01,
          2.37678453e-01, 2.81332672e-01, 2.81332672e-01, 9.38596800e-02,
          8.32073167e-02, 5.23341149e-02, 8.55761766e-02, 1.27609640e-01,
          1.90741509e-01, 9.71631557e-02, 5.61539009e-02, 4.64429185e-02,
          6.64743483e-02, 1.29029244e-01, 2.81332672e-01, 1.13252826e-01,
          4.03160676e-02, 5.23728766e-02, 1.14225574e-01, 8.94833654e-02,
          1.23318575e-01, 1.21716574e-01, 6.41338825e-02, 7.05842227e-02,
          8.83457586e-02, 1.25249594e-01, 2.42577940e-01, 2.81332672e-01,
          2.72036076e-01, 8.03818107e-02, 8.09612647e-02, 5.24770319e-02,
          9.23199877e-02, 1.19261757e-01, 1.06527478e-01, 1.10341035e-01,
          4.71790247e-02, 6.38203248e-02, 5.19954599e-02, 1.27311110e-01,
          2.81332672e-01, 1.46440089e-01, 4.48410250e-02, 2.86782440e-02,
          1.35925002e-02, 1.94330774e-02, 1.50230289e-01, 2.62542099e-01,
          7.83054978e-02, 2.61441655e-02, 3.46563421e-02, 4.52071428e-02,
          6.83428049e-02, 1.46313921e-01, 6.85060024e-02, 4.06989716e-02,
          2.89733913e-02, 1.91786978e-02, 5.47065809e-02, 2.62542099e-01,
          2.62542099e-01, 2.62542099e-01, 1.40794769e-01, 1.39861867e-01,
          1.51917219e-01, 1.06481023e-01, 9.46168378e-02, 5.31697385e-02,
          7.04337433e-02, 5.14089055e-02, 1.04256898e-01, 8.87119696e-02,
          1.12240985e-01, 2.62542099e-01, 9.83261243e-02, 1.28123596e-01,
          2.55400777e-01, 1.46534577e-01, 6.99179173e-02, 5.84877245e-02,
          5.01202121e-02, 7.50994310e-02, 1.24545693e-01, 8.94839615e-02,
          5.35104237e-02, 1.11164905e-01, 2.07408503e-01, 2.05001026e-01,
          2.19020575e-01, 2.62542099e-01, 2.10206643e-01, 9.52968895e-02,
          5.07160351e-02, 5.73450215e-02, 1.08750962e-01, 1.32318914e-01,
          1.48500176e-02, 1.10112717e-02, 2.92108189e-02, 1.12856850e-01,
          1.74623728e-01, 2.02373490e-01, 2.39401370e-01, 2.27531672e-01,
          1.29204333e-01, 2.26054385e-01, 1.51260018e-01, 3.77234183e-02,
          1.88569874e-02, 2.45891698e-02, 1.94646735e-02, 2.63368692e-02,
          5.27577363e-02, 1.16826080e-01, 1.65884048e-01, 2.39401370e-01,
          2.39401370e-01, 2.17152536e-01, 2.39401370e-01, 1.26950443e-01,
          2.74749547e-02, 2.22804379e-02, 4.55891900e-02, 2.37827860e-02,
          1.98750347e-02, 5.92608303e-02, 1.32308513e-01, 2.38341555e-01,
          2.39401370e-01, 2.39401370e-01, 1.33852631e-01, 1.14371352e-01,
          7.31050745e-02, 1.96664650e-02, 3.86392400e-02, 3.71712670e-02,
          2.63943113e-02, 1.60576887e-02, 4.37888503e-02, 1.07985936e-01,
          1.64754122e-01, 2.39401370e-01, 2.32641503e-01, 1.49792507e-01,
          1.15850076e-01, 4.99751195e-02, 2.01923102e-02, 4.04220968e-02,
          2.19907537e-02, 1.48969302e-02, 1.08764097e-01, 1.67422801e-01,
          1.05001360e-01, 1.88243791e-01, 3.27590108e-01, 7.90914595e-02,
          4.42441888e-02, 4.11449000e-02, 3.40177342e-02, 3.55548933e-02,
          2.69315373e-02, 7.68513605e-02, 5.48390038e-02, 1.06150657e-01,
          1.23455994e-01, 6.05549179e-02, 2.26438522e-01, 3.27590108e-01,
          1.11361727e-01, 8.14613104e-02, 1.42026246e-01, 1.64370000e-01,
          1.15991034e-01, 4.97019514e-02, 6.51151240e-02, 1.73798352e-02,
          2.92418748e-02, 6.02408685e-02, 7.64498189e-02, 2.91846871e-01,
          3.27590108e-01, 1.14844546e-01, 4.67918217e-02, 2.74459682e-02,
          1.75796505e-02, 4.37612236e-02, 7.39326105e-02, 7.72323757e-02,
          4.40826789e-02, 4.90300469e-02, 4.89366800e-02, 5.12045696e-02,
          3.27590108e-01, 3.27590108e-01, 1.63662359e-01, 3.72923091e-02,
          4.33563292e-02, 8.71326402e-02, 7.78925121e-02, 6.81565553e-02,
          6.31984025e-02, 4.86305468e-02, 1.05934732e-01, 1.54071569e-01,
          6.00575581e-02, 7.16523603e-02, 1.08190216e-01, 8.71015564e-02,
          2.62643665e-01, 2.62643665e-01, 2.62643665e-01, 6.39163330e-02,
          6.88536093e-02, 4.83442694e-02, 3.15341167e-02, 8.54045153e-02,
          1.63678676e-01, 8.96706283e-02, 6.35516346e-02, 7.15848431e-02,
          3.14306170e-02, 7.50952139e-02, 1.80892736e-01, 1.30624339e-01,
          5.83939105e-02, 4.95176613e-02, 7.95933157e-02, 6.00928739e-02,
          1.15112878e-01, 1.54054850e-01, 1.51255056e-01, 1.56550363e-01,
          2.62643665e-01, 1.78500861e-01, 2.27625415e-01, 2.62643665e-01,
          9.99468714e-02, 3.97159681e-02, 5.50240465e-02, 3.85538265e-02,
          6.04010485e-02, 1.56718373e-01, 2.13987321e-01, 1.68395802e-01,
          1.37135804e-01, 1.83871806e-01, 7.69203454e-02, 6.18389286e-02,
          1.96045831e-01, 2.18048811e-01, 1.02799021e-01, 4.54133749e-02 ]
      - [ 0., 0., 0., 0., 0., 0., 0., 0., 0., 0., 0., 0., 0., 0., 0., 0.,
          0., 0., 0., 0., 0., 0., 0., 0., 0., 0., 0., 0., 0., 0., 0., 0.,
          0., 0., 0., 0., 0., 0., 0., 0., 0., 0., 0., 0., 0., 0., 0., 0.,
          0., 0., 0., 0., 2.22573951e-01, 2.38846913e-01, 2.07703397e-01,
          1.87821239e-01, 2.77666599e-02, 1.88418757e-02, 6.17784411e-02,
          6.01818040e-02, 2.70387791e-02, 4.73371297e-02, 2.26463992e-02,
          1.62058678e-02, 4.58135083e-02, 2.73847610e-01, 2.73847610e-01,
          1.70610040e-01, 1.43834084e-01, 1.27718017e-01, 1.07973263e-01,
          9.56059024e-02, 9.03536081e-02, 5.46322428e-02, 1.91933021e-01,
          6.83134496e-02, 5.33935875e-02, 1.60664052e-01, 4.55465876e-02,
          8.56668428e-02, 2.73847610e-01, 2.73847610e-01, 2.98563279e-02,
          1.56634096e-02, 5.23803011e-02, 3.82105149e-02, 3.71527933e-02,
          1.62109137e-01, 6.37311861e-02, 1.53068369e-02, 1.20932804e-02,
          7.31454566e-02, 1.02191374e-01, 2.73847610e-01, 2.73847610e-01,
          1.03783906e-01, 7.78923780e-02, 6.46741465e-02, 5.10011278e-02,
          6.63092062e-02, 2.73847610e-01, 1.11164689e-01, 3.41595411e-02,
          2.20050234e-02, 5.83708845e-02, 3.04649267e-02, 3.56657133e-02,
          2.34914087e-02, 1.33140817e-01, 7.28107393e-02, 4.78174351e-02,
          2.24162005e-02, 2.68423650e-02, 7.62276277e-02, 3.16679090e-01,
          3.19925278e-01, 2.52116680e-01, 3.59134860e-02, 1.06900455e-02,
          2.06645634e-02, 1.44058205e-02, 2.21540052e-02, 7.55024003e-03,
          1.55374212e-02, 1.59016065e-02, 3.16646174e-02, 6.59266487e-02,
          1.73708394e-01, 2.15532303e-01, 6.21887706e-02, 2.65321024e-02,
          1.43676735e-02, 2.21367851e-02, 9.21579152e-02, 3.19925278e-01,
          9.25709382e-02, 3.92681397e-02, 2.86232959e-02, 5.33793569e-02,
          1.31763950e-01, 3.19925278e-01, 3.19925278e-01, 7.16188401e-02,
          3.57762277e-02, 2.08016466e-02, 2.03665607e-02, 6.44602850e-02,
          1.35871500e-01, 1.23781841e-02, 1.40019264e-02, 1.86785311e-02,
          4.15290445e-02, 1.26147062e-01, 3.19925278e-01, 3.19925278e-01,
          4.65268493e-02, 0., 0., 0., 0., 0., 0., 0., 0., 0., 0., 0., 0.,
          0., 0., 0., 0., 0., 0., 0., 0., 0., 0., 0., 0., 0., 0., 0., 0.,
          0., 0., 0., 0., 0., 0., 0., 0., 0., 0., 0., 0., 0., 0., 0., 0.,
          0., 0., 0., 0., 0., 0., 0., 0., 0., 0., 0., 0., 0., 0., 0., 0.,
          0., 0., 0., 0., 0., 0., 0., 0., 0., 0., 0., 0., 0., 0., 0., 0.,
          0., 0., 0., 0., 0., 0., 0., 0., 0., 0., 0., 0., 0., 0., 0., 0.,
          0., 0., 0., 0., 0., 0., 0., 0., 0., 0., 0., 0., 3.13309990e-02,
          3.53248157e-02, 2.55141348e-01, 2.55141348e-01, 2.44474187e-01,
          8.13119262e-02, 2.38706842e-02, 1.60220787e-02, 4.05815952e-02,
          1.08988963e-01, 8.47123861e-02, 6.78064153e-02, 3.57215591e-02,
          5.49297482e-02, 7.34275803e-02, 2.25113451e-01, 2.08883777e-01,
          1.48833141e-01, 6.46555871e-02, 9.99802724e-03, 1.17713474e-02,
          7.44608268e-02, 2.17498153e-01, 8.07836801e-02, 7.64068514e-02,
          5.84703162e-02, 4.04849015e-02, 6.09330349e-02, 2.55141348e-01,
          2.55141348e-01, 2.36605331e-01, 8.97742733e-02, 2.39893682e-02,
          3.16015147e-02, 9.47051048e-02, 2.00109378e-01, 8.88389423e-02,
          5.61603233e-02, 2.34431978e-02, 4.56556156e-02, 3.76838110e-02,
          1.81981742e-01, 1.89093336e-01, 2.55141348e-01, 2.55141348e-01,
          3.35310698e-02, 3.11003029e-02, 8.89592618e-02, 2.07981154e-01,
          1.83423564e-01, 1.30518630e-01, 7.10036159e-02, 1.39079064e-01,
          2.55659938e-01, 1.29899055e-01, 6.80447444e-02, 6.32716343e-02,
          7.99776334e-03, 1.04112085e-03, 6.21351926e-03, 9.67271253e-02,
          2.45779887e-01, 9.03550163e-02, 1.59378126e-02, 2.31998991e-02,
          1.00135475e-01, 1.10192940e-01, 9.05692577e-02, 1.17469870e-01,
          7.79181346e-02, 2.16518696e-02, 9.84402001e-03, 2.50602253e-02,
          2.28403479e-01, 3.00284863e-01, 2.66293377e-01, 2.51888353e-02,
          3.11685782e-02, 1.44829765e-01, 2.06634313e-01, 6.05129823e-02,
          9.57858376e-03, 1.27236499e-02, 2.46531367e-02, 1.18728034e-01,
          3.00284863e-01, 3.00284863e-01, 1.36707172e-01, 2.45999116e-02,
          1.32764811e-02, 4.29489389e-02, 4.60131839e-02, 6.80587664e-02,
          4.46339287e-02, 3.02870590e-02, 2.42330786e-02, 2.43043993e-02,
          3.75638455e-02, 2.38333657e-01, 3.00284863e-01, 3.00284863e-01,
          8.75564516e-02, 1.84609313e-02, 1.78914275e-02, 0., 0., 0., 0.,
          0., 0., 0., 0., 0., 0., 0., 0., 0., 0., 0., 0., 0., 0., 0., 0.,
          0., 0., 0., 0., 0., 0., 0., 0., 0., 0., 0., 0., 0., 0., 0., 0.,
