%YAML:1.0
---
opencv_ml_svm:
   format: 3
   svmType: C_SVC
   kernel:
      type: LINEAR
   C: 5.0000000000000000e-01
   term_criteria: { epsilon:1.1920928955078125e-07, iterations:1000 }
   var_count: 576
   class_count: 2
   class_labels: !!opencv-matrix
      rows: 2
      cols: 1
      dt: i
      data: [ 1, 2 ]
   sv_total: 1
   support_vectors:
      - [ 6.49323910e-02, -1.09539449e-01, -2.26103991e-01,
          2.44500823e-02, 7.20688477e-02, 1.40097803e-02,
          -1.07445911e-01, 9.25283208e-02, 1.50324881e-01,
          -7.82812461e-02, -4.81322743e-02, -6.17005192e-02,
          1.39955997e-01, -7.01429695e-02, 4.74275497e-04,
          -6.73125237e-02, 1.88913971e-01, 1.01357349e-03,
          1.29021525e-01, 6.35685539e-03, -2.01297149e-01,
          1.18214935e-01, 3.00116092e-01, 2.45528147e-01,
          -8.46145451e-02, 6.82661310e-02, 1.19676456e-01,
          2.69602519e-02, -1.29704222e-01, 6.74555674e-02,
          1.57921255e-01, -2.10696813e-02, 1.92784280e-01,
          -3.70609730e-01, 2.82097999e-02, 1.67694330e-01,
          -3.17710754e-03, 2.01785475e-01, -7.24509582e-02,
          9.90346447e-02, -2.85650808e-02, 1.25663936e-01,
          -6.37732670e-02, -1.00638367e-01, -1.86119750e-01,
          -2.27561638e-01, 9.50172096e-02, -4.94960919e-02,
          -1.05940245e-01, -2.31113844e-02, 1.37692198e-01,
          4.45091873e-02, -2.42918953e-02, -8.59652013e-02,
          1.95159927e-01, 4.39673930e-01, -3.79978381e-02,
          1.20752677e-01, 7.38005713e-02, 3.37149978e-01,
          -2.93059684e-02, 2.36988589e-01, -1.16188020e-01,
          -3.29873979e-01, -1.07428245e-01, -5.43187186e-02,
          -1.22761868e-01, -3.04186740e-03, 7.48393536e-02,
          1.25580356e-02, -1.27942413e-01, -2.45274305e-01,
          -1.04909964e-01, 1.54164284e-01, 1.84687823e-01,
          1.12235792e-01, 2.26579815e-01, 3.01755220e-01, 3.27360034e-02,
          -1.20724961e-01, -2.94276595e-01, 2.63515376e-02,
          1.72563851e-01, 9.21103358e-02, 3.12996805e-02, 5.86834587e-02,
          2.97920913e-01, -8.38141441e-02, -1.17953710e-01,
          -5.96077694e-03, -7.06022903e-02, 1.50979429e-01,
          3.48934904e-03, 1.68408766e-01, 9.27871764e-02, 3.02737117e-01,
          5.86630628e-02, -6.92804456e-02, -3.42364490e-01,
          1.94320586e-02, 1.47030829e-02, 1.37750626e-01, 2.82781512e-01,
          3.66848806e-04, 1.70545995e-01, -1.41228124e-01,
          -1.34606138e-01, -1.85648799e-01, -7.91083723e-02,
          -1.19751096e-01, -1.31129131e-01, -4.86850515e-02,
          1.52640536e-01, -1.68943275e-02, 1.05031200e-01,
          9.11642686e-02, -5.67603856e-02, 1.82116285e-01,
          3.21136229e-02, -7.56005794e-02, -1.32316560e-01,
          2.58576795e-02, 6.84851035e-02, 1.12660646e-01, 1.90180793e-01,
          1.88661337e-01, 2.11835340e-01, -3.07917923e-01,
          -4.06984627e-01, -5.09995632e-02, 2.39519045e-01,
          1.30673230e-01, -1.44655798e-02, -6.32479265e-02,
          3.03647555e-02, 3.67433935e-01, 3.06087229e-02,
          -8.53349939e-02, 2.67526414e-02, 1.70654848e-01,
          3.28852624e-01, 8.95232335e-02, 1.17191553e-01, 2.49129280e-01,
          2.11210221e-01, 6.88775033e-02, -2.20948413e-01,
          1.95272058e-01, 1.56912699e-01, 3.05494189e-01, 4.46255915e-02,
          8.54231045e-02, 1.25955850e-01, 4.21733297e-02, 3.47804248e-01,
          -7.06816986e-02, 4.60480243e-01, 2.51181602e-01,
          4.17065948e-01, -2.87644178e-01, 9.62214917e-02,
          2.39315659e-01, 2.36678675e-01, 9.59787145e-02,
          -1.55976698e-01, 1.04645789e-01, -1.75470799e-01,
          1.87729463e-01, -8.18334371e-02, 1.76533386e-01,
          2.32000038e-01, 1.63807541e-01, 3.96024793e-01,
          -6.57762066e-02, 2.54084766e-01, -3.35175842e-01,
          3.65752071e-01, -1.76584527e-01, 2.77586877e-01,
          4.34151351e-01, 2.28463501e-01, 3.85310531e-01,
          -2.78428495e-02, 3.29728246e-01, -1.15429245e-01,
          3.67077202e-01, -8.09365138e-02, 3.23060006e-01,
          2.79003054e-01, 2.51865238e-01, 2.44451407e-02,
          -4.33006287e-01, 9.70276371e-02, -8.82734079e-03,
          6.48310363e-01, -2.73744375e-01, 6.22078637e-03,
          1.70992941e-01, -2.56235361e-01, 2.77537294e-02,
          -2.12952271e-01, 2.70796210e-01, 7.72305131e-02,
          6.68193579e-01, 1.85942963e-01, 4.58607912e-01,
          -5.52479699e-02, -7.09667280e-02, -9.79586169e-02,
          -1.51274592e-01, 3.11879426e-01, 9.27973092e-02,
          6.48410678e-01, -9.55002829e-02, 1.70539901e-01,
          -2.38737743e-02, 2.67681390e-01, 1.40562415e-01,
          -1.76148683e-01, 3.35435867e-02, 2.24314451e-01,
          2.38605589e-01, -4.05475274e-02, 2.21032172e-01,
          2.44671330e-01, -2.87582427e-01, 2.75322139e-01,
          2.45714292e-01, 1.51433617e-01, 2.03915820e-01, 3.41893286e-01,
          6.85611814e-02, -3.84556991e-03, 4.42385785e-02,
          5.15710600e-02, 4.35026884e-01, -2.04693034e-01,
          -1.16369240e-01, -2.94472814e-01, 3.72928739e-01,
          1.31913662e-01, 3.08712125e-01, -2.72753894e-01,
          -3.20769614e-03, 3.96486312e-01, 6.95569627e-03,
          -8.07980895e-02, -3.98699701e-01, 3.25394690e-01,
          -5.26553839e-02, 1.64352939e-01, 4.80826758e-03,
          4.14377093e-01, 2.56271005e-01, -3.63894761e-01,
          2.34478384e-01, 1.83196354e-03, 5.23880601e-01,
          -3.38345438e-01, -3.45918268e-01, 2.39021093e-01,
          3.03972155e-01, 4.18646708e-02, -2.62394190e-01,
          2.66612381e-01, 3.08730423e-01, 3.47965837e-01, 3.44164260e-02,
          1.20707504e-01, 2.55334318e-01, 4.22798991e-01, 4.13325801e-02,
          -4.10162985e-01, 1.89573001e-02, -6.99540898e-02,
          -3.25489827e-02, -3.11071843e-01, -1.53241917e-01,
          1.85112268e-01, 2.57443845e-01, 8.64403844e-02,
          -2.10408151e-01, 1.10648029e-01, 1.77947208e-01,
          2.52047956e-01, -7.82201737e-02, 1.34608582e-01,
          1.34449944e-01, 1.68607593e-01, -1.84152111e-01,
          -2.35636950e-01, 1.88874304e-01, -1.27088606e-01,
          -8.81874934e-02, -2.41139561e-01, 1.05939664e-01,
          1.36170670e-01, -1.18131824e-01, 3.16600651e-01,
          1.18822321e-01, -2.05323860e-01, 4.20352906e-01,
          -5.68006337e-02, -3.73381525e-01, 1.77399796e-02,
          -5.52199930e-02, 3.95618230e-02, -1.45223111e-01,
          -1.39879659e-01, 3.59303415e-01, 1.15270004e-01,
          1.40199706e-01, -1.47638589e-01, 1.55128047e-01,
          1.57604232e-01, -1.16780169e-01, -4.02718671e-02,
          -4.38478857e-01, 5.02014935e-01, 2.35144109e-01,
          2.07549140e-01, -1.96455806e-01, 6.98663248e-03,
          5.29795997e-02, -7.45827109e-02, 3.91736738e-02,
          8.50053653e-02, -3.01178724e-01, -3.91151249e-01,
          4.92674299e-02, -2.02187330e-01, 1.69598535e-01,
          -1.41699731e-01, 6.20457195e-02, 7.65234530e-02,
          -2.40319520e-01, 4.66141477e-02, 2.14096159e-01,
          2.45042428e-01, -1.37607560e-01, 9.78739783e-02,
          -7.21501037e-02, 1.20835222e-01, 1.75101355e-01,
          1.30634621e-01, 2.51487285e-01, -1.08719371e-01,
          3.10402364e-01, -1.29793346e-01, 4.38838378e-02,
          5.23617864e-03, 2.86563069e-01, -7.47946203e-02,
          -5.07515110e-02, 4.02907163e-01, 1.33410208e-02,
          1.63371801e-01, -7.41505530e-03, 3.91234994e-01,
          9.71036553e-02, 1.81215629e-01, 1.97356611e-01, 1.62241131e-01,
          5.93377709e-01, -3.52150232e-01, 3.65859032e-01,
          -1.29525304e-01, -8.17867965e-02, 3.03973164e-02,
          1.67293608e-01, 7.02531412e-02, -2.62050088e-02,
          6.93871617e-01, -6.39775917e-02, 4.07604486e-01,
          -2.68654644e-01, -3.10795784e-01, 2.97709350e-02,
          6.32339045e-02, -5.34585714e-02, 5.95888682e-02,
          1.96346343e-01, -2.23041493e-02, 4.34247553e-01,
          -2.98790425e-01, 1.50921289e-03, -8.51876736e-02,
          3.33281815e-01, 2.50327289e-01, -2.43862048e-01,
          2.54537523e-01, -7.40433410e-02, 2.41424218e-01,
          -4.36938137e-01, -1.97753668e-01, 1.76711619e-01,
          -8.17624405e-02, -2.46581554e-01, -7.00536132e-01,
          2.32900560e-01, 2.15985477e-01, -5.75044453e-02,
          -6.82018399e-01, -9.13938731e-02, 2.98627522e-02,
          1.60071954e-01, -1.17279820e-01, -6.28331304e-01,
          8.83723199e-02, 3.46218526e-01, 3.36359292e-01,
          -2.30350137e-01, 6.59853891e-02, 2.63562113e-01,
          3.51672679e-01, 1.12396911e-01, -1.99742049e-01,
          3.44148397e-01, 1.19118065e-01, 1.37100279e-01,
          -4.77751702e-01, -1.07169062e-01, 2.54599601e-01,
          3.23199928e-01, 9.01688710e-02, -5.38706124e-01,
          2.41955500e-02, 1.97538882e-01, 4.72763143e-02,
          -1.72398269e-01, 2.93709040e-01, 2.49461427e-01,
          4.18184102e-02, -2.32755810e-01, -2.59708911e-01,
          4.25219923e-01, -5.43772042e-01, 3.37539762e-01,
          -1.41975597e-01, -1.28931077e-02, 3.46425362e-02,
          2.24991925e-02, -2.52367765e-01, -8.19374323e-02,
          2.33251125e-01, -2.99736895e-02, 1.12879954e-01,
          -5.26409373e-02, 1.92593068e-01, -4.83273938e-02,
          -6.30448014e-02, -8.81673247e-02, -1.39148340e-01,
          -1.69295203e-02, -1.36927232e-01, -3.96881998e-02,
          -2.38348581e-02, -1.63675118e-02, -8.23681727e-02,
          -1.81817953e-02, 1.50655163e-02, 1.44322813e-02,
          7.26496056e-02, -2.41942227e-01, -4.69338149e-02,
          -2.91588064e-02, 1.74995475e-02, -9.73451287e-02,
          1.07470602e-01, -2.53645957e-01, -2.93068677e-01,
          4.09019440e-01, 3.48785490e-01, 1.94369465e-01,
          -5.44594228e-01, -2.67348345e-02, 1.85092002e-01,
          3.11469436e-01, -2.63656318e-01, -2.92427301e-01,
          2.83010125e-01, 3.19310546e-01, 2.96080798e-01,
          -4.80422169e-01, 7.38580599e-02, 2.16509506e-01,
          5.54547794e-02, -6.93615898e-02, -2.34281734e-01,
          6.45273849e-02, -8.23982134e-02, 2.01534433e-03,
          -1.51393801e-01, 7.12103993e-02, 1.17332354e-01,
          -1.07268402e-02, -1.50946841e-01, -1.48709357e-01,
          2.26426661e-01, -4.09833677e-02, 1.32973902e-02,
          -1.74166054e-01, 1.22739568e-01, 9.81205627e-02,
          7.83181116e-02, -3.28287035e-02, -4.43623990e-01,
          -3.23422067e-02, 4.85454779e-03, -1.19948803e-04,
          -9.80777293e-02, 7.01515526e-02, -5.88353304e-03,
          1.16021484e-01, 2.38496497e-01, -4.42532897e-02,
          -7.10063800e-02, -2.39611436e-02, -1.11655453e-02,
          -1.14249766e-01, -1.93384916e-01, 9.66606662e-02,
          1.44829005e-01, 1.23619922e-01, -1.33040845e-01,
          1.82982549e-01, -9.30646658e-02, -7.63515010e-02,
          1.73439711e-01, 1.74300060e-01, 8.17243755e-02, 2.86696792e-01,
          1.91664621e-01, 7.42611736e-02, 2.10483357e-01,
          -2.83687422e-03, 1.76908225e-01, -1.73222013e-02,
          -2.72188429e-02, 1.67081237e-01, 5.31656407e-02,
          -2.36622170e-01, -3.62700373e-02, 3.84094179e-01,
          -1.45934656e-01, 8.74329358e-02, -1.33630961e-01,
          1.20786302e-01, 2.37777278e-01, 9.70563591e-02,
          -1.46194786e-01, -5.11547863e-01, -1.56107649e-01,
          5.79681769e-02, -1.38669565e-01, 2.54085839e-01,
          2.70472854e-01, 5.04680946e-02, -1.12991013e-01,
          -1.87463194e-01, -9.23148245e-02, 1.55680850e-01,
          5.47215082e-02, -1.71520621e-01, -6.61063939e-02,
          1.34055838e-01, -4.29355763e-02, -5.08764014e-03,
          2.49999785e-03, -4.70415838e-02, 2.12384924e-01,
          2.30639651e-01, 1.15117274e-01, 4.72589105e-01, 2.86211222e-01,
          1.09367082e-02 ]
   uncompressed_sv_total: 126
   uncompressed_support_vectors:
      - [ 1.59732923e-02, 9.44656730e-02, 1.71992570e-01, 9.80320852e-03,
          3.29581695e-03, 1.11099044e-02, 6.29147887e-02, 3.32677811e-02,
          1.48413396e-02, 2.99394965e-01, 4.25303668e-01, 4.25303668e-01,
          4.68993038e-02, 2.20584199e-02, 5.00733890e-02, 1.14489563e-01,
          7.46628344e-02, 8.68202597e-02, 3.28770168e-02, 1.31598398e-01,
          1.82154134e-01, 5.03222980e-02, 2.66671684e-02, 3.29967998e-02,
          5.88819310e-02, 2.98498999e-02, 1.83849595e-02, 9.60012302e-02,
          4.25303668e-01, 4.25303668e-01, 1.30959764e-01, 6.79179505e-02,
          5.99811450e-02, 8.94654617e-02, 5.21557182e-02, 3.13449427e-02,
          3.61138672e-01, 3.72094251e-02, 1.76286269e-02, 7.19824284e-02,
          8.36030543e-02, 1.40328333e-02, 2.39518471e-02, 1.54266730e-01,
          3.61138672e-01, 2.30687097e-01, 4.25998680e-02, 4.60355282e-02,
          1.45771578e-01, 5.59784286e-02, 1.68580618e-02, 6.93763345e-02,
          3.61138672e-01, 3.61138672e-01, 4.96535450e-02, 2.52478737e-02,
          7.13242888e-02, 7.18980730e-02, 1.72942922e-01, 4.32825610e-02,
          4.99930233e-02, 7.43138939e-02, 1.01398736e-01, 2.68384907e-02,
          3.07079200e-02, 8.67477879e-02, 1.42106265e-01, 8.48922059e-02,
          3.54897231e-02, 1.29008710e-01, 3.61138672e-01, 3.18249345e-01,
          6.67463392e-02, 7.43017495e-02, 1.04305916e-01, 6.52549937e-02,
          5.70840426e-02, 2.07257569e-02, 1.85241237e-01, 3.35140765e-01,
          2.64648736e-01, 1.58930197e-02, 9.79604479e-03, 1.64311565e-02,
          2.48239953e-02, 1.83798037e-02, 5.98197710e-03, 2.88174152e-02,
          5.42956032e-02, 3.82387415e-02, 1.25564501e-01, 1.15633078e-01,
          1.79090112e-01, 1.73480496e-01, 1.60216153e-01, 8.28308538e-02,
          2.77364850e-01, 4.40596640e-01, 4.40596640e-01, 9.63758081e-02,
          2.94893552e-02, 6.59935474e-02, 6.04144447e-02, 5.36372028e-02,
          2.85660271e-02, 1.53796420e-01, 2.76913017e-01, 1.79072767e-01,
          0., 0., 0., 0., 0., 0., 0., 0., 0., 0., 0., 0., 0., 0., 0., 0.,
          0., 0., 0., 0., 0., 0., 0., 0., 0., 0., 0., 0., 0., 0., 0., 0.,
          0., 0., 0., 0., 3.72674391e-02, 1.29953474e-01, 2.31626004e-01,
          4.43542935e-02, 4.24811170e-02, 1.07393330e-02, 3.09457779e-02,
          2.63185091e-02, 3.78340594e-02, 5.24063557e-02, 4.22764510e-01,
          4.22764510e-01, 7.90862367e-02, 5.33676893e-02, 3.14325690e-02,
          7.00953081e-02, 4.91633341e-02, 4.52806987e-02, 3.54304425e-02,
          1.90671563e-01, 3.32788378e-01, 4.07363735e-02, 3.26303355e-02,
          9.77654755e-03, 4.77591231e-02, 3.21280845e-02, 3.14881504e-02,
          3.97253968e-02, 4.22764510e-01, 4.22764510e-01, 6.53543025e-02,
          4.42047454e-02, 2.88761128e-02, 1.03156887e-01, 5.83161451e-02,
          3.97535563e-02, 7.91857839e-02, 1.26799375e-01, 2.05496714e-01,
          1.00957334e-01, 8.41376632e-02, 1.28672794e-01, 2.08449066e-01,
          1.43390775e-01, 1.55888811e-01, 1.23587810e-01, 1.20310187e-01,
          2.33690292e-01, 2.33690292e-01, 1.62616223e-01, 1.83000475e-01,
          2.33690292e-01, 2.33690292e-01, 2.33690292e-01, 1.35594785e-01,
          1.43979147e-01, 1.83028981e-01, 9.72271562e-02, 9.71253142e-02,
          1.15903951e-01, 1.24813505e-01, 1.22850724e-01, 1.76070109e-01,
          1.49232090e-01, 1.33863688e-01, 2.33690292e-01, 1.43327966e-01,
          8.88123140e-02, 1.01906918e-01, 1.96881577e-01, 2.33690292e-01,
          2.33690292e-01, 1.94183607e-02, 3.09364107e-02, 5.88995181e-02,
          2.10507270e-02, 1.01009421e-02, 1.59982853e-02, 1.73552811e-01,
          4.75412220e-01, 1.05715945e-01, 7.48877227e-02, 4.26765159e-02,
          7.82494619e-02, 5.54050989e-02, 5.50179631e-02, 6.87762648e-02,
          2.44443730e-01, 4.75412220e-01, 2.00042471e-01, 1.99963395e-02,
          1.52050918e-02, 1.97128970e-02, 4.87228483e-03, 5.80614060e-03,
          1.16143329e-02, 1.28623173e-01, 2.86085278e-01, 5.24806231e-02,
          3.86722535e-02, 2.05578674e-02, 1.81534607e-02, 1.12828352e-02,
          2.41021961e-02, 2.23976038e-02, 1.51352376e-01, 4.75412220e-01,
          1.32027924e-01, 1.90003775e-02, 7.45170237e-03, 0., 0., 0.,
          2.28276639e-03, 1.24648362e-01, 5.22282049e-02, 1.77579448e-02,
          0., 0., 0., 0., 0., 0., 0., 0., 0., 4.50707555e-01,
          2.16817111e-01, 4.95161153e-02, 2.13101692e-03, 3.06078903e-02,
          2.57071882e-01, 5.71574867e-01, 3.56266648e-01, 4.48013097e-01,
          1.83835272e-02, 0., 0., 0., 0., 0., 8.26059375e-03,
          1.47661231e-02, 2.64697876e-02, 4.99025062e-02, 1.28640592e-01,
          2.77829409e-01, 1.33541435e-01, 4.92749214e-02, 4.47512977e-02,
          6.57571778e-02, 3.94548997e-02, 5.41874655e-02, 9.13056582e-02,
          2.61936694e-01, 3.92210066e-01, 3.92210066e-01, 7.11749718e-02,
          6.86951429e-02, 1.21140696e-01, 9.39345807e-02, 8.94796848e-02,
          1.22427382e-02, 8.81452560e-02, 1.82014108e-01, 4.96236719e-02,
          2.79486086e-02, 3.65292355e-02, 7.92669281e-02, 3.33744660e-02,
          1.76824015e-02, 5.82199991e-02, 2.05628425e-01, 3.92210066e-01,
          3.92210066e-01, 7.95510188e-02, 7.64591768e-02, 1.32848218e-01,
          7.22237453e-02, 3.42314951e-02, 4.14194129e-02, 1.01284198e-01,
          2.38211662e-01, 2.38211662e-01, 1.28362998e-01, 1.44509792e-01,
          2.38211662e-01, 1.93733826e-01, 6.34582117e-02, 6.99142441e-02,
          1.85933664e-01, 2.38211662e-01, 1.33478448e-01, 1.13619506e-01,
          1.10938281e-01, 2.38211662e-01, 2.38211662e-01, 1.06533602e-01,
          8.47636908e-02, 1.02990307e-01, 2.34231919e-01, 2.38211662e-01,
          1.37531996e-01, 8.04462880e-02, 1.25091210e-01, 2.38211662e-01,
          1.10445194e-01, 1.44000590e-01, 1.66532472e-01, 2.38211662e-01,
          2.38211662e-01, 1.16236851e-01, 5.61318360e-02, 7.45484158e-02,
          1.41493544e-01, 1.69816032e-01, 8.58753920e-02, 8.68761614e-02,
          8.81228894e-02, 4.23036590e-02, 3.04977261e-02, 3.00024170e-02,
          1.55440852e-01, 1.04222104e-01, 7.94222951e-02, 1.97384402e-01,
          4.01999839e-02, 2.64975764e-02, 2.82449294e-02, 3.09624448e-02,
          2.52868515e-02, 4.31212746e-02, 9.98162180e-02, 1.85053617e-01,
          3.36972147e-01, 3.36972147e-01, 1.10033408e-01, 8.16131830e-02,
          7.13749155e-02, 9.83342752e-02, 2.03173503e-01, 1.01414852e-01,
          2.09390387e-01, 3.36972147e-01, 2.01960266e-01, 6.20192625e-02,
          5.73712960e-02, 2.98976839e-01, 3.36972147e-01, 5.48091866e-02,
          4.73551787e-02, 3.36972147e-01, 1.05854057e-01, 4.05513644e-02,
          5.62148541e-02, 5.18921055e-02, 1.34010047e-01, 3.12996268e-01,
          1.70276940e-01, 3.12996268e-01, 3.12996268e-01, 5.60285747e-02,
          2.03428045e-02, 2.19558738e-02, 1.68640781e-02, 5.38330339e-02,
          1.28825143e-01, 1.13551885e-01, 1.88012198e-01, 1.29796967e-01,
          3.04245297e-02, 2.71874629e-02, 5.68386428e-02, 8.68152007e-02,
          3.12996268e-01, 3.12996268e-01, 2.32510895e-01, 3.12996268e-01,
          3.05893749e-01, 1.32171335e-02, 1.13949850e-02, 1.48606263e-02,
          9.48699750e-03, 8.20827186e-02, 2.01576173e-01, 1.34988204e-01,
          1.46554276e-01, 8.22402462e-02, 7.33176566e-05, 1.48489140e-02,
          4.48020883e-02, 4.02165391e-03, 3.13908271e-02, 0., 0., 0., 0.,
          1.57575265e-01, 4.23250109e-01, 4.23250109e-01, 1.08045310e-01,
          3.98756385e-01, 6.47128597e-02, 5.71428351e-02, 5.81769645e-03,
          9.28332508e-02, 0., 4.89812484e-03, 1.46943750e-02, 0., 0., 0.,
          0., 0., 0., 8.11075419e-02, 3.35400313e-01, 4.23250109e-01,
          1.17305651e-01, 3.20421040e-01, 7.02033862e-02, 1.00071542e-02,
          0., 5.22949323e-02, 5.50052226e-02, 6.06401190e-02,
          2.90669769e-01, 2.90669769e-01, 5.52313663e-02, 3.04829516e-02,
          3.74724492e-02, 1.18528672e-01, 9.60067883e-02, 9.13290307e-02,
          2.80701071e-01, 7.45179951e-02, 4.83547598e-02, 3.72881256e-02,
          2.58790821e-01, 1.31071389e-01, 6.76809326e-02, 5.70254996e-02,
          9.96736884e-02, 1.06612720e-01, 2.90669769e-01, 2.90669769e-01,
          2.90669769e-01, 1.39451072e-01, 3.00632901e-02, 7.33298957e-02,
          1.03636444e-01, 1.16355285e-01, 1.77336276e-01, 7.51842037e-02,
          1.68193460e-01, 2.90669769e-01, 2.90669769e-01, 1.97708428e-01,
          5.55822439e-02, 5.51690832e-02, 5.87207340e-02, 1.66707590e-01,
          1.49129435e-01, 2.18932599e-01, 3.53523135e-01, 3.53523135e-01,
          2.70278245e-01, 2.79913247e-01, 1.27218634e-01, 1.77298188e-02,
          3.02372295e-02, 4.02458198e-02, 1.07885100e-01, 3.20273012e-01,
          3.53523135e-01, 1.72695830e-01, 1.89857036e-01, 6.76998720e-02,
          1.28894169e-02, 5.33987097e-02, 9.93663669e-02, 9.02464539e-02,
          2.38924682e-01, 1.47398070e-01, 1.73101977e-01, 1.08315609e-01,
          3.07585709e-02, 2.93716858e-03, 3.36247752e-03, 4.81166085e-03,
          2.22219452e-02, 6.89404905e-02, 4.15279232e-02, 1.01931311e-01,
          7.01954514e-02, 1.40972836e-02, 1.71141222e-01, 1.97376497e-02,
          2.24454161e-02, 1.37170941e-01, 8.00920904e-01, 2.73214251e-01,
          3.45555633e-01, 2.16127306e-01, 2.41123959e-01, 0., 0.,
          1.81305653e-03, 1.27191423e-02, 4.47434261e-02, 0.,
          2.03570034e-02, 6.78566750e-03, 0., 0., 0., 0., 0., 0., 0., 0.,
          0., 0., 0., 0., 0., 0., 0., 0., 0., 0., 0. ]
      - [ 3.09325039e-01, 2.00191155e-01, 1.15704410e-01, 2.29491666e-02,
          3.15751806e-02, 2.57612374e-02, 2.74547394e-02, 3.94750126e-02,
          6.94660172e-02, 3.70799690e-01, 1.34788960e-01, 3.93258631e-02,
          1.16363056e-02, 1.78601723e-02, 1.72861591e-02, 4.74967249e-02,
          6.39413968e-02, 2.45615959e-01, 3.70799690e-01, 3.70799690e-01,
          1.15508899e-01, 3.70903537e-02, 2.91574858e-02, 3.79349180e-02,
          4.94277626e-02, 5.01917489e-02, 7.77104646e-02, 3.70799690e-01,
          3.26256305e-01, 2.17318777e-02, 8.45722761e-03, 7.17069581e-03,
          1.91672798e-02, 2.48114634e-02, 2.70335916e-02, 2.52893150e-01,
          3.44234675e-01, 7.97068104e-02, 3.21049727e-02, 1.44708054e-02,
          7.08245337e-02, 1.66348033e-02, 2.60186829e-02, 3.24949138e-02,
          3.44234675e-01, 3.44234675e-01, 6.80599138e-02, 2.95660477e-02,
          7.80506944e-03, 5.40588871e-02, 1.68418773e-02, 2.74311379e-02,
          4.07029316e-02, 3.44234675e-01, 3.44234675e-01, 7.54940137e-02,
          7.06419423e-02, 3.75393666e-02, 2.04872321e-02, 3.48541997e-02,
          8.68346840e-02, 4.17137444e-02, 3.15404862e-01, 3.44234675e-01,
          6.57349452e-02, 9.47660133e-02, 4.35461700e-02, 1.83656719e-02,
          2.29838882e-02, 4.48536873e-02, 2.65923664e-02, 3.44234675e-01,
          2.07513377e-01, 3.24004620e-01, 8.88247192e-02, 5.97005673e-02,
          4.20139767e-02, 3.38765085e-02, 5.61509803e-02, 1.11224324e-01,
          3.12052965e-01, 3.09013635e-01, 3.24004620e-01, 1.13076501e-01,
          3.44121866e-02, 3.56021039e-02, 2.96125226e-02, 3.95628810e-02,
          4.40152846e-02, 7.15287626e-02, 2.45622724e-01, 3.24004620e-01,
          7.95776993e-02, 7.58912191e-02, 2.32419707e-02, 2.26940457e-02,
          2.84731947e-02, 1.88261375e-01, 3.24004620e-01, 2.06391692e-01,
          3.24004620e-01, 1.00020364e-01, 8.41317400e-02, 2.59776153e-02,
          1.74818169e-02, 2.04544254e-02, 5.80382533e-02, 8.44814107e-02,
          1.02652580e-01, 1.00791715e-02, 1.98000111e-02, 1.08004250e-01,
          1.44681886e-01, 7.94904865e-03, 5.40385908e-03, 2.81812493e-02,
          2.38665134e-01, 3.57849486e-02, 2.07576854e-03, 3.82449944e-03,
          6.45777360e-02, 1.61335111e-01, 3.74549143e-02, 4.21126276e-01,
          4.21126276e-01, 2.07680717e-01, 3.95227112e-02, 6.42461376e-03,
          6.86688069e-03, 5.94990477e-02, 1.15061074e-01, 1.97180249e-02,
          1.28200166e-02, 2.66923811e-02, 1.76058069e-01, 3.00239865e-02,
          1.60932809e-03, 2.13399087e-03, 5.83475977e-02, 1.34596720e-01,
          3.51759382e-02, 4.21126276e-01, 4.21126276e-01, 1.85838237e-01,
          1.30160544e-02, 4.19887543e-01, 4.19887543e-01, 1.65201575e-02,
          0., 0., 0., 0., 6.08700466e-05, 1.80689488e-02, 2.30627775e-01,
          2.96261489e-01, 1.68339331e-02, 9.29197588e-04, 3.79456149e-04,
          1.03532756e-03, 2.21535238e-03, 1.15063600e-02, 5.97954670e-04,
          3.49812329e-01, 4.19887543e-01, 1.20153554e-01, 2.41239415e-03,
          2.77463172e-04, 0., 0., 0., 7.71563151e-04, 6.63940385e-02,
          4.19887543e-01, 8.44585076e-02, 7.83580821e-03, 3.77733749e-03,
          1.20814505e-03, 5.80673863e-04, 6.97088544e-04, 1.47829294e-01,
          5.29774725e-02, 3.16367671e-02, 3.33562456e-02, 1.22364171e-01,
          9.10503939e-02, 5.66745810e-02, 1.74286455e-01, 2.57178038e-01,
          2.57178038e-01, 1.33872598e-01, 8.93051997e-02, 7.86371306e-02,
          1.42727494e-01, 1.07858717e-01, 8.75188559e-02, 1.32445052e-01,
          2.57178038e-01, 5.73516153e-02, 8.17216709e-02, 2.47378424e-01,
          1.57637253e-01, 2.31593564e-01, 2.37735182e-01, 2.57178038e-01,
          1.17442280e-01, 8.02983493e-02, 1.00215316e-01, 1.62031889e-01,
          2.57178038e-01, 2.47958407e-01, 2.10316569e-01, 1.65185168e-01,
          2.57178038e-01, 1.26269221e-01, 1.26585573e-01, 3.90006080e-02,
          2.59533614e-01, 2.83260912e-01, 7.45977163e-02, 1.10471426e-02,
          3.44534889e-02, 2.83260912e-01, 2.61403710e-01, 3.24283168e-02,
          4.74213287e-02, 1.13908947e-01, 2.83260912e-01, 9.97332409e-02,
          1.12030292e-02, 3.46743241e-02, 1.96938321e-01, 2.83260912e-01,
          5.16175032e-02, 7.64371976e-02, 2.83260912e-01, 2.83260912e-01,
          3.68021540e-02, 2.03200243e-02, 1.11169688e-01, 2.83260912e-01,
          1.19211040e-01, 1.62699260e-02, 6.59211800e-02, 2.05367535e-01,
          2.83260912e-01, 3.52466702e-02, 1.88604873e-02, 1.05210289e-01,
          1.83427587e-01, 1.19073570e-01, 2.70933360e-02, 6.52401848e-03,
          7.63412239e-03, 1.41784064e-02, 5.49162319e-03, 8.67843255e-03,
          2.04677284e-02, 2.56761685e-02, 2.12706737e-02, 1.01031419e-02,
          8.85278080e-03, 1.98253524e-03, 8.61390494e-04, 2.04528493e-04,
          7.26423133e-03, 2.80463025e-02, 4.97026026e-01, 4.97026026e-01,
          2.66741831e-02, 3.80018493e-03, 6.04268769e-03, 1.26435133e-02,
          3.72309284e-03, 1.11377528e-02, 2.08556186e-02, 2.60703396e-02,
          9.56329983e-03, 5.22214919e-03, 9.19032563e-03, 1.77166972e-03,
          1.62349688e-03, 2.79548462e-04, 1.28503405e-02, 3.21478397e-02,
          4.97026026e-01, 4.97026026e-01, 1.87487490e-02, 4.17230539e-02,
          4.93527688e-02, 2.30003700e-01, 3.93235326e-01, 3.93235326e-01,
          4.83122021e-02, 4.19402532e-02, 4.02548499e-02, 1.93167031e-02,
          1.66397169e-02, 8.44451785e-03, 4.75004949e-02, 3.93235326e-01,
          3.93235326e-01, 2.45361235e-02, 1.90805234e-02, 9.43272747e-03,
          1.76049564e-02, 1.15541862e-02, 2.17853133e-02, 7.11210147e-02,
          1.50389820e-01, 2.21245646e-01, 1.88048221e-02, 1.02576837e-02,
          8.86891317e-03, 6.68445788e-03, 3.73192467e-02, 1.27066895e-02,
          4.74458039e-02, 2.64996558e-01, 3.93235326e-01, 3.20058204e-02,
          2.58378927e-02, 1.17898015e-02, 4.57416624e-02, 2.04074904e-02,
          2.52550617e-02, 7.24024400e-02, 2.48339325e-01, 3.51402551e-01,
          1.73363596e-01, 1.24177299e-02, 1.05596492e-02, 1.10090915e-02,
          2.55370140e-02, 2.93578468e-02, 5.28739691e-02, 1.04513921e-01,
          3.51402551e-01, 3.51402551e-01, 2.19821446e-02, 1.43117532e-02,
          1.29457358e-02, 4.77362014e-02, 3.43090147e-02, 9.62010100e-02,
          2.25608185e-01, 3.51402551e-01, 2.10753679e-01, 3.86792049e-02,
          1.83816105e-02, 2.98728831e-02, 6.13948181e-02, 5.15006036e-02,
          8.42199251e-02, 1.06074609e-01, 3.51402551e-01, 3.51402551e-01,
          5.58529347e-02, 2.73549054e-02, 4.12306041e-02, 3.03385586e-01,
          3.03385586e-01, 3.03385586e-01, 1.09527320e-01, 1.66268408e-01,
          1.79864019e-01, 7.22523108e-02, 6.10455349e-02, 8.79643038e-02,
          1.82111442e-01, 3.03385586e-01, 7.90462941e-02, 5.86112700e-02,
          6.11626506e-02, 4.56448980e-02, 1.95173323e-02, 4.70488239e-03,
          1.15007646e-02, 2.40260452e-01, 2.95361936e-01, 3.03385586e-01,
          3.03385586e-01, 1.57446936e-01, 5.21047749e-02, 4.06741127e-02,
          9.44681838e-02, 1.91167668e-01, 1.21516228e-01, 9.68101025e-02,
          4.51036543e-02, 1.60765722e-01, 1.51755288e-01, 2.52996106e-02,
          1.24649201e-02, 2.78735701e-02, 1.03025340e-01, 3.43481312e-03,
          4.09688661e-03, 1.02733020e-02, 1.44249853e-02, 1.79564282e-02,
          2.04318184e-02, 2.60687992e-02, 1.21985199e-02, 1.13711320e-02,
          1.88620877e-03, 8.70491844e-04, 5.05893817e-03, 5.25036454e-03,
          1.05040343e-02, 2.69348100e-02, 4.96752173e-01, 4.96752173e-01,
          7.55930459e-03, 2.84459698e-03, 3.70769016e-03, 1.02956584e-02,
          1.82434153e-02, 2.39518154e-02, 3.22628580e-02, 2.80879997e-02,
          7.91779626e-03, 7.23854033e-03, 8.54967861e-04, 7.74187618e-04,
          2.90177204e-03, 3.07697081e-03, 1.32504031e-02, 4.25806418e-02,
          4.96752173e-01, 4.96752173e-01, 3.21661937e-03, 0., 0., 0., 0.,
          0., 0., 0., 0., 0., 0., 0., 0., 0., 0., 0., 0., 0., 0., 0., 0.,
          0., 0., 0., 0., 0., 0., 0., 0., 0., 0., 0., 0., 0., 0., 0., 0.,
          0., 0., 0., 0., 0., 0., 0., 0., 0., 0., 3.01536411e-01,
          9.34670806e-01, 3.00546624e-02, 0., 0., 0., 0., 0., 0., 0., 0.,
          0., 0., 0., 0., 0., 0., 0., 1.98104791e-03, 5.94314374e-03, 0.,
          0., 0., 0., 0., 0., 4.26003225e-02, 5.86167648e-02,
          2.95720756e-01, 4.13782805e-01, 1.92717746e-01, 4.18588147e-02,
          3.07242405e-02, 3.42106000e-02, 4.36414145e-02, 4.63935584e-02,
          5.21191359e-02, 2.85607427e-01, 4.13782805e-01, 2.75836527e-01,
          7.06741065e-02, 5.15898578e-02, 5.97453453e-02, 6.01142123e-02,
          8.01364705e-03, 2.55148616e-02, 8.54197443e-02, 9.91521403e-02,
          1.27418101e-01, 1.05054919e-02, 6.35296246e-03, 6.37942040e-03,
          1.03487624e-02, 4.67074029e-02, 6.45913407e-02, 1.50385574e-01,
          4.13782805e-01, 3.04378808e-01, 9.03954282e-02, 3.71742100e-02,
          3.91131565e-02, 4.65161763e-02, 1.11786038e-01, 1.33952620e-02,
          1.18812565e-02, 6.40750304e-02, 1.75411329e-01, 8.81188363e-02,
          2.16155369e-02, 1.34113282e-02, 1.01603970e-01, 7.07181022e-02,
          1.07480213e-02, 7.19830114e-03, 1.58970244e-02, 1.39202312e-01,
          1.12061322e-01, 3.34410101e-01, 3.21079999e-01, 1.08931512e-01,
          8.55406299e-02, 3.27909812e-02, 1.96924493e-01, 3.34410101e-01,
          3.34410101e-01, 9.87097323e-02, 3.42030153e-02, 1.81938130e-02,
          5.06537370e-02, 1.04984887e-01, 3.04278135e-02, 1.34551656e-02,
          3.40369456e-02, 3.34410101e-01, 1.89612195e-01, 3.34410101e-01,
          3.24022412e-01, 5.96157312e-02 ]
      - [ 0., 0., 0., 0., 0., 0., 0., 0., 0., 5.69192506e-02,
          5.78561351e-02, 9.98874307e-02, 0., 7.99064487e-02, 0., 0., 0.,
          4.68930863e-02, 0., 0., 0., 0., 0., 0., 0., 0., 0.,
          3.47762436e-01, 6.38740838e-01, 6.38740838e-01, 1.20933279e-01,
          4.18557599e-02, 0., 0., 0., 1.23202875e-01, 2.97995627e-01,
          2.18761906e-01, 4.38279510e-02, 3.38466391e-02, 3.41305099e-02,
          1.15515403e-02, 2.07521245e-02, 3.28071527e-02, 1.35693058e-01,
          2.97995627e-01, 1.54817924e-01, 3.69061790e-02, 6.28017411e-02,
          8.51055831e-02, 3.91040258e-02, 3.31233069e-02, 6.47921562e-02,
          2.93658882e-01, 2.97995627e-01, 2.97995627e-01, 8.92939121e-02,
          5.13630845e-02, 1.31521583e-01, 1.63029522e-01, 6.22720756e-02,
          3.88954468e-02, 1.27052382e-01, 2.97995627e-01, 2.01964989e-01,
          1.09272689e-01, 1.00629084e-01, 1.24607950e-01, 1.62982836e-01,
          1.94632307e-01, 2.08914742e-01, 2.97995627e-01, 1.51690543e-01,
          1.20030813e-01, 1.31094530e-01, 1.91633493e-01, 2.23014399e-01,
          1.51601970e-01, 6.13987260e-02, 8.13081041e-02, 2.04974622e-01,
          1.53635189e-01, 6.10690005e-02, 5.05841151e-02, 6.89797997e-02,
          1.66566595e-01, 1.97840497e-01, 1.62858114e-01, 1.78290308e-01,
          1.98066801e-01, 1.97203144e-01, 2.23014399e-01, 1.92607269e-01,
          1.76644504e-01, 2.23014399e-01, 1.65875211e-01, 8.43981206e-02,
          1.25236511e-01, 2.23014399e-01, 2.10506216e-01, 1.74810380e-01,
          1.14648417e-01, 1.15415752e-01, 1.47098899e-01, 1.21510647e-01,
          1.95770130e-01, 2.23014399e-01, 2.23014399e-01, 0., 0., 0., 0.,
          0., 5.10813445e-02, 6.44566000e-01, 3.55320960e-01,
          5.18868957e-03, 0., 0., 0., 0., 0., 0., 0., 0., 0., 0., 0., 0.,
          0., 0., 7.62478113e-02, 6.28969848e-01, 2.18617186e-01, 0., 0.,
          0., 0., 0., 0., 0., 0., 0., 0., 0., 0., 0., 0., 0., 0., 0., 0.,
          0., 3.30583081e-02, 4.65746343e-01, 5.19511580e-01,
          3.51718754e-01, 9.78272930e-02, 2.53691524e-02, 1.16576198e-02,
          8.14737752e-03, 1.50961922e-02, 0., 0., 0., 0., 0., 0., 0., 0.,
          0., 3.66058871e-02, 2.29100943e-01, 5.19511580e-01,
          2.11264104e-01, 3.79110910e-02, 7.06694881e-03, 0.,
          1.59430839e-02, 4.96321358e-02, 1.63217410e-01, 1.63861871e-01,
          5.73211238e-02, 1.31943658e-01, 1.62720218e-01, 2.62586176e-01,
          8.67232531e-02, 6.69535547e-02, 2.23068520e-01, 1.22682720e-01,
          6.45829812e-02, 2.00222414e-02, 2.14703754e-02, 1.85720667e-01,
          2.72132337e-01, 1.09437265e-01, 9.74290371e-02, 2.14946941e-01,
          8.81745070e-02, 4.52273488e-02, 7.63354525e-02, 2.72132337e-01,
          2.72132337e-01, 1.55897260e-01, 7.33632371e-02, 9.66605544e-02,
          2.72132337e-01, 1.69587329e-01, 8.24250728e-02, 6.18173480e-02,
          1.09398104e-01, 2.72132337e-01, 2.72132337e-01, 4.80893664e-02,
          1.30118564e-01, 2.72132337e-01, 2.25015670e-01, 2.11607069e-01,
          1.94653586e-01, 1.04209967e-01, 3.34191993e-02, 3.65830623e-02,
          6.13209866e-02, 1.05887905e-01, 1.27513960e-01, 1.48482963e-01,
          9.06657726e-02, 1.34713948e-01, 2.25015670e-01, 9.35952067e-02,
          6.36129081e-02, 1.84130639e-01, 2.25015670e-01, 2.12431341e-01,
          1.82581112e-01, 1.37074575e-01, 1.92251667e-01, 2.25015670e-01,
          1.55618310e-01, 1.07525654e-01, 1.70890659e-01, 1.50175214e-01,
          1.28361017e-01, 2.10427940e-01, 2.25015670e-01, 2.15725824e-01,
          2.01631084e-01, 1.02628797e-01, 1.12662457e-01, 2.25015670e-01,
          2.15409517e-01, 1.79704636e-01, 1.94132654e-03, 0., 0., 0.,
          5.31648025e-02, 1.72607705e-01, 4.95084256e-01, 3.94495130e-01,
          7.81440064e-02, 0., 0., 0., 0., 0., 0., 0., 0., 0.,
          1.20140789e-02, 0., 0., 0., 7.31864050e-02, 2.35818848e-01,
          4.95084256e-01, 4.75840926e-01, 1.51480362e-01, 0., 0., 0., 0.,
          0., 0., 0., 0., 0., 0., 0., 0., 0., 0., 0., 0., 0., 0., 0., 0.,
          0., 0., 8.70957434e-01, 0., 0., 0., 0., 0., 0., 0., 0., 0., 0.,
          0., 0., 0., 0., 0., 0., 0., 0., 0., 0., 0., 0., 0.,
          1.26044407e-01, 3.64940464e-01, 3.64477932e-02, 8.37972686e-02,
          1.04988348e-02, 1.03149302e-02, 1.79967249e-03, 0.,
          2.11585835e-02, 3.04523468e-01, 3.64940464e-01, 8.35270509e-02,
          1.87858179e-01, 2.67424621e-02, 9.62403119e-02, 4.61880974e-02,
          3.39627378e-02, 2.38497555e-02, 8.56372267e-02, 2.25992441e-01,
          5.05456403e-02, 5.22689223e-02, 1.85082154e-03, 2.63825699e-04,
          1.47498318e-03, 1.60823390e-02, 1.58464909e-01, 3.41129303e-01,
          3.64940464e-01, 2.36551076e-01, 3.64940464e-01, 7.83852711e-02,
          8.65495726e-02, 5.60642481e-02, 1.08237021e-01, 1.20262988e-01,
          3.14924568e-01, 3.14924568e-01, 1.00786351e-01, 1.10175960e-01,
          4.99264747e-02, 3.89915742e-02, 4.64158878e-02, 1.06067210e-01,
          1.38541043e-01, 1.08994119e-01, 1.13241225e-01, 7.00197741e-02,
          1.43529281e-01, 2.45894447e-01, 2.69660413e-01, 9.14963111e-02,
          1.14696190e-01, 1.40181825e-01, 3.14924568e-01, 3.14924568e-01,
          5.09842895e-02, 8.34553838e-02, 1.47235945e-01, 6.99880645e-02,
          3.36884372e-02, 1.16723508e-01, 1.28629446e-01, 5.59278652e-02,
          4.60059233e-02, 3.07694692e-02, 1.11515187e-01, 3.14924568e-01,
          3.14924568e-01, 5.94495609e-02, 1.19353570e-01, 6.00189753e-02,
          3.72636877e-02, 6.70759380e-02, 2.43615601e-02, 1.54495472e-02,
          1.60297483e-01, 5.59273183e-01, 4.36362743e-01, 1.01046257e-01,
          0., 0., 0., 0., 0., 0., 0., 0., 0., 3.78832407e-02,
          4.65566255e-02, 1.27155244e-01, 9.30291861e-02, 7.93415233e-02,
          1.23042762e-01, 5.59273183e-01, 2.78377295e-01, 6.96255118e-02,
          0., 0., 0., 0., 0., 0., 0., 0., 0., 0., 0., 0., 0., 0., 0., 0.,
          0., 0., 1.38188258e-01, 3.01910162e-01, 4.48838979e-01,
          1.01546951e-01, 6.69393735e-03, 3.98932165e-03, 1.27977664e-02,
          3.50752193e-03, 4.08622026e-02, 0., 0., 0., 0., 0., 0., 0., 0.,
          0., 2.19613522e-01, 5.48175752e-01, 5.48175752e-01,
          1.35399088e-01, 3.18882391e-02, 3.33901122e-02, 1.41742891e-02,
          1.83727336e-03, 2.67012175e-02, 2.82219410e-01, 1.97343007e-01,
          4.40148674e-02, 2.93527748e-02, 9.87751111e-02, 1.37886584e-01,
          2.64688283e-02, 6.16173297e-02, 1.07230514e-01, 2.82219410e-01,
          2.82219410e-01, 4.46081236e-02, 3.74302380e-02, 2.44266838e-01,
          2.82219410e-01, 3.56647298e-02, 4.76178043e-02, 6.66861236e-02,
          2.82219410e-01, 1.97795823e-01, 3.50340009e-02, 6.10070378e-02,
          2.73729593e-01, 2.82219410e-01, 7.49511868e-02, 5.52042499e-02,
          8.46330225e-02, 2.20844403e-01, 7.95087814e-02, 2.48562526e-02,
          6.12757467e-02, 2.82219410e-01, 2.82219410e-01, 5.86838908e-02,
          5.05315699e-02, 4.64074798e-02, 1.09904289e-01, 7.76580721e-02,
          1.43626407e-01, 1.57287449e-01, 3.62642050e-01, 3.62642050e-01,
          3.62642050e-01, 1.51335418e-01, 1.31517798e-01, 2.45089382e-02,
          2.47001294e-02, 8.05900320e-02, 8.75679776e-02, 2.07089677e-01,
          3.26803207e-01, 2.79013157e-01, 1.17461771e-01, 4.62894104e-02,
          4.72120754e-02, 3.74141484e-02, 9.73663405e-02, 9.81686413e-02,
          2.39188641e-01, 2.48049468e-01, 2.20662862e-01, 1.33747533e-01,
          9.41038802e-02, 3.25214583e-03, 7.47192372e-03, 2.65973955e-02,
          3.29207554e-02, 5.61648905e-02, 9.46030393e-02, 8.57295543e-02,
          3.21252234e-02, 7.64343282e-03, 0., 0., 0., 0., 0., 0., 0., 0.,
          0., 0., 0., 0., 0., 0., 0., 0., 0., 0., 0., 0., 0., 0., 0., 0.,
          0., 0., 0., 0., 0., 0., 0., 0., 0., 0., 0., 0. ]
      - [ 0., 0., 0., 0., 0., 0., 0., 0., 0., 0., 0., 0., 0., 0., 0., 0.,
          0., 0., 0., 0., 0., 0., 0., 0., 0., 0., 0., 0., 0., 0., 0., 0.,
          0., 0., 0., 0., 0., 0., 0., 0., 0., 0., 0., 0., 0.,
          1.05670923e-02, 2.62162741e-03, 2.15219962e-03, 0., 0., 0., 0.,
          0., 9.42339282e-03, 9.15908255e-03, 1.78753063e-02,
          1.50437858e-02, 0., 0., 0., 0., 0., 1.43479975e-03,
          6.71630383e-01, 6.71630383e-01, 2.18739241e-01, 0., 0., 0.,
          3.83178261e-03, 1.27726095e-03, 2.05945194e-01, 6.11932203e-03,
          1.27911184e-03, 1.07117486e-03, 0., 0., 0., 1.38315809e-04,
          1.43821802e-04, 5.19313896e-03, 4.12463136e-02, 1.41675286e-02,
          9.18182079e-03, 1.21346267e-04, 9.43384730e-05, 0.,
          6.26388239e-04, 3.89721198e-03, 3.49079147e-02, 3.75341952e-01,
          7.93130845e-02, 2.03975979e-02, 1.28475754e-02, 3.72288615e-01,
          1.96790434e-02, 2.78670713e-02, 1.99147798e-02, 3.75341952e-01,
          3.75341952e-01, 2.24187940e-01, 2.12798491e-01, 1.65971130e-01,
          3.75341952e-01, 1.91771835e-02, 9.48715061e-02, 9.52131152e-02,
          3.75341952e-01, 1.31260395e-01, 4.12289575e-02, 3.46056707e-02,
          1.40841361e-02, 6.30053431e-02, 2.49745883e-03, 1.19860675e-02,
          2.83123814e-02, 1.32808745e-01, 1.97288662e-01, 6.61951005e-02,
          4.44889627e-02, 4.71151248e-02, 1.43170236e-02, 1.16960350e-02,
          4.54149656e-02, 8.53908062e-02, 1.98295727e-01, 3.05863023e-01,
          3.05863023e-01, 1.64796561e-01, 3.92662399e-02, 1.33783206e-01,
          3.18618864e-02, 5.03829271e-02, 9.83087569e-02, 3.05863023e-01,
          3.05863023e-01, 3.05863023e-01, 1.90387264e-01, 9.73564461e-02,
          3.70264538e-02, 4.69945259e-02, 3.05863023e-01, 3.05863023e-01,
          3.05863023e-01, 1.68784901e-01, 9.28971544e-02, 7.49487951e-02,
          7.07203150e-02, 8.64836127e-02, 1.46423588e-02, 1.22798095e-02,
          3.77539657e-02, 1.51115805e-01, 3.63970995e-01, 1.63741425e-01,
          6.42637685e-02, 9.57119837e-02, 1.58550784e-01, 6.84657469e-02,
          4.98799533e-02, 8.23044777e-02, 2.65697062e-01, 3.63970995e-01,
          3.34671855e-01, 8.74713734e-02, 8.74547288e-02, 8.67491290e-02,
          4.45444956e-02, 3.20856459e-02, 5.00991270e-02, 1.44910738e-01,
          3.63970995e-01, 3.63970995e-01, 6.02861084e-02, 1.02536954e-01,
          1.06266633e-01, 6.37260005e-02, 4.96159829e-02, 7.93875828e-02,
          1.92918271e-01, 3.81460875e-01, 1.93376139e-01, 8.10021237e-02,
          4.73566614e-02, 8.16713497e-02, 5.47835417e-02, 5.62787801e-02,
          1.14303306e-01, 2.72403866e-01, 3.81460875e-01, 2.01743498e-01,
          8.23667869e-02, 5.90553656e-02, 1.16932094e-01, 6.43211901e-02,
          4.92238402e-02, 6.20944612e-02, 1.83332354e-01, 3.81460875e-01,
          1.15511715e-01, 1.00256994e-01, 8.68070200e-02, 1.03552230e-01,
          6.79770559e-02, 1.29918262e-01, 1.89345106e-01, 1.64413944e-01,
          2.93588758e-01, 1.60123929e-01, 1.35920152e-01, 1.16237476e-01,
          1.05295710e-01, 6.18938282e-02, 7.07895681e-02, 8.40354189e-02,
          8.84690657e-02, 2.75908649e-01, 1.69179872e-01, 2.75908649e-01,
          1.84128627e-01, 2.30390429e-01, 1.42887428e-01, 1.36892855e-01,
          1.26926929e-01, 2.53726780e-01, 2.75908649e-01, 6.37440532e-02,
          8.65894184e-02, 6.70963526e-02, 9.65131596e-02, 9.36729982e-02,
          6.50456399e-02, 4.45644148e-02, 1.48716137e-01, 2.14547366e-01,
          1.93121761e-01, 2.75908649e-01, 2.75908649e-01, 1.71110675e-01,
          2.41668954e-01, 1.71292946e-01, 1.44894406e-01, 2.06201106e-01,
          5.01160584e-02, 6.51577711e-02, 1.10336438e-01, 8.37703720e-02,
          6.53972477e-02, 1.05019957e-01, 9.12675336e-02, 4.90760095e-02,
          5.49825877e-02, 1.04540344e-02, 1.02675691e-01, 2.25363895e-01,
          1.56564377e-02, 5.44234701e-02, 9.95856002e-02, 3.11225623e-01,
          3.67226154e-02, 8.66357982e-03, 1.30705209e-02, 1.48418739e-01,
          3.11225623e-01, 2.53414977e-02, 7.34893382e-02, 7.44878575e-02,
          3.11225623e-01, 2.11102337e-01, 1.95475128e-02, 1.36895869e-02,
          1.86940476e-01, 3.11225623e-01, 9.15883016e-03, 1.80275701e-02,
          1.29222438e-01, 3.11225623e-01, 5.97543195e-02, 1.45473890e-02,
          1.39651923e-02, 2.29993209e-01, 3.11225623e-01, 2.66410988e-02,
          3.05010136e-02, 7.36008063e-02, 3.11225623e-01, 2.18007058e-01,
          2.08734870e-02, 1.50879189e-01, 1.66775227e-01, 7.14467093e-02,
          2.15254858e-01, 3.80157799e-01, 1.84872180e-01, 1.19903997e-01,
          4.40684147e-02, 1.48062155e-01, 1.50756195e-01, 1.03636831e-01,
          8.80282372e-02, 3.47975373e-01, 3.80157799e-01, 2.00003684e-01,
          8.32657889e-02, 2.95525920e-02, 1.46447182e-01, 1.47406319e-02,
          1.97721627e-02, 2.65770573e-02, 1.85314864e-02, 3.80157799e-01,
          4.08062153e-02, 7.50112683e-02, 2.24627089e-02, 1.41819175e-02,
          1.84502937e-02, 6.16277196e-03, 5.25540253e-03, 4.10539703e-03,
          3.80157799e-01, 1.98676325e-02, 3.42007875e-02, 1.12527069e-02,
          1.89036522e-02, 1.46500245e-01, 1.14088640e-01, 1.24447189e-01,
          3.27715427e-01, 3.27715427e-01, 1.35004193e-01, 3.50028537e-02,
          4.78815362e-02, 1.25219852e-01, 1.35141894e-01, 7.57677183e-02,
          6.46812096e-02, 3.27715427e-01, 3.27715427e-01, 6.09437041e-02,
          2.02718638e-02, 3.53914239e-02, 1.90074727e-01, 3.14358510e-02,
          4.41159755e-02, 7.16377273e-02, 2.30474934e-01, 3.27715427e-01,
          7.62745440e-02, 2.51775682e-02, 2.57868730e-02, 4.60964032e-02,
          2.76415013e-02, 4.48028967e-02, 1.02668777e-01, 3.27715427e-01,
          3.27715427e-01, 4.04442325e-02, 1.14682931e-02, 9.08754952e-03,
          4.76603433e-02, 2.07365274e-01, 3.19425836e-02, 1.18934168e-02,
          6.00825548e-02, 1.93181410e-01, 9.34909582e-02, 3.25033627e-02,
          7.39140809e-02, 2.55295247e-01, 1.88174576e-01, 3.77400853e-02,
          1.39456829e-02, 2.82360986e-02, 1.16624534e-01, 9.50874388e-02,
          2.99477689e-02, 5.34282699e-02, 2.27259785e-01, 1.34755388e-01,
          4.28394340e-02, 4.16758209e-02, 3.63111943e-01, 3.63111943e-01,
          1.05588138e-01, 6.44588992e-02, 9.89614502e-02, 2.22522706e-01,
          1.35838911e-01, 2.58880127e-02, 2.64397524e-02, 3.63111943e-01,
          3.55708092e-01, 4.72878553e-02, 3.84851657e-02, 8.18140805e-02,
          2.57530659e-01, 1.19262919e-01, 1.31379172e-01, 2.60662347e-01,
          1.03933923e-01, 9.36697498e-02, 4.86826412e-02, 2.88566738e-01,
          1.93347543e-01, 8.08273852e-02, 9.26964730e-02, 1.37644812e-01,
          2.81148881e-01, 7.18911737e-02, 5.02096228e-02, 5.37877381e-02,
          2.88566738e-01, 1.92075580e-01, 5.77994362e-02, 3.85890566e-02,
          1.86016962e-01, 2.88566738e-01, 6.09072410e-02, 5.16045690e-02,
          4.97700796e-02, 2.88566738e-01, 2.07247391e-01, 3.27279232e-02,
          3.82911563e-02, 2.12191060e-01, 2.88566738e-01, 4.50700931e-02,
          2.68943254e-02, 5.92017025e-02, 2.88566738e-01, 1.79791838e-01,
          2.75845770e-02, 0., 0., 0., 0., 0., 0., 0., 0., 0., 0., 0., 0.,
          0., 0., 0., 0., 0., 0., 0., 0., 0., 0., 0., 0., 0., 0., 0., 0.,
          0., 0., 0., 0., 0., 0., 0., 0., 0., 0., 0., 0., 0., 0., 0., 0.,
          0., 0., 3.09061378e-01, 6.16903961e-01, 3.78263921e-01,
          6.06766105e-01, 1.40209999e-02, 1.79323163e-02, 5.31123020e-03,
          0., 0., 0., 0., 0., 0., 0., 0., 0., 0., 0., 1.39154901e-03,
          8.03170074e-03, 2.70584021e-02, 7.18137994e-02, 4.52290347e-04,
          6.44718166e-05, 0., 0., 1.36456564e-01, 3.34368423e-02,
          9.21710730e-02, 9.82116759e-02, 4.39717621e-01, 1.54234350e-01,
          6.48389533e-02, 1.13397604e-02, 1.28270626e-01, 1.34875268e-01,
          1.19072251e-01, 3.57352316e-01, 4.39717621e-01, 4.39717621e-01,
          2.56405920e-01, 2.00872436e-01, 1.16620198e-01, 2.22159982e-01,
          0., 1.01666868e-04, 4.50853666e-04, 1.40123151e-03,
          2.44667358e-03, 6.32331648e-04, 9.58095596e-04, 2.89319898e-04,
          0., 2.04549218e-03, 4.81722673e-04, 3.93778132e-03,
          2.36833040e-02, 5.71384020e-02, 1.09459478e-02, 1.30483345e-03,
          7.18999130e-04, 1.63207983e-03, 2.56744288e-02, 2.70866483e-01,
          2.87061661e-01, 2.87061661e-01, 2.87061661e-01, 2.87061661e-01,
          2.87061661e-01, 8.89736116e-02, 9.39682126e-03, 4.78428230e-02,
          2.28203088e-01, 2.56455600e-01, 2.32316568e-01, 2.87061661e-01,
          2.87061661e-01, 2.87061661e-01, 9.31362882e-02, 1.96537264e-02,
          6.03142893e-03, 2.95719504e-02, 6.12422600e-02, 9.07510594e-02,
          1.15802705e-01, 5.55277392e-02, 3.96085978e-02, 2.17266232e-02,
          4.40108916e-03, 1.01353154e-02, 2.36426275e-02, 3.49589027e-02,
          6.46502748e-02, 1.50227562e-01, 8.78662392e-02, 6.35832995e-02,
          2.87672821e-02, 4.81699966e-03 ]
      - [ 5.21376655e-02, 2.39327326e-01, 2.72428721e-01, 1.77532956e-02,
          1.44880097e-02, 2.15964187e-02, 2.03588948e-01, 1.60336435e-01,
          6.29796311e-02, 2.26593554e-01, 2.69129813e-01, 2.10871905e-01,
          4.81184870e-02, 3.64621729e-02, 5.24467565e-02, 1.67452574e-01,
          2.40911126e-01, 2.72428721e-01, 2.19712555e-02, 2.59701222e-01,
          2.72428721e-01, 2.50264443e-02, 6.96743187e-03, 1.91987995e-02,
          1.95637971e-01, 8.79375637e-02, 2.04078760e-02, 1.58171460e-01,
          2.72428721e-01, 2.72428721e-01, 9.45330262e-02, 3.07429228e-02,
          4.64707948e-02, 1.81863457e-01, 1.38920158e-01, 1.68928161e-01,
          2.55164295e-01, 1.15287676e-01, 6.39048740e-02, 2.13547219e-02,
          1.88499857e-02, 1.82947889e-02, 1.02012299e-01, 1.32847428e-01,
          2.55164295e-01, 2.55164295e-01, 1.06602922e-01, 3.95247191e-02,
          2.76770778e-02, 5.27766757e-02, 3.57287936e-02, 8.01935568e-02,
          1.31559849e-01, 2.55164295e-01, 2.55164295e-01, 2.35919341e-01,
          1.90326333e-01, 8.24615583e-02, 7.45642111e-02, 4.59337048e-02,
          2.55164295e-01, 2.43945584e-01, 2.55164295e-01, 2.55164295e-01,
          1.47317186e-01, 1.21671923e-01, 7.99931437e-02, 1.67451501e-01,
          7.16478974e-02, 1.32414818e-01, 2.52839357e-01, 2.55164295e-01,
          2.81502664e-01, 2.81502664e-01, 5.52027337e-02, 3.54833752e-02,
          3.31759453e-02, 2.56687719e-02, 6.23965934e-02, 2.30246976e-01,
          2.60393500e-01, 1.97573215e-01, 1.35544986e-01, 6.35963380e-02,
          6.04435876e-02, 5.05396314e-02, 2.81506684e-02, 5.47852442e-02,
          2.81502664e-01, 2.81502664e-01, 2.81502664e-01, 2.81502664e-01,
          3.99254486e-02, 3.33252512e-02, 2.00506542e-02, 3.32105309e-02,
          5.85859381e-02, 2.04460457e-01, 2.18989283e-01, 1.33179635e-01,
          9.89091024e-02, 6.83797672e-02, 6.78732321e-02, 4.52230126e-02,
          3.57339345e-02, 1.53228566e-01, 2.81502664e-01, 2.81502664e-01,
          1.09335244e-01, 1.65657431e-01, 2.43251190e-01, 2.43251190e-01,
          1.19615562e-01, 1.23014942e-01, 1.72281384e-01, 6.40101954e-02,
          5.12210988e-02, 3.94565836e-02, 1.47359625e-01, 2.43251190e-01,
          2.43251190e-01, 1.16020046e-01, 7.11893886e-02, 1.93230346e-01,
          5.92832491e-02, 2.18290072e-02, 1.87595040e-01, 2.21466601e-01,
          2.43251190e-01, 2.14286044e-01, 9.66708809e-02, 8.01421478e-02,
          2.25731075e-01, 2.27202877e-01, 1.86662361e-01, 5.33355363e-02,
          8.63127336e-02, 2.43251190e-01, 2.43251190e-01, 2.39648372e-01,
          5.61986268e-02, 1.52018517e-01, 1.14120923e-01, 6.81258366e-02,
          6.99485885e-03, 1.92951128e-01, 3.30034763e-01, 2.83692051e-02,
          2.24295049e-03, 3.40151042e-03, 5.22654317e-02, 2.74361409e-02,
          4.17901156e-03, 1.31720137e-02, 3.30034763e-01, 3.30034763e-01,
          2.85580028e-02, 8.00271425e-03, 3.78150493e-02, 3.24368864e-01,
          2.67452657e-01, 2.49037519e-02, 7.33910827e-03, 2.18907192e-01,
          3.30034763e-01, 2.11802870e-02, 2.43413472e-03, 3.73141607e-03,
          5.30182496e-02, 3.40829790e-02, 1.08607020e-02, 3.29663679e-02,
          2.96186119e-01, 3.30034763e-01, 5.04963398e-02, 7.62529857e-03,
          3.92326377e-02, 2.02883869e-01, 2.05363899e-01, 4.25020792e-02,
          1.23028792e-01, 1.27164260e-01, 1.50879353e-01, 9.49177593e-02,
          1.19154721e-01, 1.38693258e-01, 1.53660253e-01, 1.39104903e-01,
          1.09785303e-01, 1.78705946e-01, 1.88609794e-01, 1.63655236e-01,
          1.29258245e-01, 1.59203753e-01, 1.61098063e-01, 1.25966012e-01,
          1.56989470e-01, 1.86449662e-01, 1.90233991e-01, 2.19152123e-01,
          2.17602327e-01, 9.73994061e-02, 1.37783751e-01, 1.14071868e-01,
          1.37878552e-01, 1.45279557e-01, 2.06890598e-01, 2.09179446e-01,
          2.10907444e-01, 2.19152123e-01, 1.33331552e-01, 2.19152123e-01,
          1.17561541e-01, 2.01960042e-01, 2.19152123e-01, 2.19152123e-01,
          1.52618408e-01, 1.27865300e-01, 2.78425850e-02, 6.63335100e-02,
          2.35061318e-01, 2.35061318e-01, 1.00683771e-01, 1.37253433e-01,
          2.08228827e-01, 1.09117441e-01, 7.54442140e-02, 1.04578957e-01,
          1.60809666e-01, 2.35061318e-01, 1.71137273e-01, 1.51392937e-01,
          2.35061318e-01, 2.35061318e-01, 1.14508659e-01, 8.61700550e-02,
          5.27376011e-02, 1.15152135e-01, 2.35061318e-01, 1.96844250e-01,
          8.48909318e-02, 9.64773372e-02, 1.28971681e-01, 2.04393223e-01,
          9.93605554e-02, 1.14472479e-01, 2.02168241e-01, 2.35061318e-01,
          1.92165077e-01, 1.59951761e-01, 2.35061318e-01, 2.35061318e-01,
          9.60658714e-02, 1.09333538e-01, 1.01113304e-01, 7.76279047e-02,
          7.66589940e-02, 1.73104465e-01, 2.77765602e-01, 2.77765602e-01,
          1.80635467e-01, 7.17135742e-02, 5.85356727e-02, 4.54734340e-02,
          2.84771975e-02, 4.83382978e-02, 9.98060852e-02, 2.12978706e-01,
          1.65678307e-01, 1.49191022e-01, 1.75808579e-01, 1.55043721e-01,
          2.05332875e-01, 8.76353085e-02, 7.13611022e-02, 2.05683157e-01,
          2.77765602e-01, 2.77765602e-01, 2.04444438e-01, 1.63858399e-01,
          1.04990274e-01, 1.50852740e-01, 5.05194403e-02, 3.15558240e-02,
          8.65826234e-02, 2.77765602e-01, 2.40110531e-01, 2.51849622e-01,
          7.27805272e-02, 2.58918375e-01, 3.16520095e-01, 6.37883618e-02,
          4.13406231e-02, 2.72221789e-02, 8.99600238e-02, 3.68741490e-02,
          5.27639538e-02, 1.79820672e-01, 3.16520095e-01, 3.16520095e-01,
          2.90544391e-01, 6.06918409e-02, 2.84353234e-02, 6.99220374e-02,
          2.24322062e-02, 1.18050963e-01, 5.99059090e-02, 2.24095494e-01,
          3.16520095e-01, 4.22184058e-02, 3.99908274e-02, 2.81094927e-02,
          2.06971794e-01, 6.46701381e-02, 3.37337367e-02, 4.22082581e-02,
          3.13509643e-01, 3.16520095e-01, 2.01324552e-01, 4.06606682e-02,
          2.97785439e-02, 1.15165561e-01, 3.64906490e-02, 1.93993710e-02,
          8.59266818e-02, 1.27219528e-01, 1.38819337e-01, 6.65272847e-02,
          7.61175677e-02, 6.37139380e-02, 2.29213893e-01, 2.68135279e-01,
          1.48976877e-01, 1.41010404e-01, 7.92939514e-02, 1.22174062e-01,
          1.31394848e-01, 2.25542456e-01, 2.14888796e-01, 2.68135279e-01,
          2.68135279e-01, 2.68135279e-01, 3.40170264e-02, 3.86047028e-02,
          7.47320354e-02, 8.91883373e-02, 7.40810484e-02, 4.67034541e-02,
          2.68135279e-01, 2.68135279e-01, 9.55382511e-02, 2.96707042e-02,
          3.05385347e-02, 1.45848408e-01, 1.29668638e-01, 1.22013859e-01,
          1.29479572e-01, 2.68135279e-01, 2.68135279e-01, 1.74221024e-01,
          7.07893223e-02, 5.78359328e-02, 1.02736637e-01, 2.40633041e-01,
          2.40633041e-01, 7.48258308e-02, 3.80444676e-02, 5.28013669e-02,
          9.15570855e-02, 1.34618670e-01, 1.93530723e-01, 2.40633041e-01,
          2.40633041e-01, 2.22837701e-01, 9.50327963e-02, 1.43876359e-01,
          9.79696885e-02, 9.79036242e-02, 1.88500121e-01, 1.43521875e-01,
          1.73588589e-01, 2.02853888e-01, 1.65047884e-01, 6.85658678e-02,
          6.64425567e-02, 1.44771472e-01, 2.28126511e-01, 1.57763153e-01,
          2.40633041e-01, 2.40633041e-01, 2.40633041e-01, 2.40633041e-01,
          9.98830348e-02, 1.97072968e-01, 1.42471105e-01, 1.10964589e-01,
          9.81042385e-02, 1.30786076e-01, 1.97483301e-01, 1.18487746e-01,
          9.90818441e-02, 2.00588703e-01, 2.87342995e-01, 2.87342995e-01,
          1.09074645e-01, 8.05329382e-02, 1.53372079e-01, 2.18113855e-01,
          9.62975770e-02, 6.54782876e-02, 1.17596418e-01, 2.87342995e-01,
          1.18887864e-01, 6.18762374e-02, 1.40031964e-01, 1.46366164e-01,
          1.47273585e-01, 8.26078504e-02, 1.20790817e-01, 2.25821644e-01,
          2.87342995e-01, 2.69245416e-01, 1.02620490e-01, 8.17861483e-02,
          1.47854418e-01, 1.47934541e-01, 9.56644267e-02, 7.62108415e-02,
          1.07419804e-01, 2.87342995e-01, 1.51449770e-01, 4.02402133e-02,
          1.87663548e-02, 1.40442893e-01, 2.65041500e-01, 5.74085861e-02,
          4.49198484e-02, 6.87479302e-02, 1.59057587e-01, 7.58225545e-02,
          4.13153693e-02, 3.37012447e-02, 2.65041500e-01, 2.65041500e-01,
          2.65041500e-01, 1.82642549e-01, 1.75971285e-01, 1.13453455e-01,
          7.67829344e-02, 7.36231357e-02, 1.26842022e-01, 1.44774243e-01,
          2.65041500e-01, 1.43746197e-01, 2.65041500e-01, 1.41139433e-01,
          7.56693184e-02, 7.36314431e-02, 1.42238140e-01, 1.00655064e-01,
          1.14314340e-01, 2.63582498e-01, 2.61769921e-01, 2.65041500e-01,
          2.03762561e-01, 7.38529563e-02, 9.27627534e-02, 1.65274397e-01,
          1.83505267e-02, 3.11955400e-02, 1.62284404e-01, 2.47151211e-01,
          2.57322401e-01, 2.38643214e-01, 2.57322401e-01, 1.44220084e-01,
          3.10919732e-02, 3.26409824e-02, 2.98716594e-02, 8.88044983e-02,
          1.86103582e-01, 2.57322401e-01, 2.57322401e-01, 2.57322401e-01,
          1.18842855e-01, 3.10229808e-02, 5.28839491e-02, 2.89860740e-02,
          9.38022360e-02, 2.49309376e-01, 2.57322401e-01, 2.57322401e-01,
          1.48972705e-01, 6.94147646e-02, 4.37485613e-02, 4.77194488e-02,
          2.53689308e-02, 7.44545609e-02, 1.81518227e-01, 2.57322401e-01,
          2.57322401e-01, 1.58036366e-01, 4.87171635e-02, 4.69672084e-02,
          2.62917206e-02, 9.79736745e-02, 2.09861726e-01, 1.91177160e-01,
          3.42533439e-01, 8.34473073e-02, 5.50134555e-02, 5.08127436e-02,
          3.83523628e-02, 9.52669233e-02, 1.14165112e-01, 1.47971138e-01,
          1.94432080e-01, 3.42533439e-01, 1.24633126e-01, 1.81711957e-01,
          2.07821265e-01, 9.03479904e-02, 7.03075975e-02, 3.19189392e-02,
          8.46872553e-02, 2.44997859e-01, 3.42533439e-01, 1.08744279e-01,
          4.17698435e-02, 3.52256037e-02, 9.21758488e-02, 9.20820981e-02,
          6.11253195e-02, 6.48502484e-02, 2.88806260e-01, 3.42533439e-01,
          1.32350087e-01, 6.40997961e-02, 1.14700995e-01, 9.77080017e-02,
          7.77742490e-02, 1.10227153e-01, 1.64642021e-01, 8.89377668e-02,
          1.30016461e-01, 1.96046799e-01, 2.62092203e-01, 2.62092203e-01,
          8.55957419e-02, 5.89211583e-02, 8.46138149e-02, 1.78195730e-01,
          1.05426766e-01, 7.80215040e-02, 6.76387325e-02, 2.02471733e-01,
          1.32069230e-01, 6.84158579e-02, 9.86853316e-02, 1.20492645e-01,
          1.90954998e-01, 2.06984118e-01, 2.62092203e-01, 2.59045035e-01,
          2.62092203e-01, 1.03239931e-01, 6.57432899e-02, 5.57755716e-02,
          1.60597771e-01, 2.54666567e-01, 2.04908147e-01, 2.07408503e-01,
          8.85764882e-02, 2.22813666e-01, 2.26482555e-01, 7.90747032e-02 ]
      - [ 0., 0., 0., 0., 0., 0., 0., 0., 0., 0., 0., 0., 0., 0., 0., 0.,
          0., 0., 0., 0., 0., 0., 0., 0., 0., 0., 0., 0., 0., 0., 0., 0.,
          0., 0., 0., 0., 3.50556746e-02, 2.11147554e-02, 2.57101301e-02,
          9.29548033e-03, 5.57206664e-03, 4.76168329e-03, 8.66103265e-03,
          1.12289377e-02, 3.28823328e-02, 1.77173615e-01, 2.46856973e-01,
          1.95736468e-01, 7.34417439e-02, 4.44078073e-02, 3.60363312e-02,
          6.82044476e-02, 6.94470257e-02, 1.17116898e-01, 3.16978484e-01,
          2.16167212e-01, 1.83166057e-01, 1.06011234e-01, 8.66179764e-02,
          7.10268915e-02, 1.21679202e-01, 1.26310647e-01, 2.93303192e-01,
          3.16978484e-01, 3.16978484e-01, 3.16978484e-01, 1.63951591e-01,
          1.22509204e-01, 9.91554260e-02, 1.76645949e-01, 1.56286716e-01,
          3.16978484e-01, 2.71694690e-01, 2.71694690e-01, 1.59511939e-01,
          3.24342735e-02, 8.06882381e-02, 2.71694690e-01, 2.71694690e-01,
          1.78725034e-01, 2.71694690e-01, 7.12199807e-02, 4.40623350e-02,
          1.64636951e-02, 1.54989734e-02, 2.91506965e-02, 1.78302944e-01,
          2.71694690e-01, 2.48755187e-01, 9.73092839e-02, 8.93314406e-02,
          7.21687675e-02, 6.05220832e-02, 5.07795103e-02, 1.04216188e-01,
          2.71694690e-01, 2.71694690e-01, 1.48810104e-01, 9.74346474e-02,
          4.78866659e-02, 1.82860903e-02, 1.36022121e-02, 2.26356145e-02,
          4.86725047e-02, 1.82753086e-01, 2.71694690e-01, 1.90729007e-01,
          1.38056338e-01, 0., 0., 0., 0., 0., 0., 0., 0., 0., 0., 0., 0.,
          0., 0., 0., 0., 0., 0., 0., 0., 0., 0., 0., 0., 0., 0., 0., 0.,
          0., 0., 0., 0., 0., 0., 0., 0., 0., 0., 0., 0., 0., 0., 0., 0.,
          0., 0., 0., 0., 0., 0., 0., 0., 0., 0., 0., 0., 0., 0., 0., 0.,
          0., 0., 0., 0., 0., 0., 0., 0., 0., 0., 0., 0., 1.20494187e-01,
          2.52590925e-01, 2.52590925e-01, 2.52590925e-01, 2.14200631e-01,
          3.32656093e-02, 6.06092289e-02, 3.10203638e-02, 2.87942942e-02,
          1.36988297e-01, 2.52590925e-01, 2.39592269e-01, 1.96315527e-01,
          2.05075383e-01, 7.28423521e-02, 1.84011772e-01, 7.04604089e-02,
          4.35040928e-02, 7.03970194e-02, 2.29253188e-01, 2.52590925e-01,
          2.28600577e-01, 1.53739318e-01, 3.53812873e-02, 5.87725528e-02,
          4.11938094e-02, 3.10683716e-02, 9.27855968e-02, 2.52590925e-01,
          2.52590925e-01, 2.52590925e-01, 1.60885975e-01, 5.02249375e-02,
          1.68482989e-01, 9.61620063e-02, 4.32670414e-02, 1.12560056e-01,
          1.40320584e-01, 1.26996294e-01, 1.08068153e-01, 1.23582505e-01,
          2.36132786e-01, 2.87514806e-01, 2.45205164e-01, 1.21987931e-01,
          3.13856192e-02, 6.72467425e-02, 1.19249895e-01, 2.54084021e-02,
          1.26932323e-01, 1.64061904e-01, 2.87514806e-01, 2.87514806e-01,
          1.46817476e-01, 1.07101306e-01, 8.87729526e-02, 1.11081511e-01,
          9.93656889e-02, 1.14510365e-01, 2.02230483e-01, 2.87514806e-01,
          2.29219601e-01, 1.11957066e-01, 3.19609679e-02, 4.08979766e-02,
          7.80738145e-02, 2.20202394e-02, 7.58958235e-02, 1.43029913e-01,
          2.87514806e-01, 2.87514806e-01, 1.17622621e-01, 0., 0., 0., 0.,
          0., 0., 0., 0., 0., 0., 0., 0., 0., 0., 0., 0., 0., 0., 0., 0.,
          0., 0., 0., 0., 0., 0., 0., 0., 0., 0., 0., 0., 0., 0., 0., 0.,
          0., 0., 0., 0., 0., 0., 0., 0., 0., 0., 0., 0., 0., 0., 0., 0.,
          0., 0., 0., 0., 0., 0., 0., 0., 0., 0., 0., 0., 0., 0., 0., 0.,
          0., 0., 0., 0., 6.33581504e-02, 1.01448625e-01, 2.59790123e-01,
          1.97362661e-01, 8.31662416e-02, 4.06676754e-02, 8.63717794e-02,
          5.24145588e-02, 4.53390963e-02, 1.27610743e-01, 1.75014228e-01,
          3.29765230e-01, 3.29765230e-01, 3.29765230e-01, 9.86410677e-02,
          3.07143569e-01, 1.42825916e-01, 9.27259773e-02, 2.48403829e-02,
          4.34067622e-02, 7.55878687e-02, 5.28576449e-02, 6.92913234e-02,
          8.67436267e-03, 2.97740530e-02, 1.02559244e-02, 1.60890017e-02,
          1.40244275e-01, 3.29765230e-01, 3.29765230e-01, 2.10911155e-01,
          1.95849687e-01, 4.62008566e-02, 6.59264848e-02, 4.94988337e-02,
          5.33130206e-02, 1.18711777e-01, 2.41138086e-01, 2.42281377e-01,
          1.32804751e-01, 1.24592602e-01, 1.97878450e-01, 2.43802890e-01,
          1.79807752e-01, 1.04051277e-01, 8.16157684e-02, 1.51036158e-01,
          2.13646248e-01, 1.19330183e-01, 6.69592246e-02, 1.12332068e-01,
          2.43802890e-01, 2.43802890e-01, 1.45145237e-01, 8.24198350e-02,
          1.35994494e-01, 1.70329422e-01, 1.86995640e-01, 1.35859877e-01,
          1.42548770e-01, 1.95976019e-01, 1.33128703e-01, 9.45979804e-02,
          2.31314078e-02, 6.42599389e-02, 1.81156114e-01, 2.15715036e-01,
          1.29067987e-01, 1.65942058e-01, 2.43802890e-01, 2.43802890e-01,
          7.13410228e-02, 0., 0., 0., 0., 0., 0., 0., 0., 0., 0., 0., 0.,
          0., 0., 0., 0., 0., 0., 0., 0., 0., 0., 0., 0., 0., 0., 0., 0.,
          0., 0., 0., 0., 0., 0., 0., 0., 0., 0., 0., 0., 0., 0., 0., 0.,
          0., 0., 0., 0., 0., 0., 0., 0., 0., 0., 0., 0., 0., 0., 0., 0.,
          0., 0., 0., 0., 0., 0., 0., 0., 0., 0., 0., 0., 4.17107195e-02,
          1.63432017e-01, 3.15637618e-01, 4.27125767e-03, 7.01474957e-04,
          1.11621013e-03, 3.68874078e-03, 9.52659454e-03, 2.63943505e-02,
          1.23815075e-01, 3.48533899e-01, 3.48533899e-01, 9.30614024e-02,
          4.98235598e-02, 4.14533652e-02, 1.87412441e-01, 1.25573322e-01,
          8.30655098e-02, 2.02621259e-02, 1.57476828e-01, 3.48533899e-01,
          2.53149476e-02, 9.78893414e-03, 3.66874598e-03, 1.12309922e-02,
          9.16795060e-03, 1.45630529e-02, 9.60080475e-02, 3.48533899e-01,
          3.48533899e-01, 2.28665188e-01, 8.48478451e-02, 9.77221653e-02,
          2.02312693e-01, 1.54173747e-01, 7.01493472e-02, 2.19096184e-01,
          1.56680524e-01, 8.67950618e-02, 6.38144538e-02, 2.10725725e-01,
          2.89691538e-01, 2.89691538e-01, 1.27309725e-01, 1.64777130e-01,
          5.63899316e-02, 2.93935724e-02, 3.92228961e-02, 9.79807414e-03,
          1.71215072e-01, 2.89691538e-01, 2.89691538e-01, 7.39195421e-02,
          5.99618442e-02, 2.09902942e-01, 1.87984481e-01, 7.58168325e-02,
          3.39415297e-02, 2.62661695e-01, 2.89691538e-01, 2.89691538e-01,
          8.79764855e-02, 1.29095331e-01, 6.09795377e-02, 2.73782816e-02,
          3.15500908e-02, 9.95709747e-03, 1.41213968e-01, 1.91715837e-01,
          1.70268014e-01, 5.44913970e-02, 6.07440174e-02, 0., 0., 0., 0.,
          0., 0., 0., 0., 0., 0., 0., 0., 0., 0., 0., 0., 0., 0., 0., 0.,
          0., 0., 0., 0., 0., 0., 0., 0., 0., 0., 0., 0., 0., 0., 0., 0. ]
      - [ 0., 0., 0., 0., 0., 0., 0., 0., 0., 0., 0., 0., 0., 0., 0., 0.,
          0., 0., 0., 0., 0., 0., 0., 0., 0., 0., 0., 0., 0., 0., 0., 0.,
          0., 0., 0., 0., 2.75009006e-01, 2.71270365e-01, 2.07533896e-01,
          2.96500679e-02, 7.26027861e-02, 6.09744005e-02, 5.10692373e-02,
          2.73285545e-02, 5.67583703e-02, 2.75009006e-01, 2.59319663e-01,
          1.87319428e-01, 1.66641593e-01, 1.21364854e-01, 9.80483443e-02,
          1.95525050e-01, 8.45429599e-02, 1.86879933e-01, 7.49294236e-02,
          2.75009006e-01, 2.75009006e-01, 2.60109212e-02, 5.91199324e-02,
          4.81090918e-02, 1.64143011e-01, 6.46153763e-02, 1.72069930e-02,
          1.07048005e-01, 2.75009006e-01, 2.75009006e-01, 1.26388386e-01,
          8.03566873e-02, 6.92832917e-02, 2.75009006e-01, 1.28348261e-01,
          3.62160131e-02, 7.23999068e-02, 4.78366017e-02, 6.38460666e-02,
          1.50999412e-01, 5.83770908e-02, 3.53863016e-02, 1.04844831e-01,
          3.41819167e-01, 3.41819167e-01, 3.85823064e-02, 2.39527691e-02,
          2.33621188e-02, 2.04797965e-02, 1.72971562e-02, 3.46209481e-02,
          8.40309635e-02, 2.84488618e-01, 1.35475054e-01, 3.23545299e-02,
          2.70501617e-02, 2.26382881e-01, 3.32465827e-01, 5.13275340e-02,
          5.30077927e-02, 1.95298746e-01, 3.41819167e-01, 2.67276168e-01,
          4.27875556e-02, 2.97058932e-02, 1.12772539e-01, 9.16143358e-02,
          1.58484001e-02, 4.32783626e-02, 2.01716319e-01, 3.41819167e-01,
          1.51882976e-01, 0., 0., 0., 0., 0., 0., 0., 0., 0., 0., 0., 0.,
          0., 0., 0., 0., 0., 0., 0., 0., 0., 0., 0., 0., 0., 0., 0., 0.,
          0., 0., 0., 0., 0., 0., 0., 0., 0., 0., 0., 0., 0., 0., 0., 0.,
          0., 0., 0., 0., 0., 0., 0., 0., 0., 0., 0., 0., 0., 0., 0., 0.,
          0., 0., 0., 0., 0., 0., 0., 0., 0., 0., 0., 0., 3.89812365e-02,
          2.57736266e-01, 2.65885383e-01, 2.07566097e-01, 3.25837769e-02,
          3.42879668e-02, 1.21982664e-01, 1.06489472e-01, 5.81254214e-02,
          7.45418444e-02, 2.18322337e-01, 2.64158607e-01, 1.44156277e-01,
          1.68014374e-02, 4.47523296e-02, 2.34646544e-01, 1.08849794e-01,
          8.35559815e-02, 5.65393381e-02, 2.65885383e-01, 2.65885383e-01,
          2.14529306e-01, 3.54182012e-02, 7.47538731e-02, 2.25289240e-01,
          1.05068401e-01, 4.31983061e-02, 5.62244728e-02, 1.62075162e-01,
          2.65885383e-01, 2.65885383e-01, 8.25044364e-02, 7.18603432e-02,
          2.38919765e-01, 2.27047727e-01, 1.06246762e-01, 2.37832189e-01,
          2.51404077e-01, 1.01706244e-01, 4.37259413e-02, 2.45773187e-03,
          5.58616668e-02, 2.88811028e-01, 8.98874104e-02, 3.41477282e-02,
          1.41272321e-01, 1.37361616e-01, 1.52506202e-01, 6.12354167e-02,
          1.67098306e-02, 1.44277200e-01, 3.23719531e-01, 2.62508333e-01,
          4.18775380e-02, 2.30736554e-01, 1.58611149e-01, 1.79380141e-02,
          2.54609063e-02, 1.81152776e-01, 3.23719531e-01, 2.18364775e-01,
          2.86181942e-02, 5.23083918e-02, 7.33989030e-02, 7.55825415e-02,
          4.02799360e-02, 3.42951380e-02, 7.07074851e-02, 3.23719531e-01,
          3.23719531e-01, 9.64087918e-02, 2.39113811e-02, 0., 0., 0., 0.,
          0., 0., 0., 0., 0., 0., 0., 0., 0., 0., 0., 0., 0., 0., 0., 0.,
          0., 0., 0., 0., 0., 0., 0., 0., 0., 0., 0., 0., 0., 0., 0., 0.,
          0., 0., 0., 0., 0., 0., 0., 0., 0., 0., 0., 0., 0., 0., 0., 0.,
          0., 0., 0., 0., 0., 0., 0., 0., 0., 0., 0., 0., 0., 0., 0., 0.,
          0., 0., 0., 0., 5.57682328e-02, 1.45249546e-01, 2.73262590e-01,
          2.42180273e-01, 5.62886149e-02, 3.92010696e-02, 9.19155553e-02,
          1.05365597e-01, 3.85954492e-02, 6.19469881e-02, 2.73262590e-01,
          2.73262590e-01, 1.43168360e-01, 4.50650789e-02, 1.20755091e-01,
          2.73262590e-01, 2.73262590e-01, 5.94155528e-02, 5.97619005e-02,
          1.39733493e-01, 2.73262590e-01, 1.94512784e-01, 6.75514489e-02,
          3.91770452e-02, 5.44332378e-02, 2.94947699e-02, 1.24807796e-02,
          5.76763190e-02, 2.04555482e-01, 2.73262590e-01, 2.65809655e-01,
          8.40919837e-02, 2.00327083e-01, 2.73262590e-01, 1.07432894e-01,
          3.49433832e-02, 4.01490554e-02, 3.20844837e-02, 6.99003711e-02,
          1.22138157e-01, 3.43000919e-01, 1.76222607e-01, 3.43000919e-01,
          3.43000919e-01, 1.58674568e-01, 1.58258434e-02, 3.14122275e-03,
          1.09390114e-02, 1.40977688e-02, 2.56403238e-01, 9.30570662e-02,
          2.73762107e-01, 9.49103162e-02, 2.49971952e-02, 1.06083686e-02,
          2.38863137e-02, 6.49897531e-02, 1.50426283e-01, 2.46460810e-01,
          2.13405073e-01, 3.43000919e-01, 3.43000919e-01, 1.62701711e-01,
          0., 5.11540893e-05, 8.13554565e-04, 4.63074818e-03,
          8.34002197e-02, 2.05349922e-02, 4.59666438e-02, 1.68581810e-02,
          3.59242287e-04, 0., 0., 0., 0., 0., 0., 0., 0., 0., 0., 0., 0.,
          0., 0., 0., 0., 0., 0., 0., 0., 0., 0., 0., 0., 0., 0., 0., 0.,
          0., 0., 0., 0., 0., 0., 0., 0., 0., 0., 0., 0., 0., 0., 0., 0.,
          0., 0., 0., 0., 0., 0., 0., 0., 0., 0., 0., 0., 0., 0., 0., 0.,
          0., 0., 0., 0., 0., 0., 0., 0., 0., 0., 0., 0., 1.04624584e-01,
          1.68049797e-01, 3.34673554e-01, 1.22952387e-01, 5.32382652e-02,
          7.19315782e-02, 1.48122042e-01, 5.81094772e-02, 4.38449681e-02,
          1.04834616e-01, 1.77316532e-01, 3.45186472e-01, 3.45186472e-01,
          6.13973998e-02, 6.12658896e-02, 1.20993212e-01, 1.81342065e-01,
          9.43280607e-02, 3.02993320e-02, 1.11143693e-01, 2.73683965e-01,
          5.45773059e-02, 6.16567805e-02, 2.46976186e-02, 1.22551747e-01,
          5.41073605e-02, 2.28062663e-02, 8.16028044e-02, 1.22667238e-01,
          3.45186472e-01, 3.45186472e-01, 1.00624897e-01, 4.72488292e-02,
          1.62335426e-01, 1.76631913e-01, 7.97157362e-02, 1.13110006e-01,
          5.33212125e-02, 1.18866816e-01, 4.49231490e-02, 8.73829275e-02,
          1.35257781e-01, 4.03118998e-01, 4.03118998e-01, 2.32270762e-01,
          2.07225364e-02, 2.95736645e-05, 5.72751102e-04, 4.26694663e-04,
          1.03184227e-02, 8.19066167e-03, 1.34404659e-01, 5.55908047e-02,
          3.84063423e-02, 7.50263259e-02, 5.97618148e-02, 9.01522636e-02,
          9.56116691e-02, 2.31129602e-01, 3.05630475e-01, 4.03118998e-01,
          4.03118998e-01, 1.20173298e-01, 4.42897342e-03, 5.64588117e-05,
          1.61487330e-03, 1.47069420e-03, 4.67199385e-02, 2.58508399e-02,
          1.34193301e-01, 4.83337305e-02, 9.68997367e-03, 0., 0., 0., 0.,
          0., 0., 0., 0., 0., 0., 0., 0., 0., 0., 0., 0., 0., 0., 0., 0.,
          0., 0., 0., 0., 0., 0., 0., 0., 0., 0., 0., 0., 0., 0., 0., 0. ]
      - [ 4.41647833e-03, 0., 0., 0., 0., 0., 0., 0., 4.41647833e-03,
          1.01320064e-02, 0., 0., 0., 0., 0., 0., 0., 1.01320064e-02,
          3.68267059e-01, 1.72590002e-01, 1.54763609e-01, 8.00636262e-02,
          1.51008442e-01, 2.75468603e-02, 1.49930298e-01, 2.74006784e-01,
          3.68267059e-01, 3.68267059e-01, 2.76931792e-01, 2.82139122e-01,
          6.97660670e-02, 2.85113513e-01, 4.66679186e-02, 1.17478438e-01,
          1.17871299e-01, 3.68267059e-01, 1.29306559e-02, 0., 0., 0., 0.,
          0., 0., 0., 1.29306559e-02, 2.03501135e-02, 0., 0., 0., 0., 0.,
          0., 0., 2.03501135e-02, 4.85185623e-01, 2.25542188e-01,
          2.44550742e-02, 6.26019714e-03, 3.66062019e-03, 3.87548469e-03,
          1.29613159e-02, 1.53632481e-02, 4.85185623e-01, 4.85185623e-01,
          9.56850965e-03, 4.51073423e-03, 8.27569794e-03, 4.68757981e-03,
          2.80848844e-03, 3.16596334e-03, 1.45603474e-02, 4.85185623e-01,
          1.85621567e-02, 0., 0., 0., 0., 0., 0., 0., 1.85621567e-02,
          2.04709657e-02, 0., 0., 0., 0., 0., 0., 0., 2.04709657e-02,
          4.96659338e-01, 7.81641435e-03, 1.86527837e-02, 3.75271551e-02,
          1.65579505e-02, 4.76168375e-03, 5.95999416e-03, 3.31575163e-02,
          4.96659338e-01, 4.96659338e-01, 6.52223639e-03, 2.34864671e-02,
          3.95659059e-02, 1.27626425e-02, 6.61413791e-03, 1.33877127e-02,
          3.21871191e-02, 4.96659338e-01, 1.81561671e-02, 0., 0., 0., 0.,
          0., 0., 0., 1.81561671e-02, 7.52145518e-03, 0., 0., 0., 0., 0.,
          0., 0., 7.52145518e-03, 4.43972111e-01, 1.43780485e-02,
          2.12946646e-02, 5.34013361e-02, 2.67087873e-02, 2.48727333e-02,
          1.63816027e-02, 2.12918833e-01, 4.43972111e-01, 3.80515546e-01,
          6.82617500e-02, 2.88866013e-02, 3.93881015e-02, 4.09406386e-02,
          2.38735806e-02, 4.26327176e-02, 4.43972111e-01, 4.43972111e-01,
          2.61019737e-01, 2.61019737e-01, 2.61019737e-01, 7.53562078e-02,
          4.59781885e-02, 3.95450816e-02, 7.66897798e-02, 8.16210061e-02,
          1.48622006e-01, 2.61019737e-01, 2.00084284e-01, 1.34156749e-01,
          7.06330985e-02, 9.06537250e-02, 4.34802994e-02, 4.69926447e-02,
          1.63291454e-01, 2.61019737e-01, 4.79020774e-02, 1.82314709e-01,
          2.61019737e-01, 2.61019737e-01, 2.61019737e-01, 9.20477286e-02,
          6.23095259e-02, 5.15257157e-02, 3.40568088e-02, 8.55336934e-02,
          9.91545394e-02, 1.59697801e-01, 2.61019737e-01, 2.61019737e-01,
          2.47260138e-01, 7.15917051e-02, 6.98681474e-02, 6.77465424e-02,
          2.11940154e-01, 1.56566843e-01, 9.54421908e-02, 8.96480456e-02,
          2.34484717e-01, 2.34484717e-01, 7.33676627e-02, 3.45302895e-02,
          1.64475858e-01, 2.34484717e-01, 2.11655110e-01, 1.63507655e-01,
          1.32256746e-01, 2.34484717e-01, 2.14766353e-01, 1.50422767e-01,
          8.79592523e-02, 2.34484717e-01, 1.81424305e-01, 2.34484717e-01,
          2.34484717e-01, 1.17295936e-01, 1.49339393e-01, 1.74951568e-01,
          8.89473259e-02, 5.60777932e-02, 1.37164325e-01, 1.66257709e-01,
          9.28857774e-02, 1.64897606e-01, 1.19388826e-01, 1.81423232e-01,
          1.01055078e-01, 8.01324397e-02, 1.23926871e-01, 2.34484717e-01,
          5.78404777e-02, 1.03958748e-01, 2.38117263e-01, 1.72706932e-01,
          1.03925742e-01, 7.92734250e-02, 2.60885984e-01, 2.60885984e-01,
          1.81534469e-01, 6.61095157e-02, 1.32214278e-01, 2.60885984e-01,
          2.57087618e-01, 1.52350500e-01, 1.35300547e-01, 2.60885984e-01,
          2.60885984e-01, 1.33235365e-01, 8.05169865e-02, 1.51779324e-01,
          1.89897537e-01, 7.22361729e-02, 7.47672394e-02, 7.61227831e-02,
          2.60885984e-01, 1.77613705e-01, 4.10681032e-02, 6.88914657e-02,
          1.40908554e-01, 1.31743550e-01, 4.42314036e-02, 2.78863832e-02,
          6.17817119e-02, 2.60885984e-01, 2.39387870e-01, 4.23829444e-02,
          5.28469309e-02, 5.75772151e-02, 1.32180586e-01, 3.26601714e-01,
          6.15365356e-02, 1.93041041e-02, 4.64160256e-02, 1.14819318e-01,
          1.08919375e-01, 6.10699356e-02, 6.15974963e-02, 3.37911956e-02,
          2.61707306e-02, 2.15056110e-02, 3.61666158e-02, 3.26601714e-01,
          3.26601714e-01, 8.77404958e-02, 7.67231956e-02, 1.24831706e-01,
          3.26601714e-01, 3.26601714e-01, 8.73541310e-02, 4.59286869e-02,
          1.53131440e-01, 1.76860303e-01, 1.39766127e-01, 4.31877933e-02,
          6.89769387e-02, 1.94604263e-01, 8.38560537e-02, 3.16295549e-02,
          1.15795344e-01, 3.26601714e-01, 3.26601714e-01, 6.99177608e-02,
          2.84485728e-01, 4.60948795e-02, 1.02375239e-01, 9.58236009e-02,
          5.43589115e-01, 1.32878184e-01, 2.07853056e-02, 1.50777455e-02,
          2.57789642e-01, 1.75802916e-01, 2.84541659e-02, 7.87857696e-02,
          2.20345363e-01, 5.43589115e-01, 2.95701832e-01, 6.22879751e-02,
          4.27452065e-02, 1.90997615e-01, 0., 0., 0., 0., 0., 0., 0., 0.,
          0., 0., 0., 0., 0., 0., 0., 0., 0., 0., 1.91968560e-01,
          7.44353086e-02, 1.66891634e-01, 3.36376786e-01, 3.36376786e-01,
          6.31761253e-02, 3.65041345e-02, 4.16850299e-02, 9.51818153e-02,
          1.69248715e-01, 1.10873751e-01, 3.36376786e-01, 3.36376786e-01,
          3.36376786e-01, 1.43165737e-01, 1.03076890e-01, 1.57576144e-01,
          1.47463769e-01, 3.56302597e-02, 2.98780072e-02, 6.16400838e-02,
          7.02362284e-02, 1.35822028e-01, 1.39045771e-02, 9.98891424e-03,
          8.84811580e-03, 2.46849488e-02, 4.54179496e-02, 8.25453699e-02,
          2.16579914e-01, 2.30804995e-01, 2.78034270e-01, 6.47950843e-02,
          2.72672251e-02, 4.42903079e-02, 4.80282232e-02, 3.21327262e-02,
          5.24490289e-02, 1.10948399e-01, 2.48232812e-01, 2.80771464e-01,
          2.80771464e-01, 2.80771464e-01, 8.44566524e-02, 4.56561148e-02,
          4.14602496e-02, 5.92660829e-02, 1.89999759e-01, 2.80771464e-01,
          2.80771464e-01, 2.80771464e-01, 1.51549190e-01, 5.71856312e-02,
          4.14558947e-02, 4.68677431e-02, 1.98575072e-02, 5.83223701e-02,
          1.00452058e-01, 2.80771464e-01, 2.43227601e-01, 1.68770045e-01,
          6.63622916e-02, 6.91766888e-02, 5.31224571e-02, 4.77970243e-02,
          1.70640245e-01, 2.80771464e-01, 2.17491120e-01, 5.52322641e-02,
          7.47882798e-02, 6.82071075e-02, 5.07716760e-02, 4.45299149e-02,
          2.51143686e-02, 1.88844100e-01, 2.51549453e-01, 1.04840763e-01,
          5.15495017e-02, 3.28752622e-02, 2.51549453e-01, 2.51549453e-01,
          6.79840893e-02, 6.65098708e-03, 3.69765274e-02, 2.02860773e-01,
          1.62918478e-01, 2.34883174e-01, 1.81003362e-01, 2.04266801e-01,
          2.51549453e-01, 4.95060608e-02, 2.41275858e-02, 1.13630317e-01,
          2.51549453e-01, 2.12965891e-01, 6.26771674e-02, 3.34673449e-02,
          1.26015052e-01, 1.89382985e-01, 7.91858137e-02, 2.17608754e-02,
          3.38664055e-02, 2.23205283e-01, 1.99545607e-01, 2.51549453e-01,
          2.03622758e-01, 2.02656806e-01, 2.51549453e-01, 0., 0., 0., 0.,
          0., 0., 0., 0., 0., 0., 0., 0., 0., 0., 0., 0., 0., 0., 0., 0.,
          0., 0., 0., 0., 0., 0., 0., 0., 0., 0., 0., 0., 0., 0., 0., 0.,
          0., 0., 0., 0., 0., 0., 0., 0., 0., 0., 0., 0., 0., 0., 0., 0.,
          0., 0., 0., 0., 0., 0., 0., 0., 0., 0., 0., 0., 0., 0., 0., 0.,
          0., 0., 0., 0., 0., 0., 0., 0., 0., 0., 0., 0., 0., 0., 0., 0.,
          0., 0., 0., 0., 0., 0., 0., 0., 0., 0., 0., 0., 0., 0., 0., 0.,
          0., 0., 0., 0., 0., 0., 0., 0., 7.76363909e-02, 9.97632369e-02,
          1.65440843e-01, 3.34169120e-01, 4.31185007e-01, 1.36019006e-01,
          1.13713622e-01, 7.11777508e-02, 7.70594254e-02, 2.40290388e-02,
          5.60593754e-02, 2.11504370e-01, 4.31185007e-01, 4.31185007e-01,
          3.50513577e-01, 2.41076887e-01, 1.04436323e-01, 1.16716558e-02,
          0., 0., 0., 0., 0., 0., 0., 0., 0., 0., 0., 0., 0., 0., 0., 0.,
          0., 0. ]
      - [ 0., 0., 0., 0., 0., 0., 0., 0., 0., 0., 0., 0., 0., 0., 0., 0.,
          0., 0., 0., 0., 0., 0., 0., 0., 0., 0., 0., 0., 0., 0., 0., 0.,
          0., 0., 0., 0., 0., 0., 0., 0., 0., 0., 0., 0., 0., 0., 0., 0.,
          0., 0., 0., 0., 0., 0., 0., 0., 0., 0., 0., 0., 0., 0., 0., 0.,
          0., 0., 0., 0., 0., 0., 0., 0., 0., 0., 0., 0., 0., 0., 0., 0.,
          0., 0., 0., 0., 0., 0., 0., 0., 0., 0., 0., 0., 0., 0., 0., 0.,
          0., 0., 0., 0., 0., 0., 0., 0., 0., 0., 0., 0., 0., 0., 0., 0.,
          0., 0., 0., 0., 0., 0., 0., 0., 0., 0., 0., 0., 0., 0., 0., 0.,
          0., 0., 0., 0., 0., 0., 0., 0., 0., 0., 0., 0., 0., 0., 0., 0.,
          2.05384210e-01, 1.73833489e-01, 6.44093007e-02, 4.39623334e-02,
          2.14320179e-02, 1.92610379e-02, 2.11630054e-02, 5.19727096e-02,
          1.33103460e-01, 3.01606417e-01, 2.54362673e-01, 4.51593399e-02,
          2.66716816e-02, 3.24455090e-02, 1.97642930e-02, 2.76484638e-02,
          5.13041429e-02, 2.19502240e-01, 3.01606417e-01, 3.01606417e-01,
          1.13224506e-01, 6.22015186e-02, 4.73596379e-02, 5.41402362e-02,
          8.38086531e-02, 2.81414777e-01, 3.01606417e-01, 3.01606417e-01,
          3.01606417e-01, 1.02274269e-01, 4.94700707e-02, 8.22622105e-02,
          9.11135077e-02, 1.12625003e-01, 1.75234601e-01, 2.26028487e-01,
          3.03353876e-01, 9.29002836e-03, 2.72468664e-02, 1.17386580e-01,
          8.55932683e-02, 2.29866691e-02, 1.07517121e-02, 1.40951602e-02,
          3.03353876e-01, 3.03353876e-01, 4.79371659e-02, 5.08359037e-02,
          6.48594424e-02, 5.93914092e-02, 4.42150794e-02, 3.24130319e-02,
          2.90941093e-02, 3.03353876e-01, 3.03353876e-01, 8.76018628e-02,
          6.13265112e-02, 1.98778048e-01, 2.13205248e-01, 6.21103160e-02,
          2.74487901e-02, 3.12315170e-02, 3.03346306e-01, 3.03353876e-01,
          1.28286719e-01, 1.25892311e-01, 1.73347265e-01, 1.66415766e-01,
          1.23549931e-01, 9.75529775e-02, 6.86829835e-02, 3.03353876e-01,
          3.00491691e-01, 1.72258355e-02, 6.71594264e-03, 5.66344196e-03,
          1.24260895e-02, 1.06547773e-02, 4.72003594e-02, 1.27682567e-01,
          3.34169596e-01, 3.34169596e-01, 5.18417321e-02, 1.55525664e-02,
          1.64598636e-02, 1.60881002e-02, 6.91909157e-03, 1.08493567e-02,
          5.76462336e-02, 3.34169596e-01, 3.34169596e-01, 3.73218469e-02,
          4.68575545e-02, 7.21714571e-02, 1.30114064e-01, 1.09296508e-01,
          1.00034304e-01, 1.45206958e-01, 3.34169596e-01, 3.34169596e-01,
          7.49428570e-02, 4.05530483e-02, 4.97956835e-02, 1.16088130e-01,
          6.07699640e-02, 2.17941776e-02, 4.90951315e-02, 3.34169596e-01,
          3.00826818e-01, 4.99517955e-02, 1.41967731e-02, 1.06094424e-02,
          2.51233298e-02, 4.50323336e-02, 1.04459217e-02, 8.87102261e-03,
          2.97803730e-01, 3.00826818e-01, 7.37312064e-02, 6.14587665e-02,
          5.88331968e-02, 1.67036224e-02, 2.10961215e-02, 9.34441760e-02,
          8.61751363e-02, 3.00826818e-01, 3.00826818e-01, 8.10911655e-02,
          4.23265025e-02, 4.38280292e-02, 1.09847978e-01, 1.60704583e-01,
          3.92702594e-02, 1.08123468e-02, 2.76246428e-01, 3.00826818e-01,
          1.93976760e-01, 1.74554214e-01, 1.95951104e-01, 8.60155448e-02,
          9.08998847e-02, 3.00826818e-01, 1.36874348e-01, 2.51142085e-01,
          3.29594649e-02, 3.88439037e-02, 1.37467608e-01, 3.71283561e-01,
          3.71283561e-01, 3.71283561e-01, 2.07075030e-01, 5.71953878e-02,
          8.39683786e-02, 5.01292720e-02, 6.04924299e-02, 2.13813126e-01,
          3.71283561e-01, 3.71283561e-01, 3.41354936e-01, 1.15822658e-01,
          5.12951985e-02, 8.16194341e-02, 1.43285748e-03, 6.09267561e-04,
          8.51409603e-03, 3.31764780e-02, 1.07783213e-01, 2.83202063e-02,
          8.09035543e-03, 4.55569429e-03, 7.12515879e-03, 1.99287524e-03,
          7.04458042e-04, 8.03495292e-03, 7.66047910e-02, 1.44383773e-01,
          2.52664946e-02, 7.05834758e-03, 2.15584761e-03, 3.26370355e-03,
          8.48647282e-02, 5.61552383e-02, 6.94368258e-02, 3.48187298e-01,
          3.48187298e-01, 9.29468945e-02, 4.11565714e-02, 3.68367061e-02,
          7.29099065e-02, 8.89100805e-02, 7.08051324e-02, 6.54678047e-02,
          3.48187298e-01, 3.48187298e-01, 2.40449265e-01, 2.93004308e-02,
          3.48922499e-02, 7.50336945e-02, 1.25714354e-02, 1.58489794e-02,
          3.32290977e-02, 2.67406404e-01, 3.48187298e-01, 5.64301722e-02,
          1.23864571e-02, 7.81538058e-03, 1.16899414e-02, 2.39919964e-02,
          1.85156204e-02, 3.20301764e-02, 2.09798083e-01, 3.48187298e-01,
          1.75743058e-01, 1.80850159e-02, 9.46046598e-03, 1.97200030e-02,
          6.52071983e-02, 6.11173511e-02, 7.64658451e-02, 9.84742641e-02,
          4.16275889e-01, 4.16275889e-01, 2.51118630e-01, 8.13857019e-02,
          2.91110128e-02, 2.76220590e-02, 3.99819613e-02, 3.70579213e-02,
          1.17679037e-01, 4.16275889e-01, 4.16275889e-01, 6.45372868e-02,
          3.07783261e-02, 1.77397337e-02, 2.37574745e-02, 4.84075909e-03,
          1.41292196e-02, 4.59239632e-02, 3.40098411e-01, 1.90852314e-01,
          9.10793766e-02, 2.96457633e-02, 1.05577568e-02, 2.31187069e-03,
          2.12525576e-03, 2.27152579e-03, 1.60026960e-02, 1.32066429e-01,
          5.31805120e-02, 2.69538071e-02, 9.02073178e-03, 1.77831028e-03,
          6.90681934e-02, 9.27328020e-02, 1.09543271e-01, 2.32540533e-01,
          3.69893849e-01, 3.69893849e-01, 1.16245501e-01, 1.31857872e-01,
          1.52154535e-01, 8.73235241e-02, 1.67627364e-01, 2.08913162e-01,
          3.69893849e-01, 3.69893849e-01, 3.25956941e-01, 2.46525079e-01,
          1.16084240e-01, 1.08313411e-01, 6.40289159e-03, 1.07355900e-02,
          8.42804741e-03, 2.49365736e-02, 1.36724338e-01, 1.97911840e-02,
          7.44061731e-03, 1.30415671e-02, 1.50708472e-02, 7.19136233e-03,
          1.57353748e-02, 1.35126570e-02, 2.19715461e-02, 1.46498784e-01,
          2.74007693e-02, 1.46346381e-02, 8.46376177e-03, 8.62871855e-03,
          0., 0., 0., 0., 0., 0., 0., 0., 0., 0., 0., 0., 0., 0., 0., 0.,
          0., 0., 0., 0., 0., 0., 0., 0., 0., 0., 0., 0., 0., 0., 0., 0.,
          0., 0., 0., 0., 0., 0., 0., 0., 0., 0., 0., 0., 0., 0., 0., 0.,
          0., 0., 0., 0., 0., 0., 0., 0., 0., 0., 0., 0., 0., 0., 0., 0.,
          0., 0., 0., 0., 0., 0., 0., 0., 0., 0., 0., 0., 0., 0., 0., 0.,
          0., 0., 0., 0., 0., 0., 0., 0., 0., 0., 0., 0., 0., 0., 0., 0.,
          0., 0., 0., 0., 0., 0., 0., 0., 0., 0., 0., 0., 0., 0., 0., 0.,
          0., 0., 0., 0., 0., 0., 0., 0., 0., 0., 0., 0., 0., 0., 0., 0.,
          0., 0., 0., 0., 0., 0., 0., 0., 0., 0., 0., 0., 0., 0., 0., 0. ]
      - [ 1.15130611e-01, 4.13565449e-02, 1.63669810e-02, 1.03238374e-02,
          7.46182259e-03, 4.64847498e-03, 1.49260964e-02, 6.33284524e-02,
          1.13461576e-01, 3.09680283e-01, 1.61365181e-01, 1.98818669e-02,
          7.36316666e-03, 9.45247617e-03, 6.73523173e-03, 9.20103770e-03,
          1.07265431e-02, 1.56032786e-01, 3.13569367e-01, 2.73488969e-01,
          1.09502353e-01, 5.20081408e-02, 4.67093214e-02, 3.82420160e-02,
          2.46744692e-01, 3.13569367e-01, 3.13569367e-01, 3.13569367e-01,
          3.13569367e-01, 1.30766794e-01, 1.37312889e-01, 1.33256093e-01,
          5.15044034e-02, 7.76746720e-02, 1.04406372e-01, 3.13569367e-01,
          2.97254533e-01, 1.20567624e-02, 1.03372112e-02, 1.38847642e-02,
          1.32750645e-02, 1.59272142e-02, 1.47853168e-02, 5.18731847e-02,
          2.97254533e-01, 1.57012746e-01, 1.20663727e-02, 4.53064684e-03,
          2.80889845e-03, 2.22218293e-03, 6.55317493e-03, 1.07172420e-02,
          9.78567302e-02, 2.86566854e-01, 2.97254533e-01, 6.02499321e-02,
          1.01324789e-01, 1.61467716e-01, 2.11774111e-01, 1.07237801e-01,
          6.89238086e-02, 2.34154657e-01, 2.97254533e-01, 2.97254533e-01,
          7.60390535e-02, 7.65201598e-02, 1.03949875e-01, 2.20708042e-01,
          1.65723637e-01, 5.93506098e-02, 2.97254533e-01, 2.97254533e-01,
          3.24796766e-01, 1.45730339e-02, 1.84629543e-03, 1.59830041e-03,
          3.50853545e-03, 7.79460417e-03, 3.46601778e-03, 6.85313111e-03,
          1.87961280e-01, 3.24796766e-01, 8.54963996e-03, 2.87978328e-03,
          1.13201067e-02, 6.65277475e-03, 6.98998524e-03, 2.59663211e-03,
          1.58010349e-02, 3.16333175e-01, 3.24796766e-01, 3.77892740e-02,
          1.05366800e-02, 1.59654707e-01, 2.45885968e-01, 1.15552992e-01,
          2.60145664e-02, 3.86454910e-02, 3.24796766e-01, 3.24796766e-01,
          2.66399868e-02, 2.94142924e-02, 2.56532669e-01, 1.84463009e-01,
          9.87464637e-02, 2.30238214e-02, 1.13087647e-01, 3.24796766e-01,
          1.40475109e-01, 1.99063458e-02, 6.84169447e-03, 5.10602770e-03,
          2.62538553e-03, 1.95958908e-03, 4.53560846e-03, 2.33118087e-02,
          1.39119014e-01, 3.27652425e-01, 9.55428034e-02, 4.72876150e-03,
          3.83831817e-03, 6.18792314e-04, 5.82290441e-03, 2.86661647e-02,
          3.21714617e-02, 1.50445506e-01, 3.27652425e-01, 1.72251135e-01,
          8.87308419e-02, 8.84539038e-02, 7.93282911e-02, 6.28833175e-02,
          7.01956898e-02, 2.10588664e-01, 3.27652425e-01, 3.27652425e-01,
          3.27652425e-01, 8.72729421e-02, 1.28679931e-01, 1.67295665e-01,
          1.69818118e-01, 2.66519904e-01, 1.47796959e-01, 3.27652425e-01,
          5.01610488e-02, 1.26905620e-01, 2.66230166e-01, 2.66230166e-01,
          2.66230166e-01, 1.72877103e-01, 2.66230166e-01, 9.48942229e-02,
          2.91843861e-02, 1.37121618e-01, 2.59222269e-01, 2.66230166e-01,
          2.66230166e-01, 2.66230166e-01, 8.62274766e-02, 9.80267674e-02,
          8.37840661e-02, 7.83402398e-02, 1.82832237e-02, 5.87418489e-02,
          1.57770008e-01, 1.98743284e-01, 1.29786834e-01, 7.16086179e-02,
          5.63698076e-02, 3.58601138e-02, 2.20134016e-02, 4.71374840e-02,
          8.39952976e-02, 2.66230166e-01, 2.66230166e-01, 2.66230166e-01,
          5.51727116e-02, 4.70121689e-02, 4.53311652e-02, 4.80454713e-02,
          2.07487151e-01, 8.42222273e-02, 6.19143397e-02, 9.79827493e-02,
          1.76134557e-01, 2.06531823e-01, 2.14287192e-01, 1.49205521e-01,
          2.13886842e-01, 2.19205603e-01, 5.05206659e-02, 4.17315736e-02,
          6.90750331e-02, 1.26107916e-01, 1.36749089e-01, 1.61811784e-01,
          2.22349659e-01, 2.43967086e-01, 1.71801716e-01, 4.43451591e-02,
          8.73378068e-02, 2.25216225e-01, 2.43967086e-01, 1.13115609e-01,
          5.81367686e-02, 8.02967399e-02, 1.68174222e-01, 2.43967086e-01,
          5.57648651e-02, 2.21459910e-01, 2.06643865e-01, 2.43967086e-01,
          9.15772468e-02, 5.89179173e-02, 1.84343621e-01, 2.43967086e-01,
          1.32209122e-01, 6.93825558e-02, 1.10740565e-01, 1.58908695e-01,
          2.84424782e-01, 1.59132779e-01, 1.92861497e-01, 1.51392296e-01,
          1.69047683e-01, 9.64288414e-02, 9.20558125e-02, 2.52944052e-01,
          1.85443535e-01, 2.84424782e-01, 1.72496483e-01, 1.35130912e-01,
          9.87685248e-02, 1.10291339e-01, 2.15842113e-01, 1.42233789e-01,
          1.33085504e-01, 1.08239383e-01, 1.17524169e-01, 1.37402251e-01,
          2.84424782e-01, 2.84424782e-01, 2.84424782e-01, 7.62877539e-02,
          8.56155679e-02, 1.03869155e-01, 2.45544761e-02, 5.54581396e-02,
          2.94966660e-02, 1.60059437e-01, 1.84857324e-01, 1.24712288e-01,
          2.59389598e-02, 2.12371990e-01, 2.35902652e-01, 2.35902652e-01,
          1.09119989e-01, 1.41839862e-01, 1.09112643e-01, 2.23834604e-01,
          2.06759125e-01, 4.25075442e-02, 6.94113225e-02, 1.06568426e-01,
          8.20072740e-02, 1.13523625e-01, 2.31353894e-01, 2.35902652e-01,
          2.35902652e-01, 2.35902652e-01, 3.38654704e-02, 2.35902652e-01,
          2.29406208e-01, 1.74446419e-01, 2.35902652e-01, 2.35902652e-01,
          9.48040187e-02, 6.84584007e-02, 6.46701083e-02, 2.67278831e-02,
          4.84672226e-02, 7.29031861e-02, 7.39361197e-02, 1.94429070e-01,
          2.35902652e-01, 2.14755461e-01, 1.24632403e-01, 8.80482122e-02,
          0., 0., 0., 0., 0., 0., 0., 0., 0., 0., 0., 0., 0., 0., 0., 0.,
          0., 0., 0., 0., 0., 0., 0., 0., 0., 0., 0., 0., 0., 0., 0., 0.,
          0., 0., 0., 0., 3.25074643e-02, 1.30047604e-01, 2.78176755e-01,
          9.31845382e-02, 6.17832206e-02, 9.80497338e-03, 1.00949332e-01,
          6.37592450e-02, 3.76921669e-02, 1.27758101e-01, 2.56935567e-01,
          3.43609214e-01, 3.43609214e-01, 2.90844738e-01, 1.05406672e-01,
          1.60357386e-01, 1.49857178e-01, 1.16229370e-01, 5.79496799e-03,
          4.08196524e-02, 1.35550112e-01, 6.36439994e-02, 3.22693586e-02,
          1.61272045e-02, 7.21063912e-02, 3.01047191e-02, 6.50373381e-03,
          9.98513848e-02, 1.36028409e-01, 3.43609214e-01, 3.22354406e-01,
          2.53583044e-01, 1.30914330e-01, 1.17444247e-01, 1.15999281e-01,
          7.98010156e-02, 7.14071915e-02, 2.67974343e-02, 1.33031875e-01,
          2.95845926e-01, 4.92959395e-02, 6.57100603e-02, 9.61499065e-02,
          2.95845926e-01, 2.20039859e-01, 5.82679249e-02, 3.03740520e-02,
          9.83366296e-02, 1.45986974e-01, 4.03875597e-02, 4.98936810e-02,
          9.89000052e-02, 2.95845926e-01, 2.57508665e-01, 8.01005438e-02,
          6.69113770e-02, 2.95845926e-01, 2.95845926e-01, 7.78724775e-02,
          8.76408294e-02, 1.32326052e-01, 2.22357407e-01, 1.10358045e-01,
          5.04787974e-02, 5.43287396e-02, 2.11107045e-01, 2.18056142e-01,
          4.57625724e-02, 4.96410392e-02, 1.06141753e-01, 2.95845926e-01,
          2.26381198e-01, 1.12448834e-01, 2.99167186e-02, 2.38446444e-02,
          5.35084158e-02, 1.64684132e-02, 9.01750848e-03, 1.09926127e-01,
          1.44894123e-01, 1.63488492e-01, 1.16652029e-03, 5.13146697e-05,
          3.75341420e-04, 1.59142583e-04, 1.95332366e-04, 1.57668095e-04,
          8.41515139e-03, 1.42119275e-02, 5.78159606e-03, 3.17623794e-01,
          1.48893401e-01, 3.21996987e-01, 4.00111169e-01, 1.34774745e-01,
          9.95220318e-02, 4.00111169e-01, 4.00111169e-01, 4.00111169e-01,
          3.18048196e-03, 3.04263341e-03, 1.50887109e-02, 6.67182915e-03,
          4.24882863e-03, 1.01659028e-02, 1.21819280e-01, 8.82906839e-02,
          1.88580938e-02, 0., 0., 0., 0., 0., 0., 0., 0., 0., 0., 0., 0.,
          0., 0., 0., 0., 0., 0., 0., 0., 0., 0., 0., 0., 0., 0., 0., 0.,
          0., 0., 0., 0., 0., 0., 0., 0., 0., 0., 0., 0., 0., 0., 0., 0.,
          0., 0., 0., 0., 0., 0., 0., 0., 0., 0., 0., 0., 0., 0., 0., 0.,
          0., 0., 0., 0., 0., 0., 0., 0., 0., 0., 0., 0., 3.69210392e-02,
          1.40175045e-01, 3.22279155e-01, 3.22279155e-01, 3.22279155e-01,
          8.00090656e-02, 4.41739000e-02, 8.20782781e-02, 4.39397022e-02,
          6.85542077e-02, 1.11681312e-01, 2.25168109e-01, 3.22279155e-01,
          3.22279155e-01, 3.22279155e-01, 2.74388343e-01, 1.72069594e-01,
          1.22664325e-01, 1.16098218e-03, 1.18396403e-02, 1.99789759e-02,
          1.00855798e-01, 1.22476839e-01, 3.01571451e-02, 3.91069427e-03,
          6.38088619e-04, 1.16634648e-03, 5.60549274e-03, 8.08661617e-03,
          2.38770247e-02, 1.67862788e-01, 2.74554849e-01, 1.23601966e-01,
          3.91656756e-02, 5.59024280e-03, 6.33603288e-03, 2.20905930e-01,
          1.50069788e-01, 9.08502713e-02, 1.73675418e-01, 4.77225274e-01,
          4.77225274e-01, 4.77225274e-01, 2.54811168e-01, 3.53918105e-01,
          8.42625089e-03, 0., 0., 0., 3.37297618e-02, 3.60289477e-02,
          7.37807676e-02, 2.44631879e-02, 2.08608508e-02, 0., 0., 0.,
          4.83435439e-03, 4.09701951e-02, 2.13874206e-02, 2.48521864e-02,
          1.77651010e-02, 5.67515672e-04, 0., 0., 0., 0., 3.95223411e-04,
          5.44393260e-04, 0., 0., 0. ]
      - [ 8.59215483e-03, 2.39957478e-02, 5.94433732e-02, 6.93873223e-03,
          6.80569327e-03, 3.22839664e-03, 5.80932898e-03, 8.05099867e-03,
          5.76904649e-03, 1.82044759e-01, 3.55524659e-01, 3.55524659e-01,
          1.32840946e-01, 1.05204262e-01, 7.28598312e-02, 1.85689405e-01,
          1.71362177e-01, 1.35604262e-01, 1.87928639e-02, 3.33590508e-02,
          8.05307254e-02, 1.69106815e-02, 8.87619518e-03, 4.83613228e-03,
          1.17219053e-02, 7.09756697e-03, 2.86859879e-03, 2.85459489e-01,
          3.55524659e-01, 3.55524659e-01, 2.61693537e-01, 1.62707776e-01,
          1.02087133e-01, 2.66386062e-01, 2.26518974e-01, 1.39159158e-01,
          2.69279569e-01, 1.67310778e-02, 2.45833229e-02, 1.39890149e-01,
          2.69279569e-01, 5.23581356e-02, 3.45733613e-02, 1.82028506e-02,
          2.69279569e-01, 2.69279569e-01, 3.35668512e-02, 3.93581465e-02,
          1.96093544e-01, 2.69279569e-01, 1.64307579e-01, 3.38520296e-02,
          3.39624323e-02, 2.69279569e-01, 2.59555250e-01, 2.70245001e-02,
          3.62092145e-02, 9.08318907e-02, 2.69279569e-01, 7.30182156e-02,
          5.75416237e-02, 5.30729443e-02, 2.69279569e-01, 2.34885022e-01,
          5.02459928e-02, 4.44607735e-02, 1.10048279e-01, 2.69279569e-01,
          1.12364560e-01, 3.01978793e-02, 5.10563366e-02, 2.69279569e-01,
          2.56731361e-01, 3.58604975e-02, 5.23945093e-02, 6.83549941e-02,
          2.61026591e-01, 2.61026591e-01, 5.60146421e-02, 4.87857759e-02,
          2.61026591e-01, 2.47619867e-01, 3.54019776e-02, 4.46746834e-02,
          4.24951278e-02, 2.61026591e-01, 2.61026591e-01, 6.12188801e-02,
          9.48688984e-02, 2.61026591e-01, 1.73286185e-01, 5.60682192e-02,
          8.58342126e-02, 7.68534243e-02, 2.61026591e-01, 2.58170843e-01,
          1.04130626e-01, 8.62385631e-02, 2.61026591e-01, 1.31850153e-01,
          4.40143384e-02, 6.08819649e-02, 5.51480055e-02, 2.61026591e-01,
          1.67050257e-01, 9.37939137e-02, 7.53113776e-02, 1.58442363e-01,
          0., 0., 0., 0., 0., 0., 6.37122869e-01, 2.12374300e-01, 0., 0.,
          0., 0., 0., 0., 0., 0., 0., 0., 1.36808366e-01, 0.,
          2.25175358e-03, 1.57967340e-02, 1.81723554e-02, 0.,
          4.31277096e-01, 4.52801347e-01, 3.21418434e-01, 0., 0., 0., 0.,
          0., 0., 0., 0., 0., 1.36267336e-03, 1.84554681e-02,
          5.48620261e-02, 1.48134492e-03, 2.85826367e-03, 0.,
          3.34296521e-04, 1.69053077e-04, 2.22538598e-03, 2.31174454e-02,
          4.96198893e-01, 4.96198893e-01, 1.46608958e-02, 3.03814616e-02,
          6.89034932e-04, 3.60414535e-02, 1.20313214e-02, 1.92360077e-02,
          0., 1.73193999e-02, 5.19582033e-02, 0., 3.29869473e-03, 0., 0.,
          0., 0., 2.78536609e-04, 4.96198893e-01, 4.96198893e-01,
          7.32889966e-05, 1.80462115e-02, 5.42524788e-07, 2.49483972e-04,
          1.28775049e-04, 1.33418827e-04, 1.21496476e-01, 9.46795195e-02,
          1.72173977e-01, 6.32702932e-02, 9.42307264e-02, 1.37251407e-01,
          2.91351855e-01, 2.16386050e-01, 1.35209948e-01, 3.21257800e-01,
          2.10232437e-01, 9.25255492e-02, 9.70697552e-02, 8.37002024e-02,
          1.51235193e-01, 3.21257800e-01, 3.21257800e-01, 2.17973098e-01,
          9.16800499e-02, 1.48937866e-01, 2.58461833e-01, 6.38614446e-02,
          8.39534104e-02, 1.44698754e-01, 2.10829616e-01, 1.69392377e-01,
          1.03845872e-01, 1.09466240e-01, 1.01095684e-01, 1.15819253e-01,
